{"nodesInLayer": [784, 100, 10], "weights": [[[1.9677900295638824, 1.7653304338353804, 0.24315860476049447, -0.2745819366208745, 0.2631876786815523, 0.22773678492005225, 1.0552396094665997, 0.9417749186159081, 0.9782316500669788, 1.5660078806061621, 0.4720067317449004, -1.308703792876455, 0.03626370927055731, -3.7002163847402794, -0.12605282485615282, 1.4504909704691205, -1.6040919310332715, -1.8539856912141806, 0.011674982901137944, 0.48766591357310046, -0.41539037571159343, 0.42359149374363264, 1.6446284931725104, 1.6758143141706277, -0.1910061739950209, -1.8369545780287946, -0.8973942861127944, -0.7834282663191153, -0.616254975772745, 1.5451439496031585, -0.3437978346901977, -0.41416330002404755, 0.9050835074567865, 1.1634358472619823, 0.5453696171011725, 0.012613231381316467, -0.5273530655242851, -0.08751718971470111, 0.15851756697335623, 1.0542751433122548, -0.42867899526510295, -1.0886993022302178, -0.4377708919475394, 0.5075912871553918, 1.0671837172060186, -1.1814620769194606, 0.7060291345710324, -0.9035236908872002, -0.8067013392555598, 1.0916677841072657, -0.99743800299701, -0.6617350513170986, -1.7152317798771015, 0.60551903789297, -1.13474772793686, 0.7354164312361778, 0.02430432793143275, 0.1827377528093493, 0.9317072708259515, -0.683940614849166, 1.1531618716867968, -0.6316834319637719, -0.8496033888914724, 0.9554875012550225, -1.9762322512040407, -0.558838282227339, -1.2779940132793097, 0.5527688130076028, -0.20649244832599334, -1.2747341563991859, 1.2384170246560318, 1.5551807260397834, 1.1638453657987389, -0.3039630366070778, 0.40983921174834, -1.0116024874933203, -1.7354268503136967, 1.32037192651952, 0.8116439515606522, -1.630711942822853, -1.4935828359709848, -0.21517752251647881, -0.5798617394995216, 0.5055419430881556, -0.056394046466579334, -0.3274285736844777, -1.3428757137613527, -0.4314566333431069, 1.577951526835985, 0.33906518627824433, -0.4594377087486364, -1.5893271286514, -0.5430328819882233, 0.6929254055156342, 1.464505891714912, 0.3465591401204855, -1.4051803350543401, -0.6700024785987129, 0.7669560990141356, 3.083769473004065, -0.7486505225925693, 0.40832219178613904, 2.420991056371838, 1.3310872659254125, 0.7030890867322718, -1.4641727786526546, 0.24572316205259515, -1.2229355645341609, -0.5739845625983594, -0.48818472780543537, 1.9246640662810073, -1.3098896201990597, -0.5841368466570941, 0.5573622041585669, -0.3370430555907722, -1.4785783778747845, -1.1844421231571909, 0.5313078733294823, 1.6844455833828602, 0.30280912346724875, 2.6671904331244165, 0.5960302990809628, -0.2758506323017433, -1.9681327930461772, -0.40681536733119805, 0.6604553369190629, -1.346719593584594, 1.8798897295322199, -0.7450637196004057, 0.358061641435016, 1.9017523472053046, -0.033961962055173975, 1.2937160951811895, -0.4746110886758985, 0.36628891097431754, -0.6548237965968856, 1.5528505073116832, -0.446206718618749, 0.7436171390228494, -0.39182297891173884, -1.120038080033116, -0.4362536927561557, -0.2066467373416774, 0.07219953190772548, 1.5720121703931866, -0.265691363647759, -0.22562595520206064, 0.06965523833602845, -0.9301619454020812, 0.25997416821990427, -2.1035479312793823, -2.3287397841802275, 0.4238847229692285, -0.25345462741714586, -0.8725278968805662, 0.38914084868223614, -1.9344699852784968, -1.8039918907537036, 0.5417853731027282, 0.27487660512308276, -0.09458364423248276, 0.41643015333471506, 1.0272678226958492, -0.2144648430730977, 0.24998287709314929, -0.1366597605086707, 1.0536583149828975, 0.529085015948853, 0.24340730760527393, 1.6306563775703993, 0.9944264957570738, -0.3141282504528443, -0.8479409557789526, -2.3232372014546656, 0.20693766571465275, 0.5947781869422624, 0.8038189748193548, -0.014530638351121098, 0.742901189243313, 0.44240571626073405, 0.370445913127649, 0.9061747123405575, 1.084223740526566, 1.6558423510700522, -0.2156615167600039, -0.9314955575962093, -0.5545978318364927, 0.8235249639518328, 0.45803794939075404, -0.9107716085602633, -0.007912594485197313, -0.7280723406898336, -2.010655683884332, 1.0456129850011018, 1.4561803152975799, 1.9904066854946278, 0.20401269666862354, -0.9404193744462264, 0.9448369277080005, 0.6906631274056807, 0.8761760514592671, 0.010631800685099784, -0.7517664747802446, -0.2823967164238453, -0.677461808093616, 1.3782922212441746, 0.22106188020403383, 1.1221400269031143, 1.819410379536394, 1.5066780026437787, -0.3755299015020504, 0.13764976967113676, 0.15409902286786503, -1.6519671664785451, 0.7594172279142685, -0.39248893133314516, -0.38811104044536376, 1.1583462408095955, 0.5756574923118029, 1.466078307558509, 1.865620830986859, -0.026187953858045534, 0.9575854514466229, 0.5506562951903422, -0.5394463429480919, 0.7473608826547762, 1.8235862260320364, -0.6992414763696712, -0.40669035944080945, -0.17453076638852344, -0.5709482392567581, -2.1857738412298318, -2.0191625475580013, 0.04301650428457886, 1.825309573990725, 0.21231214209044236, -0.5860396490934885, -0.21767818126025368, -1.1594697870875457, -1.0141677116306018, 0.9561923759446602, 0.2654301050172615, -0.14754932719961167, 1.2283244249047784, -0.4896900727089513, -0.258914016222645, -1.6142272033562037, -0.38052085343127395, 0.9845942847731413, -1.7004454950081511, 2.938984219618784, 1.159885235897403, -0.09958135941933377, 0.824666888362621, 0.42223356453448857, 0.45597325614302586, -0.3467391317126456, 0.17741598062344113, 0.19522061244386527, 0.74031061804077, 0.5757932421518445, 0.78338387941859, -0.19387785138362254, 0.06831778505369662, -1.0602016493104804, -1.687113616152048, 0.11714166149750121, 0.6916066773915897, -1.01705479368418, -0.2566375258467775, 0.9885256815831283, 0.18860845416902733, 1.190818315704019, 0.5573215760532447, -0.8781873474751013, -0.8691659863238532, -0.42009159026420567, -0.20234668098200465, 0.5447723798927993, -0.593705149025955, 0.5816693420091815, -0.4358965575695243, -0.30893249575598697, -1.4526609300622795, -0.16883873271340774, -1.3859156205337406, 1.5375338089502855, 0.971545615274906, 0.6975013023981406, 0.7817314734202988, -0.1484614388631181, 0.1669205283304813, -0.39280882457256516, -1.4091079955407706, 0.48866641879743666, -0.8598019213583951, -0.5653348990090191, 0.15116552685504653, -1.7092033644772475, 0.23211315120794682, -0.42752684808674424, -0.07586471501102215, -1.1574225322702385, -0.5116651647284819, 0.8369349906982534, 0.9355615196163931, -0.608059232400502, -0.3156302795852738, 0.11844848806863091, -0.9413072495164946, -0.7248701526242091, 1.2864524828818944, 0.298922315418356, 0.4365408128018305, -0.6560109999951118, 0.9542811934008635, 1.2525856451252355, -0.44354481591865735, 0.6391157891084508, -0.2360822308509983, -0.5856912773459593, -1.285707686939381, -1.474313445350348, -0.33649445976203035, -0.7759589594146942, -0.6853368295289266, -1.0515260537100057, -0.8242243562403819, 0.8454904591604255, -0.5674745977655379, -0.0733317692733729, 0.16577057749138116, -0.42869127057317524, 2.0654402403116143, -0.9971974452237037, -0.659401351421798, -1.7875015269866492, 1.441326581928346, 0.5837683503287705, -0.1241193594988112, 0.4039232979200022, 0.9051451264306023, -1.1484013867149137, 1.1695719397456839, 0.3105661004904664, -0.1670167375028204, 1.9197648874926796, 1.0173681640110352, -1.7621100864645058, 0.16200433976090495, 0.42816367591135807, 0.40586685609215856, -1.4083270257200347, 0.23017367262717353, 1.753776153063328, 1.9485601515905089, 2.410047929626691, 0.1795355905174743, -1.5323653369265942, -0.06473736110331223, -0.577390772570082, 1.3876605281862493, -0.7177110098498832, -0.11521216631135596, 0.8429821961453376, 0.18543518040595341, -0.4316458492429721, -0.40932060056191366, 0.9473536228521886, 0.8344506104047719, 0.3334020660892213, -0.09589943874880553, -0.48550420875315115, 0.4335305052661413, -0.5197349630280209, -0.8137403403378943, -1.780100415090208, 1.3168102388957759, 1.0133758051551307, 0.5965513856425111, -2.2232367932720662, 0.9577241273149253, -0.1887334110333262, -0.20117169548680755, -0.14527087803364488, -0.11525234598372544, -0.3331594243885967, 0.5414272094370282, 0.5276709525661983, 0.8220267649437424, -0.7854856436213863, 0.4037763408809304, -1.8579216287094964, 1.0031204196713899, -1.9210340337137097, -0.4107097267819244, -0.5088366220370616, -0.6071276525058347, 1.069466279775653, 0.10035363783417352, -0.4565353062405382, -0.6439834750247649, 1.770390473487522, 0.2633381055359765, -0.9870483340013, -0.06913567109648511, -0.875968651753879, 0.07245647514038676, -0.6631611982330545, -0.772847959275959, 1.237341107526777, 0.17450966303194748, 2.0758427154730663, 0.13956864301068936, -0.5587216487674561, 0.5313833286326485, -0.1645011942741574, -3.7502440807179322, 1.3625837029316887, -1.8927477706872575, -0.3145235542455585, -1.0390782117538528, 1.2809528794150469, -0.7948136021117245, -0.5733175813987961, 0.8155617538511711, -0.17296068708095455, 1.9586939163209647, -1.7237840994524398, 0.1066791545020623, -0.14609524440821303, -2.264475887085045, -0.8337753413474399, -1.8609313715441695, 1.2400500502160237, 1.0903442306472626, -0.40851165782248317, 1.8688029730918763, -1.426820197666698, 0.8273382508415323, 0.042253781550312335, -0.004990787081848582, 0.20640170955783607, -1.5463214419944438, -0.09229601362342434, -1.4276723435836824, 0.6178221984258312, 0.6031603846875715, 0.18548393326252982, -1.780369968108537, 0.5456399399008316, -1.617986876167215, 0.5894721025336243, -0.23277898454024062, 0.8794135732314634, -0.6940060941055615, -0.5553780238327601, -0.8099034673008914, 0.2718962952172459, 0.8380657764198849, 0.6486160202693149, -0.1825105701642032, 0.9923915458652636, -1.2920338605983825, -1.9767509331879964, 1.9239686417833595, -0.45925496301062346, -0.3074282963960771, -0.4604555104521884, 0.1473205175353881, 0.2837524125191229, -0.5546395822805311, 0.5823435154848806, 0.6565697659856454, -0.42502468869255855, -1.1385861304128264, 0.0018897660095267507, -0.776609573473203, 0.0026470033924048974, 1.3337406726702763, -0.9778699006743757, -0.4610497198561805, 0.6673810665044027, 0.8469815788560173, 2.6772104016443303, 0.09062397145986201, -0.8526424234467596, -1.8452390510601975, 1.895022729015825, -0.9518783427245883, -0.14383668466124006, -0.9260124810797744, 1.15633405765604, -0.70409991413783, -0.021956933212100023, -1.4826565391744069, 1.447475535343321, -0.5203773618797995, -2.427484446306231, 0.969534892990495, -0.2754192162336036, 1.1612318866846358, -0.5037026028903903, -1.3610688427661604, -0.6384687059225579, 0.42064154789014413, -1.1930562596664511, -0.8884150506145841, -1.794207617792701, -1.3670291123103517, 0.37408916437944884, -0.9690945393820617, 0.074433963395556, -0.20849214936265303, 0.694580398266993, -0.09664831212666211, -0.4983066587273024, 1.1957906940630523, -0.7894791121677992, -0.931180626881931, 1.7691436251852555, -0.6635674694911861, -0.10459508176374056, 0.5143399645522282, 0.5332922652341568, 0.6790769356143297, 0.581269168726846, 1.4331483159187035, -0.7546979306118463, -0.7452497625091641, -0.555135587159888, -1.1425555495596904, 0.2256755314520449, -0.6317760839971404, -0.6388457047679279, 1.327400815307335, 0.6390738741995363, -0.7162269550430129, 0.18654143428684558, -0.08831554511010296, -0.12345840350616938, -0.5286711284526928, 0.507278118754464, -1.2239195759205113, -1.4721832807006594, 1.6677500087883481, 1.0648674950309385, -0.6442059684541236, 0.361433067448344, -1.1679403856998691, -0.779854252077872, -1.3432177227558826, -0.6790984798132329, -0.30240661355986226, -0.5872481115597963, -1.1556125966185111, -1.0508835863891652, -0.4937975542545382, 0.9429382739801287, -0.7581557338890301, 0.014616390162525241, 0.13262292583013607, -0.31429273705859173, 1.1185385051881327, 0.2600496120755572, -0.09570207633301565, 0.2947836184295167, -0.2550676042859884, 0.5474640567134965, -0.1162226120186551, -1.1058957933216325, -0.6620508388767321, -0.11802766206215544, 0.07395569961754278, 0.1621445695800119, 0.13200443079737104, 1.113291523393524, 0.2168301804041638, -1.531877578687684, -0.6742943784002293, -0.9103630620568737, -0.26667386731967496, 0.23117512226270304, 0.22906711614338354, 1.1338801319035448, 2.7738011060370127, -0.1290947953337223, -1.9049503357606226, 0.14796705071600552, 0.04024947912137358, -0.8943165447583217, 0.04807107173942973, -0.2092862577323699, -0.8586865409950245, -0.32312567119461516, 0.25420726343355804, -2.4528678032426154, -0.6006318022033922, -0.8483647134087915, 0.13073161698442048, -1.5308478096668208, -1.5563040216581565, 0.6580265616471175, -0.9959932729246781, -0.5673589159276007, -1.0590525620777027, -2.1935418968390428, 0.24921458018653578, -1.5310356460728458, -0.3896761258232795, 1.3584617469149018, 1.0097588212243098, -0.08349709422135991, -0.22043331272517355, 0.35862222524366183, 1.2626291479619134, -1.6333486917418119, -0.19523161508280007, -0.4873609709872849, 0.34446159912747437, -0.2547460035021062, 2.6323033655281853, -1.1227285256239006, -0.3136830139039865, 0.21106892354447934, -1.310928414655106, -0.057317438690400874, 0.06420207376587725, -0.439619438381736, 1.7340579193308625, -0.4611519425964869, 0.6497409829491895, 1.2798967547289155, 0.9948330848498691, 0.35218190160319374, -0.6329021973086183, -1.0638253027239766, 0.8199495071016322, -1.0871875608247321, 0.7733519661194043, 0.38827122246623796, 1.2780741891140652, 1.6708412827089276, 0.5798792039195869, -2.0920896454134494, -0.34803404523050735, 1.0765651629062396, -0.5682355738911417, -0.16067135158977075, -1.5715842423956414, -0.02731133757833737, -0.025678350219118656, -0.3732551596694411, -1.266698574297319, -0.9949994044784504, -1.5180682017277158, 0.5323513891108467, -1.5417589781200218, 0.40499882453793223, -1.5043122755493168, -1.0229019071589918, -0.410591277699418, 0.1540837436488456, -0.21959848777793786, -0.25921660887254344, -0.12057987793286862, 0.5570880819281939, -2.4042488582989154, 0.530099013907913, -1.1302139250968917, 0.28653863272998703, 0.7220759432587386, 2.0056834649096755, -0.4215094780171034, 1.835012514245848, 0.4680155903269032, 0.46105992232940896, -0.11028499972485219, 0.9900897341443124, -0.08843518073602996, -0.42093128651498796, 0.26120239240208454, -1.1980209673379156, -1.3288262722177462, 1.7305270869624767, -0.6520961360317352, -0.35517477204105236, -0.2164862319630166, -0.8107290296508421, 0.3293607347399758, 0.8073849317974154, 0.061915527074835476, 2.477441248568461, 1.0080559753079883, -0.2612759748102118, 0.32801543626948354, -0.0642243392916699, -0.023331135594505753, -0.4469839419283334, -1.1803148353369743, -1.0891507603765276, -0.32439693915162776, -0.09485927428308893, -0.19767650038695106, 1.6295043695070364, 1.058021877614488, 0.033842655205554614, -0.6087647841424217, -0.5955629389140027, -0.6476796319362769, 0.6979431708514918, 0.3925427423428706, 0.8371630178348495, 1.9367749119939495, -0.5792374963239008, 1.43838481205122, 0.5631392858616541, -1.201487975488563, 1.3758087886980979, 0.6063650640679517, -1.0704903706998354, 0.3878700196834462, -1.1653288887525837, 0.5899722364457277, 1.1404720795107304, 1.2884810644482725, 0.8973850976065891, -1.0067965057871395, -2.9371970275187094, -1.2264256964471456, 0.05328914473611265, -0.9626674479172908, 0.4144016123530284, -0.3221693665369643, -0.04163177189696152, 0.4424782424694098, -0.7668260983643852, -0.7173179170149753, 0.3744779454056447, 1.4779255813674845, 0.11183770178584998, 0.05700597312234785, 0.7323715808197087, 0.009672388970015926, -0.9017360135104646, 1.4242031753234652, -2.2376036166584807, 0.44341056603406004, -1.2138084419214077, -1.2524328544450376, -1.2277621844166604, 0.6700021919438465, -0.40128797965133844, 0.5247270534903353, -0.47419734168477484, -0.4687452250630541, -0.26520401222437145, -0.292075085430755, -0.21561625091248018, -0.3237744921154051, 0.3896875942084718, 0.7796359096239014, -1.5211801865544645, 0.021783617753895736, 1.714084195329279, -0.8695848581220065, 0.14359934603658414, -1.4582967963342175, 0.04026293628093447, 0.11259567051815465, 0.3795427664355673, -1.5389235902634253, -0.5873210759792924, -0.3245363742227585, -0.09745862710505919, -1.5450502210138983, 1.5030954286260712, 0.8677404068813623, -0.4767710089860204, 0.652068794619679, 0.5680716003298288, -1.5305685514333134, -1.516209514192637, -0.027427488210724913], [1.3805921543567667, 0.35229245382766455, 0.5093044579638777, -1.2945655324709537, -1.2581220762523684, -0.36170878299178594, -0.788366215927132, 0.03192138705048818, 0.783574351676215, 2.169334277753162, 0.8733699432281508, -0.17488165617118975, 0.4631448694697192, 1.8886055745051764, 0.2280090773630811, -0.6277323126998056, -0.6440946528371961, -0.9938803729553278, 0.5952652661950187, -1.2307062711692862, -0.21886126459040806, -0.3933171071991364, 0.1348805726437895, -0.0980434712434068, 0.11817336355350254, 0.9854239158588362, 0.16278652122268855, 0.3846461576905389, -0.08702508006439312, -0.6791423097797418, 2.2688526619656106, 1.0076314356759297, -0.5343277975878514, 1.0424636754107364, -0.2965076849521121, 0.4863556990855322, -0.8163631386058149, -0.6538918538700745, -0.1320204433892865, 1.481964992192631, 0.23293265273138355, -0.3615959167435786, -0.026964726977251132, -0.3728410779093661, 2.2092099250084716, 0.01965393061597717, 1.2302302400012122, -0.2992336678636109, 0.316307695715674, 1.3279132549910138, -0.21805658219540633, -0.9236795516551768, -1.092727780992453, -0.5126496600049962, 0.634040862572698, -0.6117104594227378, -0.4865996263238162, 1.5402112763817633, -1.0021679209704404, 0.5131877188036099, -1.1879136884826955, -0.7362737185194644, -2.427537146884594, -0.6971402253708607, 0.3621732764021596, 0.47238548029991795, -0.053917505635673865, 0.3950520471314091, 2.360315859727567, 0.9643986691446921, -0.2549172066234689, -0.14507967382095743, -0.9346967918768793, 0.7608276882605612, -0.816942843647363, -0.5832794272357207, -1.0098833584371067, -0.23813572159022095, 0.04867501897287033, -1.378016419607715, -1.3738997394472536, -0.842450829467376, 0.9693829285010664, -0.8290922050502665, -1.4607512304495158, 1.244147673370134, -1.1620932181350956, 0.5622017923202458, 0.8748487339846668, -0.5215943335933361, 1.0641538962047525, -0.8278924446248896, 0.6983746506554854, 0.0894378849754766, 0.1661460515746472, 0.8821021714349375, -0.061123423491851916, -0.02278897340035017, -0.4608058857923326, -0.5642414642883695, 0.4385428850006086, -1.1377134514518095, 0.7280905417443339, 1.0406732711092805, 0.07739066025647708, 0.5973908418741579, 0.6615825719179433, 0.9391132112311735, -0.7966316177776925, -0.6921013218523644, 1.2836338712844673, 0.03283879448445185, 1.2666518074538466, -0.5834740752296806, -1.685608702980409, 0.4094593345767033, -0.8988256845878231, 0.8375497972429701, -1.0912182940044841, -0.2331863833395151, -0.06528579333788816, 1.082495012160313, 0.14773045162703696, 0.2940206022753732, 2.304147323817423, -0.9256146542054894, 1.1223614572136935, -0.08704360880672815, -1.8268079758134081, 0.020512002209466664, 2.189012786108408, -0.0037979666771292566, 0.4140811013547059, -1.397129631119522, 0.2026353242649827, 0.8285715795384425, -1.4211826758618398, -0.657305875555966, 1.7750772658112564, 0.3732404001119921, -1.5506124013211384, 0.2277843114661976, -0.14086580229881238, 0.5964661935042608, 0.19576972974116014, -0.016530835788753858, 2.2980913266595846, 0.9948859901351945, 1.5802866289036197, 0.2640257888725403, 0.5564035289904704, 1.3574536831346065, 1.4093799507864277, 0.590594749476548, -3.482075901092635, -0.20707914378967401, -0.5413152678083257, 0.127295452575758, 0.1328448977383634, 1.3497747476706379, 0.8590272842453393, 2.418262889944552, -1.128045442284173, -0.23614205052213053, -0.9966275049689867, 0.3442748477856283, -0.41388301435576164, -0.9327894115075767, 0.13211667490242135, 0.6096266634134899, -0.5020453424299751, -1.8796526468077044, -0.3305764227703572, -0.05069846354911915, 0.9712644314642429, -0.4868719728196462, 0.047311345581609, 2.0390886258027763, 0.6865189416341301, -0.13061950754147494, 0.8355724156488074, 0.25971177446732574, -2.3303727578034934, 1.2905743626682435, 0.9801446599550013, 0.11815725183231086, -0.01740176793605386, -0.8879119647172553, 0.7770102882820323, 1.0382793455973915, -0.3111573285800201, 1.402450928530551, 0.16431105175187602, -2.564797278034066, 0.018325686715228176, 0.3320775913561763, 0.9173993120018936, -0.3099832438588908, 0.8039149560833626, -0.35417389406121735, -1.0526124625950775, -0.7005806918467522, 2.1645539904075406, -0.10311351314418858, 0.9762938577782747, -1.1783242359129036, 1.3151774469749098, -2.4497573012615517, -0.523374188079362, 0.1524211796294137, 0.3312529262849882, -0.37803646775162425, -0.6857275455202555, 0.36158223834165804, 0.5417154158795423, 2.3130605324711384, 0.5492823971706263, -1.1280021002003002, 0.08491854278089839, 1.0279929311294054, -0.9806058696123899, 0.2896429243790935, -0.40891160716212166, 0.029950686996743376, -0.5248243366714588, 0.7571327197537736, -0.32407701438704534, -1.1291007709082599, 2.13788433185421, -0.8620301463806602, 0.2172176607248626, 0.09985727368134695, -0.3937648807871072, 0.8481410734119601, 0.25201883507961553, -0.7040225226939082, 1.5993352166234616, -1.055671087288202, -1.8787301452184662, -1.4261085045350557, -0.5847803961502328, 0.39336740930724273, 1.178383884294556, -1.2068413612572322, 1.9030590301373935, -0.716831641458983, 0.739770335921863, 0.5676907967565664, -0.048178930289970806, -0.09052605563256955, -0.8856510056698249, 0.36695784480674876, 0.7802313360579959, 0.24059020994827993, -0.3102133895969937, 0.4434513906393543, -0.017114633128908346, -0.4123888284354287, 0.8036959775103423, 0.6785880770038956, -0.3716853316370354, 0.3182891103957895, 0.36853177400849435, 0.3386297653321324, 0.23349154879700623, -0.6742157241488275, 1.304580324720901, -0.15187560589505672, 0.009562225586540586, 2.11742313448095, 0.20844284680756384, 1.340827681429658, 0.27366595960355394, -0.23385045283042707, 0.5616863744930471, -0.24601684558242878, 1.8365670861611707, 0.8718572646603386, 1.222873383345769, 1.2793170249168642, 0.049333434812310305, 0.8317793026437647, 0.21581702201043224, -0.11203081164491717, 0.5748018192464807, -0.8132031946554492, 0.20205117677509152, -0.7627156377463333, 1.1378186290348367, 1.1141841658287683, 1.43618984099838, -0.0655248285855437, -0.7391703719429196, -0.7993344061457562, -0.9182112683383655, -0.792089528449639, -0.6525117901621384, -1.117185497326258, -0.07780206117906432, 2.6818363075286573, 1.37739723597548, -0.6388220872165994, 0.8489364477135674, -0.3444784380621039, -0.5722038886840561, -0.5146785918188784, -0.8371114213900259, -0.493601332835966, -1.619249474054917, 1.1334875114944103, -1.292723183335034, 0.13654191152263406, -1.627993505731985, -0.015658275481464146, 1.9604041885214287, -0.8850137294367479, 0.11814368371558714, 0.18674722681086048, 1.048720198296483, -0.22378816046588315, -0.03374283880991941, -0.8454297743698483, -0.6024723027463624, -1.3310256629995887, 1.4343431525830337, 1.2215668461089966, -0.10167763949842527, -1.8234423825228463, -0.9628813732151879, -0.37038424558494987, -1.1906183614010435, 0.7031239059389904, 2.079370354586013, -0.8677284190513883, 0.4910879019241769, 0.8535915604495564, -1.3599352397844504, 0.9436716817918741, -0.6524556010441246, -2.5444565786881976, -0.8688170330326637, -0.38306180351084806, 0.13834989822253674, -0.9339260718177819, -0.39078842474620507, -0.04631075115874063, 0.6708024605842107, -1.5486286917232936, 0.30186446813645723, 0.6415831351874149, -0.16157126895492382, 0.8746862546615645, 0.4144020932694139, -0.12321657391886928, -0.8056297667735575, 0.29404687441061134, 1.315684433182627, 2.125437417139512, 1.433389337712655, -0.45807248366082465, -1.0432972547268153, 1.2112276263273611, -1.7302857634671451, -0.8400799367383902, -0.22632297519828137, -1.121585185828411, 0.8638712294313595, 1.120506015215012, -0.2906380533901922, 0.39837089413978893, 0.049063289663887275, 0.15524368704544103, 0.41299938536828523, 2.0065118163002693, -0.5998123282084085, 1.2805015840385026, -1.392268474892489, 0.7839629599232147, 0.8954527842086049, -1.0392428402571017, -0.49443902347787705, 2.0608453505793296, -0.9687891806491838, 0.3929281945375097, -0.928183554033336, -0.46602394971503974, -0.13268263564468716, 2.092260801403461, 1.07674678530757, -0.7076465750817221, 0.8651579497641998, -0.28039937631833367, -0.12055708968353533, -0.4564009841372497, -0.7344942601365338, -0.3443394285779142, -2.933645628242706, 1.5022006535309225, 0.2067411187990656, -0.8674730118555524, -1.7933573173509396, 0.44503372725635026, 0.46565590139906515, -1.0503438205883717, -0.866607201865647, 1.4067246951603471, -0.8064311702539105, 0.3175784027214898, 0.67373869297015, -1.40548572879343, 0.6239428624385107, 1.6721902318517337, -1.2552361936574903, 0.9794811519697217, -0.5088359678356609, -0.4312247127488051, -2.2741432757283504, -0.22116548258678054, 0.6951371278015616, -0.1060452073891092, 0.43189031005154255, -2.465397614158412, -0.2074859526898837, -0.4788368903407944, -0.9444419539610592, 1.271661408473924, -0.7007125339306729, 0.7490444975336732, 1.2307825699967407, 1.6057630597650665, 1.5441652948137423, -2.7994255542469504, 1.5417431826148709, 0.6583584994852466, 0.6747633237584362, -0.10026263970569364, 0.23660841027057333, 1.5259722908660585, -0.35922688150077703, 2.1492319353631895, -0.5990529699099472, -0.08214883238724027, 1.8656091352753117, -0.4216711559993671, 0.9160216627417364, -0.4314747368124217, -0.6034970067710748, 1.6075127903440551, 0.8157606885137058, -0.4253403421284511, 0.6879682866286257, -0.9504295950322769, 0.4921070350858755, -0.9057929863614643, -0.16653928204756402, -0.32253470429519193, 0.5259735228313106, 0.06321882416242015, -0.12325143412778256, 1.4242446750217637, -1.7281192401199066, -2.474259510472559, -0.941046540875414, 0.8470422871384193, 0.06848815396961784, 1.367352365896177, 1.8173729558627354, -0.311947603020512, -0.06592386628678007, -0.08033909040168544, -2.5275579616735326, -1.958097402810253, -1.0374000573127284, 0.33163607958139557, -0.41359347144266384, -0.24711024311257518, 0.8586875173963171, 0.07156825933992834, -1.8147499645225944, 0.2477948844268719, -1.837438807376139, 1.8240176687225453, 0.0021917978030041333, 1.0319925948513815, -0.9365910206120084, 0.1613416470427653, -0.06305923334810334, 1.5575313807056994, 2.2016955780131195, -0.6907483124645729, -0.5181898917890814, -0.26689123664586767, 2.2611277665171143, -0.13316845134365568, -0.710240116117639, -0.9639598383974202, 1.3459707325191679, 0.7955303107112253, -1.1184347410002955, 1.3928590354285115, 0.5797630526475275, 1.061696807797604, 0.6613756667035036, -0.98820484639839, -0.9929309404722122, 0.0916712462962949, -1.2946132123737348, -1.1600070040664368, -3.048748902159032, -0.8621666021309319, -0.18706212673849154, 0.29797889337019506, -0.24571714961549543, -0.536414894401329, -0.5274653996010013, 1.613059065894733, -0.1804951158296949, -0.611964915893468, 0.5841833789097874, 0.1052866500692712, 0.2530992201052016, 0.1383493084225847, 0.004584940500479427, -0.9895576022118413, -2.196473396016128, 0.7649903584447151, -0.48933402608883503, 0.2879552187014575, 0.021136678916111824, -0.4747912843131979, 1.123897623998436, 0.8336393850226066, -0.007747670794125652, 0.5080116512421535, 0.781833896162602, -0.7874591515189041, -0.16727692044004644, -0.8225672314918835, -0.7884709764147022, 1.5592217690894687, 0.8819791948245942, 0.33588415097262064, 0.9487483183686316, 0.9695409589251993, 1.1010985346117383, -0.6440781847667116, -0.03229132008027426, -1.4627116228284045, -0.35561679491579784, -0.5152482094082153, -0.05764800490099745, -1.5390469617242912, 1.9064095352923653, -0.2873608469953252, -1.2604553451190494, 0.05674945747022864, -0.026230492617532027, 0.21133049580126825, 0.3193037736391073, -0.10905485228271926, -1.1367932267464205, -0.9993449946672296, 0.15570926456114711, -0.3251744786638406, 0.3389137794038744, -0.4100611986006611, -0.2508596939345327, 1.0525158779185864, 0.026002756167929707, 2.191372511271921, 0.2061507877029383, -0.6061069953936601, -0.27517657968998627, 0.43090157478561086, -2.326589153961077, 0.10012830475070114, -0.4637154910639908, 0.5379288322807853, 1.2918028618336326, 0.1756119925787557, 1.2107627829272023, 0.3740018141260919, -1.8348639323599858, 0.7993623080770164, 1.1824979676355123, -0.39723369832233846, -1.1219602716961898, 1.285046838253459, 1.3238393110894457, -1.4009242349735473, 0.6202622743156183, -0.45855880501159796, -1.2415844255404622, -1.109770113818518, -0.5872885996132163, -0.6833408772388314, 0.6769885287254876, 1.957211806891372, 1.9571039161242365, 0.07364398003231422, -0.29870326778487893, 1.6870112753406845, -1.6367366594467097, -0.06829648939357136, 0.07569923626143103, 0.6413604636855352, -0.1867469631934016, -0.428725978884785, -1.5634742226158196, -1.3212626142386286, 0.49870002618626086, -0.7776206471721331, -1.337182491032999, 1.8207313843676796, -0.24701786925078223, -0.38545881824434053, 0.2968643524786596, 0.9340829335158696, 0.38261017341472947, -0.3171723700817786, 0.6454023469686242, -1.1707836709847639, 1.4988440876042872, -0.3428320139239814, 0.46539522184023197, -0.9357112699508103, 0.00652213772278116, 1.7781319757528573, 2.3287457662895967, -1.9176668809235886, 0.89963032851053, -0.025945051305324894, -0.0859290454892885, 1.0603210135744103, -0.10093163166654569, 1.3317875521344786, -0.6091908914414885, -0.48150263262550674, 1.08257646171547, -2.0205613104081004, -1.5847469291502085, 0.8429667439608909, 1.1998728557868024, 0.06281483811178978, -0.09317642215331319, -0.894704873705873, 1.4498417566819826, -0.07076513652781001, 0.20685506814770438, 0.0945087388478922, 0.49974281283784955, -0.6564596350074333, 2.080480336411948, 0.9772611157617412, -0.4219894008808398, 0.5195651864748736, -0.22188762861687467, -0.7383899802475713, 1.6405785443775072, -0.17377629781156856, -0.5476365615118982, 1.5369156980952425, -1.5484327861756664, 0.2466189743485915, -0.40329666439845346, 1.511898102005263, 0.8389776915179389, -0.0961040627513455, 0.7408294885798905, -0.777487947129514, -0.07677729146964289, -1.4290808851824095, -1.0889270988948652, -0.7540650852530628, 0.07044069550270633, -0.25710577001453644, -0.2633840244670313, 1.0744002596318243, -0.0561857609463681, 1.1522775381167971, 0.8447943921678457, 0.2284073211928917, 0.07434673893782867, 1.0831481717942695, -0.3127974402833869, 1.7518567580185052, -0.6631409111602077, 2.784566746097566, 2.084680802144051, -0.10642908195628625, -0.888298262934668, 0.24581417141906717, -0.9448545840649947, -0.48073006397770274, 0.45202834795596863, 0.33237040398189915, -1.0223152868931198, 0.02648867384342896, 1.3897426958289238, -0.8761096994551433, 0.5649004635275573, -0.9466936976133347, -0.25947542617737596, 1.0534008672704778, 0.6454242079455896, -1.7404926237624287, 0.26707071421260514, -0.037680192544971104, -0.5402845460527433, 2.5001509835200775, -3.370023285662666, 0.34294415914310306, -0.9200930498725044, -1.2706340131012603, 0.8403933957270043, 0.5159239072391638, -0.4512293234517396, -1.3466130347643082, 1.557015386732807, 0.07265620904908053, 1.462686070588787, 0.668126375211657, 0.33554416704837153, 0.3139552632197239, 1.3855885409384092, 0.7840568354390662, 0.20714642432463345, -0.276174054013501, 0.7533514065803564, -0.8779080014650683, 0.10102629263760173, 0.40489607482142465, -0.4735547429858951, -0.06971097141033718, -0.011734175362881082, 0.4715345256442864, -1.1822634774783662, 0.027196684221040192, -0.5106356815229168, 0.4450052657522272, -0.8245944024011448, 0.4592316287555695, -1.5619970579433742, -0.6801129899634474, -0.4112157500536938, -0.49096953140394767, 1.1997013491321054, -0.19112032888058478, 0.6213136844663245, 1.1208321417756573, -0.5186067770847197, 1.5206544251376959, 0.3522338162416191, -1.8640098226894362, 0.17060281807497002, -1.7168692223091886, 1.4567126172750051, -0.49248010354820376, -0.971064446274808, -0.19612003705385764, 0.5252104311820092, -0.6476660753355439, -0.8296193513246075, -0.2599389238642377, 1.7875694331245433, -0.34974560847686104, -0.11033372030510431, -0.6741095425006156, -0.18035719115191118, -0.44215562943695164, -0.30412032665634303, 1.0326867411033565, -2.729001836238067, -0.0014246930771780106, -1.0743777274077917, -0.42729490668815595, 0.16672034168547278, 0.31361479067218123, 0.4342784218368616, 1.0783497954736294, 0.5663220129546643, -2.104138438263204, -0.6237358754578741, 1.0012668775862428], [1.969145171626579, 1.3068473407416261, 0.39231243850623587, -0.8374712209025849, 1.2380751328116604, -0.04629708514269906, 1.1039173884912001, 1.85984217645692, 0.6486310354368962, 1.5203028057287373, 0.20758108290300575, 1.262930673847831, 0.16607064531244056, -0.2596159115321676, -1.3002918209535266, -0.21005247198096608, -1.1128162814933527, -1.110627760158506, -1.7473129803740564, -1.7701901673936058, 0.5681836430222876, -0.031695073406670486, 0.26596504835020834, -0.4239533477466616, -0.9617318659672347, -1.2548878823391434, 0.29116764845853743, 0.08375296572686229, 0.08782012622153872, -1.9580779366758805, 1.067719029008715, 1.0479302454168644, -0.20593708976817302, -0.757117830387187, -0.10971930220793498, -1.4930785020773867, 0.4258729332195278, -0.2956225353325774, -1.9394082377477038, -0.5842499379490697, -1.70010253122379, 1.3205180798581146, 0.02558302994777588, 1.2887236957143218, 0.3224556946450273, 1.6362166657645947, 0.6607224469772379, 0.03850348512880599, -0.08743840077786638, -0.9174417200579374, -2.005268881747304, -1.0543659591526253, -1.328502843847773, -0.26662597094959867, -1.1639711566399022, 0.7292144107814014, -1.4491561364054408, -1.05020879308559, 0.21235333420800043, 0.6510863742315991, 1.2480962503092996, 0.6169275744449364, 0.23504270359046195, -1.440292980399117, -1.1631508373308617, -0.5715033118949289, -0.2763742765300973, -1.9163217360330809, 0.36247781563791354, -0.6282478663268833, 0.9644257395832142, -0.5445965253509145, -1.0690529440582177, 1.0811475914726978, -0.10759569604409884, -1.809885301059851, 1.0028632798122041, 1.087434446176384, -0.7794239264534606, -0.08381085209586375, -1.1582496877423887, 0.5517011015518563, -0.08418869739997827, 0.4234385126658243, 0.4636120383635739, -0.027616216907281315, 0.2212974750952006, 0.3375179324721742, 0.6459476928751221, -0.06377982933777808, -0.6505228812526289, 0.9323901743292126, -1.4653070839779505, 0.35374662832716447, 0.2862954669035613, -1.5354076572464594, 0.9218434878751526, 2.7831828840504764, -1.0685399891776728, 0.2959798456699872, -0.1417101823452563, 1.8574478720417442, 0.4904053470755881, -0.052823916915728665, -0.7073563956398485, 0.48820121710271064, -0.5414475559000944, 0.9130788571741679, 0.2802807610855698, -0.955091149581465, 2.715785348474737, 0.21021059762677763, 0.9779605713126656, -1.0281087101060409, -0.7871004463717572, 0.25327651135479, -0.5972684916160116, 0.6924269038271328, 1.437500819242457, 1.1238048162371814, -1.6868091616576744, -0.18550120756499788, -0.9008592055760404, 0.3520591590180795, 0.22761893851028078, -1.28304704168706, 0.5506094578669914, 0.7932332426335823, -0.5519738937186254, 0.1474359924612175, -0.12192081305407372, 0.8799859089038036, 0.21149080705939188, 0.08621789580381978, -0.021287294788336786, -0.8905300349943287, -1.0649051724195433, -0.6438370462859285, 0.15875356104797755, 1.688914207861951, 0.7592554451792202, 0.18613719479045307, 0.07382322063336384, -0.8458209704587651, -1.6294523510142926, 1.3643505756735392, -0.27782878601097355, 1.1427009387954785, -1.124656147829068, -0.6665497611614106, 1.0692107370303132, -0.4134249016370325, 0.6896675219375175, -0.02855667982076917, -1.7365185482269343, -0.48219324660105445, 1.7768133872282608, 1.051534400834518, 0.16250391101716755, -0.30665575916800963, 0.9389380308448647, -1.295570158028717, 1.6331501501730208, -0.3769204505176019, 0.7189404172600758, 2.058512758868626, -0.6721561629075337, -0.9601649954999074, -0.6561551369866148, -0.9048407692543707, 1.0533740405825442, -1.7009639845319706, 0.06095568260698042, -0.5336271234359058, -1.2553323235070646, -1.0589155981516873, 0.8329459268286183, -0.791931601825821, 0.15961306094057773, 2.647045818192024, -0.8704189535572714, 0.16863359550770876, -0.44660404164663337, -0.5489384460220156, 0.35913817482156163, 0.19487095429228737, 1.3415369610844339, 1.1357866494075466, 1.520468422407187, 0.30787697143371345, 0.885650005490995, 2.468196701559391, -0.6233283925437884, -0.752534661377907, 1.8405628440127195, -0.6082067754649457, 1.3781155636026226, 0.5641316097241085, 0.24222780490278376, -1.497131387927576, -0.49806882370936756, -0.3890876680681268, 1.5996909129574253, 0.5010279092672741, -0.01130064245188664, 2.1393534927000357, 1.4676959313126166, -0.21285895594022614, 0.5480453869650928, -0.4371157445037501, -0.008548949244506403, 0.16052445458618533, 0.12264595111962324, -1.136878816788914, -0.680787102481964, -0.9889552686374853, 0.02710638007089093, 0.7733664183263206, 0.3708920109471745, 0.978977165414618, -1.4516443570746083, 0.6754511232001793, 0.5939754684122324, 0.7355135775858822, 0.8048569605095416, -0.19692886665862214, 1.0022028812895047, -2.0434065621286606, 0.07227863811446372, -0.6300760490655352, 0.5576138688977867, 0.28388921436931813, -0.6729406098423, -0.20071292525180207, 1.3539426360437545, 0.7421187939312024, -0.8180251546338376, 1.4200183751880435, 0.21672366750141234, -0.1505694171308375, 0.4935846895835492, -1.0481282357954413, 0.2594130546659884, -0.06458354798275022, 2.049925527519207, -1.0951004975399306, -0.004411420331365572, -1.4767555288590555, 1.4205169385407654, 0.9479986967384194, 0.2553173967412557, 0.1417970857593633, 0.6375040217531889, 1.7621385720051042, -2.2874807273491085, -0.7973036296079281, 0.043637528463569476, -0.29585307708510594, 1.5152243115065578, 0.40189168893344296, 1.6336735520131087, 1.6168194249353025, -0.12436263617181621, -0.4712088757142333, -1.1173725106909722, -0.3857802402063921, 0.7976110156799024, 0.18252615831576088, -0.5759844270363261, -0.28880519695193096, 0.9503940285475783, -0.5165147674660121, -1.1739665101910595, 0.27804378612286595, 0.35990325609275026, 0.1645089218307075, -0.1204338516643468, -0.010099352570434197, 0.6832789863912055, 0.22150058938252098, -0.009352028182677972, 1.5367379594813748, 0.8222797816089923, -0.17116950355996252, 2.343532882806099, -2.0157036724104507, 0.847831355822019, -0.664551473542021, -2.166468142737666, -0.007713888434230136, 0.48718632127812217, 1.3821634061735957, 0.8010772366689474, 0.22057408627815217, -0.2538874588519907, -0.8778400106059736, 0.036597735017093506, 0.7545425122477547, 0.5057638583377112, 0.8136326022526225, 1.8200471816381025, -1.8742842899363619, 0.6438841611505959, -1.058836214477732, -0.7604377854003672, 1.0275716007659668, -0.2544010375022504, 0.702670698705071, -2.083233084820384, 0.40888085547689373, 0.742600536862611, 0.125664402001303, -1.200265550956848, -0.5102133211474295, -0.8493628648199149, -0.23783378157613566, 0.6840668513319889, 0.31270617413516966, -0.3894486130455322, -1.6538578282035037, -0.4457575014522341, 0.025062075418061623, 0.4126701834061949, 0.9572669338942235, -0.3879623603113449, 2.5387201891883056, 0.2500344313162661, -1.1114336313357216, 0.34750934977547826, 0.9853260169681873, 1.0034807879452718, 1.7546598151302037, 1.35466290644658, -1.1300703905521419, -1.8013112508890667, -0.3100723113373312, -0.8240711228535751, -0.054145611983480994, -1.1294970964015485, -0.1366746505849254, -0.010043077569835955, 1.928263098415916, -0.5508070198672942, 0.645324043144284, -0.28858091370843914, -0.4179515348327234, 0.30030544899023903, 0.44627441150257363, 1.2357089826042886, 1.3493337079313017, -0.029555511108668442, 0.9086092444318157, -0.2483978847133657, 0.6453625890984029, 0.6725285357370518, 1.378081917333905, -0.20742728861601345, -1.184740413003031, -0.0005798143117781507, 0.42207507521106274, -0.8439279287337117, 0.356732173698837, -0.6153937162452583, 0.6129364064363819, -0.8611357289421979, 0.09435646381594534, 0.5298566921767812, 1.000294456793342, 1.1408370768960505, -1.1541871171954325, 1.1371195164282346, 2.004773607248728, -1.2553478943067484, -0.2387340392496645, 0.8702744218932331, 0.11363877775634247, 0.5363880307928252, 0.7520768761819658, 1.8714138907879498, 0.7901490037532213, -0.319580411527629, 3.7412779629055017, 0.8500635218844769, 0.6134001064412751, -1.6958792245476215, -1.4766010234982383, -0.25030727791546376, -0.3024193643994743, 0.23462318612003338, 1.2001862010395477, -0.4073608476182028, 0.649774194912698, 1.1767704587743, 0.534616692622873, -0.4326959889416671, -0.5070672499502171, 0.17099746942005184, -0.38296669034661357, -0.7459471832428368, 0.09744595858296258, 0.20459452456924238, 1.9188410651283194, 1.3562623778533023, -0.3615466252931178, -0.30735845164674386, 3.594363623795295, 1.6394093257888314, 2.098816407795968, -1.5442406891057432, 1.4467146378729838, 0.6749400899886988, 0.04109381497067886, 0.048896240077312046, -0.8399373912335899, 1.4022498001566959, -0.05264508614604829, 0.3454309626463736, -0.6220056778248477, 0.9060161092024187, 0.6985655003775408, 0.43159653968212003, -0.5278445723825043, 0.3345696078326053, 0.29395482298518616, 0.5487061567884695, 0.34520674846771293, 1.0052987059156149, 1.643674262754061, 1.0644735181836853, 0.5814894967737104, -0.5131327421146211, 0.25397373757762154, 0.6042100138264754, 0.7756896670353446, -1.8885707649594135, 1.922617568075323, 2.225958167929031, -0.42197317949968827, 0.22954912884585554, -1.3442511572272493, -0.03026045132925124, -0.798076595267117, 0.6882336457796209, -0.9603366556966006, 0.07403190008267592, -1.1228811348881227, -1.5248185989573209, -0.42701513322315704, -0.7852302474993419, 0.3227344719947734, 0.7481055547240947, -0.075983477301807, -0.8452800685935014, -1.648762293103108, 0.8673088639344447, -0.25127287829216277, 1.2725678897615997, 0.9243541557762694, 0.2646854612563344, -0.0013169375448684407, 1.3592252593041705, 0.9691194244449874, -0.1847461898406212, 0.5459433279866251, 1.3321244195517414, 1.2232449133400936, 0.5394339327069073, -0.763694645056982, -1.3150857826343485, 0.08976768284191329, -0.3083572102026229, -0.9562818519673985, 0.8309109961146807, -0.5385096794521157, -2.088868290689927, 1.3707630173684202, -0.8924710979896294, -0.2486750566689199, 1.7089520332205062, 0.11128193031346365, -1.4774171895172203, -0.8608720379726524, 0.7811468756644618, -0.16161890000930945, 0.28612114865114496, 0.9327131191336921, 0.16792448836060564, 0.4391159321983249, -1.9064271800539057, 0.854424287497993, -0.10759608972538025, -0.008103910146116208, 0.6560006117913159, 0.03352729840238815, 0.39663693409535766, -0.010895478488347413, -1.0624647386604997, -1.5387119881599363, 0.13446473191821626, 0.37585944899274953, 0.25509110805990026, -0.21029802697266559, -0.5967386449630097, -0.08506291680670931, -0.292645289410375, 1.1316925954336348, -1.7830610290908546, 1.4407213578880962, 0.30369586330713766, -0.14626201677506773, -0.056374482711306906, 0.46669257564740046, 0.19203550382558207, -0.7781465151857475, -0.6684977341095533, -1.987812530932179, 1.8049205719726145, -1.0076945427975115, -0.19347413582798384, 2.0601662788504695, -0.6374243660408475, 1.4361566629559026, -2.114026296961622, -1.4946895672800489, -2.349598807512973, -0.19497637440428858, -1.1157483464884923, -0.9524252766360736, -1.4223943859055652, -0.7784587889762836, -2.070927789469172, 1.0184322295238286, 1.1974066841142488, 1.3724113265899993, -0.1558354850109152, 1.0170032494144756, -0.4800281867936131, 0.4634028978206833, 0.3849450734451473, 1.464687083525706, -0.43336224812122875, 0.2559496240537111, -2.0251760845305853, 1.3728382434466615, 1.3893690371978524, -0.4764008045636702, 1.0392155264459675, -0.6544010878479841, -0.07829735199923463, -0.7800833627156137, -1.0636798754014576, 0.5833335325706756, -0.7486387144967911, 0.08185197225382533, -2.322045261837515, -0.8486551073014441, 1.1501380261803256, -1.204754655928009, -0.3833378104153833, 0.8683098524694137, 0.7771815752748803, -1.0429736974218224, -0.35697028923878676, -0.8074768053065723, -0.33492571221009376, -0.16959522115987707, 0.3449552325270954, 0.26668686908767486, -1.7082497654340085, -0.21186241088548374, 1.7363609705566674, -0.6820576071639065, -1.0637649432214746, -0.16339593210030648, 0.14109109572867007, -0.5293509168285071, -0.14225001582077698, -0.37756038347870857, 0.0433284376598418, -2.474515638447236, -1.030119582160398, 0.9391405854448135, -1.4096364791137619, 0.707989065834417, -0.6065088277712583, 0.28762103894422764, -1.4036051799570846, -0.5473951647450179, -0.3838775262075351, 1.1793167376802964, -1.4074500636588465, -0.08655690769638057, 0.24840496980751886, -0.2338994329385913, -0.4278896638710036, -0.8228873915236485, 0.28035124613255447, -0.14224817053276945, 1.4003586551782912, -0.37174728349765235, -0.21495982260493818, -0.5719176403607719, 1.1879541353216194, -0.4212156146449905, 0.12798466445887674, -0.2376816142984724, -1.026501857870603, -0.8693733656465102, -0.5440482484131516, -0.7058487284596618, -1.1410218878823415, 1.064520578436082, -1.6951427893974358, -0.1045168252230993, -0.1838874215915679, -0.8640979859065454, -0.8096823689868381, 1.2004292071297462, -1.2375280257190466, -0.36444260628713837, 0.06604575560909137, -0.1489532048233807, -0.7223148842077814, 0.534675681796478, 0.7248744299457609, 0.2896214353142229, -0.08995780937375152, 0.771089495314117, 0.8487278545653256, -1.2562564250775765, -0.06269947109260547, -0.3916491322668128, -2.2988493971755677, 0.8422277986840667, -0.4034980405140908, 0.3259327055432996, 0.16854684523710575, 0.21301519776284078, 0.4803041820468375, -0.35829057869012465, -1.4925305262144724, 0.18072757565142172, 1.046394004698093, -0.9901263012502928, 0.36991438157489825, -0.3036364357615091, 0.13797866909719403, 1.9153567071433233, -0.18132164934497477, 0.4501810307180024, 1.6195845605248445, 0.6653308497106846, 0.6239850822253241, -1.3030650778195771, 1.1733751988255392, 1.3103277041778632, -2.0256315870079566, 1.2870267338485302, -0.11929940210503114, -0.00774707976316882, 0.47785440239036875, 0.7024976911422176, -0.22564300905458862, 0.45937843604040624, 0.8072850686294365, 2.2131043677723863, -0.2136417172666564, 1.4044764392906774, 0.011519848718275676, -0.18164446518578564, -0.6418451969327174, 0.7874173879163503, -0.3984204824712003, -0.06963463497350035, -0.24912585165130316, 0.24331197133560623, -0.9857380116866141, 0.45149410061775186, 0.8304662944712833, -0.6370934441415065, -0.5619914106606632, 0.8787056762229319, 0.44619975705512255, 1.1443139830510154, -0.10808053900355978, 0.13772171906057454, -0.95151796429028, 1.75339322945456, -1.176871362722417, 0.362544333514998, 0.29871711381559735, 0.6930493442924631, -0.640409390198056, -0.9599883285521551, 1.1532777544224613, 0.763974001025382, 0.923010623093422, -0.4416585723271911, 0.8421294931256089, 0.278357268871719, 0.04695832851222956, 0.122136553852705, -0.8740543090859744, -1.226640519406287, -1.534222381270872, 1.8601466176797157, 0.08289885658617333, -0.8990506343279143, -0.16692104777425815, 0.39690133864408883, 1.3925005187357373, 0.4521996795113477, 0.6163032088744114, 1.0880473277622724, 0.5795790324131286, -0.3626354731844856, 0.296661519815712, 0.601295303994607, -1.4443763024401879, -0.06468441743124245, -0.527867745466334, 1.6412607193043052, -0.44408155510264363, -1.3269412414383357, 0.23642513171672558, -0.3146584992532738, -0.006505827242721477, 1.4480235996898256, 1.1956474783155127, 1.2820869242229551, -1.2787683821756652, 1.3725498915066117, -0.9404277610361736, -0.269257875556846, 0.6821845272572538, -0.6685528578049296, 0.1486077088316544, -1.1250529875615312, -0.48158696836527065, -1.0074396155854406, -0.0646871344428054, 0.7945971987225023, -0.3788757812897749, -1.429312751262977, -0.16815342921980325, -0.26438244058953847, -0.9545618875931292, -0.02684275062974291, 1.0603685522913597, -0.5274941143808988, -0.5414931115514496, 0.31778937402151575, 0.18503628752891044, 0.2554387255457006, -0.013803675173812122, -0.954376368853711, -0.4575675367217473, 0.8790677665435206, -1.468404189505712, 0.7752016466935895, -0.4710058293729475, -0.021430687547500313, 0.512673747043872, 0.09285643393426697, -2.3344447981044976, -2.5944665479829556, 0.8269532110470108, -0.37340600155726134, 0.38960406458165153, -1.1228176121249407, 0.343479110470825, 0.9152355847191406, 0.4148355396614866, 0.6879933286282729, 1.6064783567894374, -1.2611056296517302, 2.33298918391347, 0.7951466505631427, 0.08840253565276775, 0.0635656010629476, 0.1402150425413077, 0.495508530619238, -0.9407860860249186, 0.936867432624543], [1.2452430515814925, 1.4623876074957676, 1.2974978410862639, -0.622896707612373, 0.14555316507420804, 1.7648610619634324, 1.451843654548188, 1.1944544647516462, 1.8092520732704132, 1.229821652741522, 0.6926829741097125, -0.014145649316648974, 0.8554012285375969, 0.45082503530856033, -2.368069855725713, -0.9375908058636604, 0.9490266759374566, -1.8467449223542338, 0.5717866621152753, -0.5747862968238774, 1.2414726620444039, -0.08850875286206368, -1.680508683731316, 0.6431401164193341, -0.7117492736948441, -0.076686549495868, 1.1635355780295944, 0.4946403506035219, 1.1788329511682893, 0.12523550926302604, 0.5541083635846145, -1.4080885019862548, 0.4791814561468844, 0.4666502891471435, 0.737039147587586, 0.8848488503978479, 2.3158146267878283, 0.2633216574230858, -1.4476026363750216, 1.4406877460745187, -0.44466986077248716, 0.2195539846029912, 0.010015274124079248, 0.9402169642456071, -0.033825168598088685, 0.4706559396296163, 0.7555674087365305, -0.17819034577777484, 0.991425003183606, 0.8870875664836619, 0.6820076516444771, -0.6801876357169772, 0.4112987725978116, -2.4927228311006897, 2.045431746083177, 1.1764146465133671, -0.5394902832931051, 0.4699900750052943, 1.7428036828273117, 2.116465397685855, 0.7093678775475715, -1.3908205743265287, 0.7618460538254794, 0.8589492383703482, 0.36840833160220493, -0.09477291860024571, -0.43912588636815403, -0.14383367263169636, -1.3156807678302869, 0.7312157631880202, -0.26948208280963837, 2.411055990875554, 0.46025670012523595, -0.3120948297774089, -0.5586785687536581, 1.9857510075781135, 1.2198335925901018, 1.3229855192486908, 0.0647041417614474, -0.6511690468300905, -2.07316564768169, -1.1451357908612656, 0.9331042427631763, 0.35915253647684675, 0.43265617275826135, -0.5006945990709568, 0.10473337519998135, -0.062172804995322295, 0.5795740504000374, -0.2391720827387464, 0.43021818486535673, -0.20061002256064528, -1.7719038345905935, 0.9713850446752873, -1.9151299668159172, -0.5518127737102615, -1.6187208159586437, 0.1437121339316662, 2.5211059517557812, 0.7199611342301437, 0.05708248980686883, 0.7481433366484378, -0.16242396857227215, 0.9591711421024004, -0.5420029455875018, -0.27041875241110613, 0.7125791416047899, 0.9330068468054344, -0.4503371669468328, 0.7810589760430358, -0.489947487173606, 1.099664521858377, -0.25105748959647317, 1.7528413009030972, -1.9869491823304866, -0.007403498329944759, -0.4919372592871635, 1.8297432579062725, 0.7505640416814682, -1.1604441595754222, 0.5762643216280814, -1.6940142592098593, -0.19750464417916758, -0.7474640614847732, -0.32993328097995045, 0.2518870204661635, 0.4166135649891798, 0.13503521610024377, 0.2765287051394202, -0.8189163250252142, -0.07822297391650573, 0.9186473041456839, -0.6845290141757385, -0.2088692032998364, -0.5903755425818183, 1.0020089941675896, 0.9704045225469958, 0.45700484610608566, -1.1207858869675917, 0.3405766677451575, 1.0551592974980937, -0.05488586358609291, -1.3383573638159507, 0.4159680721627613, 0.5436096227003967, 0.5344062314632018, -1.5868893934925679, 1.2136252020142906, -2.4759102148984815, 1.0377956837614213, -2.077239902425381, 0.4482540213620316, 1.1002536940466598, -1.0138536364765889, -1.0085163343945025, 2.2767111590558264, -0.7064296260644813, 0.6321187645242358, 0.3107408494990818, -1.9870308072795804, 0.2744832307001746, 0.26333367525589185, 0.28633682704876323, -0.22705993396580898, -1.4423883197360379, 0.536049077351867, -0.45324294494207584, 0.19402852737399934, 0.7009396154872694, 0.8922839350752744, -0.40174713965419806, -1.072202056550992, 0.7603517218698012, 0.5715714886419346, -1.7143108112040033, -0.8947601436227499, 1.140626863611738, -0.8929967337017255, 1.218752838354301, -2.5015981093707, -0.41677986409399753, 1.1011377077477953, 0.8364720452861631, -0.308904322201824, 0.1700696542840647, 1.3615344488073235, 0.5390993177328495, 1.4478142728202519, 0.9290704606042042, 0.05992441243863781, 1.1203221165671506, -0.9054808763938108, 0.46746682292817915, 0.026995659073654543, 1.007756223697047, 0.1036922657492627, -0.16107454511393768, -1.9782699868621132, 0.003815642133940738, -0.14482673174861665, -2.2048325361007732, 0.3326192419408025, -0.332721581658485, -0.10437874058645309, -0.0011539282251216106, 1.0949876826817682, -0.5546658167922539, 0.31291867097038906, 1.234724314686091, -0.5614026750236378, 0.003719303662854296, -0.10335945330931796, -1.3489107677801309, 0.5584491259824034, 0.18952102845806937, 0.6740716709301472, -0.14550901003752598, 0.3688453984078613, -0.6350446894076002, -1.6634722511295872, -0.03188573968241275, -0.06229577435440435, -1.0302883807932817, 0.8901075025924038, -0.06315724168339638, -0.3059013212192415, -0.6289892186528583, 1.757825833286578, -0.03759888877306691, 2.00916563860531, 1.568971226457023, -0.8268425104805878, -0.28685841055518607, -1.1456178842593225, 1.8831648975089463, 0.4827931620782199, 2.0960373541163095, 1.6950804356100067, 1.1361536016763203, 0.9063872823767237, -0.20030047089005298, 0.49654430693854407, -0.40048815838693724, -0.2775302176951383, -0.24661767583109545, -0.43830488371521914, -0.8930242988851311, -0.8855183485790608, -0.281717947170649, -1.46913838249889, 0.8590768058834787, -0.47587706243169187, 0.833145378241425, -1.0018473915051116, 0.6105639873075734, -0.46502218818307645, 0.19599937467223708, -1.263343965205783, -1.7805546316527017, -0.368072204939244, -0.5574399032440817, -0.3198800047871422, 2.7407033199369453, 1.2906882912278264, 0.3704590119693591, 2.443395642399022, -0.5702394291864804, 0.6618173886581085, -1.606972295711327, -0.7080855362060571, -0.20342041223915153, -0.47729728054967635, -0.7602453704746893, 0.7084184244382942, -0.8837192503064182, 0.6369635167922321, 0.4643297696776687, 1.5847891840111283, -1.1241164589506447, -0.9459866542269284, 1.0619637498162575, -0.7367635604294005, -1.7578253163112059, -0.30526182043626926, 0.6585052880675754, 0.1924993576295557, 0.3128752192146271, 0.6173587493669028, -0.6023419516530383, -0.30472266047797597, -0.5478204509966715, 0.6785837372698658, 0.27818426674147684, 0.8461222432163269, -1.3549825881543172, -0.38706682658049496, -1.5001854194635624, -1.7833577058815484, 0.900889814019194, -1.8096545446176089, -1.2995541829875874, -2.227876954052208, -0.10665729914342166, -0.17207076244925887, -0.5095477803853765, 0.2801444353403653, -1.577385875650467, 0.6692409512307212, 1.0027744718714533, -0.24514551115575278, -0.6746117957837517, 0.8112745984117585, 0.385529672747894, -1.8870007575133385, 0.6689462972609009, 1.7395459993099078, 0.9292764661031534, 0.15592291717306275, 0.9347682303726189, 0.4065147626499776, -1.1503622043503532, -1.2691013775471576, -0.053315355936396025, -1.1353680329713565, -1.537412268404633, 1.2489029190912593, 1.780380039357008, -0.07718868029914455, 0.008895665149343462, -1.2746991588807333, -0.017505004963892703, -0.48407327744378736, -0.727078220916202, -0.9691516489791225, 0.5230610227374465, 0.3957210711677386, -0.5602023570657533, -0.597673442529109, 0.7074252954078903, -0.10674644018011918, 0.9693342712742103, -0.19945923666732382, 1.0284504537445978, 1.8432095875989771, 0.7519911906949879, -0.22400572568978666, -0.9654261553560725, -0.8699127983271777, 0.2698554005289772, 0.3289594933968751, 0.016957390487428285, -2.133312934562046, -1.90779466574542, -0.14408199162816557, -0.4564905334137571, -0.43581774380540556, 0.10149552780022754, 0.6063816267545074, 0.16138619070495983, -1.0524194590963625, 0.07668187007358788, 1.356397976336048, -1.0041971267837346, -0.3857632214235531, 1.1421171208232805, 1.4300647541294533, 0.41854621125471575, -0.8458864009722075, 0.7870222506500132, 0.1036428897381315, -0.7044784313879188, 0.1033976424267501, -2.9811744062297687, -0.4774594873442264, 0.9569032777684938, -0.7627570045381594, 2.2825154841950877, -0.07956113979089618, -2.3513420058094066, -1.4846914171837249, -0.5150647492884309, -0.7149379011110149, -1.002804366801165, -1.0034130271672963, 0.08706337143179081, -2.5634843876536157, 0.24082410777421875, 0.3176746968288338, -0.46853006519350693, -0.13542163933636375, 0.138619634259385, 0.5890646904815506, -1.4865452629270328, 1.639547519268493, 0.24224532552408473, 0.46960751733926503, -0.4141833012587764, 1.019673509805528, -1.675465175742146, 0.6902763207677879, -0.27542874004295176, -1.5235338272986567, -2.0505112508341905, 1.22786701237579, -0.9482273677441171, 0.3239407731522274, -0.7658367310371917, -2.0494502471399447, -0.9486198815267526, -0.19607576050061867, -0.5044284538747177, -0.6042632246870485, -0.17309302778378352, 0.7453415243313329, -0.36236840476502397, 2.4751456483093977, -0.3192357665829261, -0.5506231353972462, 0.557187189346427, 0.9928252380405262, -0.4432154172117255, -1.2446912189700767, -1.6462827386164178, 1.1298674642705389, 0.6145526346541733, -0.9417250197728315, 1.2264121988155319, 1.440130844230611, -0.020058558814630284, -0.2951827549756924, -0.2988236834668013, -0.49757279662824905, 0.010767926887163442, -1.098780345656836, -2.1103438743199923, -1.6930074839564668, -0.5858229048527194, 0.9162855017779944, 0.3031087446037232, -1.2618964536636588, 1.0275896475200628, -0.9809585476180432, 0.1615075036908846, 0.3151750685815477, 0.05037761792533532, 0.5865933888799917, 1.293492175479281, 1.1481284032967545, 0.1224901380004483, 0.39034066348904284, -0.4514684409095217, 2.2670448865142214, -0.20191853559063735, -1.1093049138023665, 0.15657315184244747, -1.7247448859638215, 0.4580659928849341, 0.043538751179363795, 0.04638339481989131, 0.011211195400929205, -0.23273993774342389, -0.5480996426800757, -1.1142620914039447, -1.9149096635797231, -2.1310899993256935, -0.0309929390487683, 0.8696401061307818, -1.144410068467036, -0.954684106153095, 0.7661335981170687, 1.3722538028670659, 0.7850662982414045, -0.8579872683848973, 0.041579681979628955, -0.18199939155939637, 0.8965861828563738, -1.0626264898369249, 0.5634980188253562, -0.777429053570634, 0.7997936869176718, 0.897614281329952, -1.639368090068735, -1.3161627789014054, -1.780595064202014, 1.0792781217768874, -1.9244829793878624, 0.8444086631165749, -1.3079910857156758, -1.4680992369643504, -0.9369895843634813, -0.7038610835198728, -0.923893659270871, -1.0232970365053844, 0.3581684904522353, -0.37246216172469676, 0.3068339899891631, -1.3101692099107283, -0.8189173957087232, -0.1008859200381602, 0.7759684427616801, 1.5218391175885733, 0.8194730230880558, -2.4600622714587366, 0.48550294667642313, 2.478853480496885, 0.06935541627244415, 1.0334809652527253, -0.09748340365678548, -0.5831778774267125, -0.9461887735229263, 0.37298495164652035, 0.3544623386571546, -1.147937974443204, 0.1793290827116602, 0.4795810278892367, -0.16634268937330887, 0.4907943073323356, 0.9293708852451008, 0.09697877964486107, -1.5331877239046516, -0.22275744545497203, -0.7224422287175148, 0.31632830976767495, 0.4465317049943238, -0.7097087615683934, 0.18041166982275808, -1.6776954250658878, 1.8395083323247816, -1.144134326783993, 1.3431789230089306, -0.8650390168728103, 0.705805956988897, 0.3597609709083955, -1.1719213168423157, 1.326439995557272, 2.1494261942007804, -1.2353855279731119, 0.8082961619632257, 0.09945978771337095, -1.2526188246546524, 0.14274210131652734, -0.2871773223920137, 0.46257536111128383, -0.600650336623656, -0.24482852815893805, -0.7999572175644454, 0.1227856043423997, -1.423943593779118, -0.052943785342872175, -0.563107850512002, -1.0895231051529777, 0.6810518444010701, -0.048368491715960776, 1.3549452480601907, -1.1055358473557575, 1.2484071789934126, 1.6680825588218122, -2.3355239180271554, -0.3935407625592417, -0.735497960461439, -0.19202397355524278, 0.4128047115039188, 0.4250174993602016, 0.9883562684895842, -1.1528155555793096, 0.27845982208999837, 0.49783759685030066, 0.6653984736730337, -0.8328919571534336, 1.2155956244214787, 0.18589898069766925, 0.43225461426210354, 1.222969780210543, 0.5282279175652528, 0.782505740806638, 1.4052183652547967, 0.06899996354796217, 0.03802780459427697, 3.052598735101636, 0.4419652594888604, 0.7898723612898486, -0.30720197317160974, -1.0014507950661997, 2.4362668950481523, -0.8484142740276583, 0.5503756830425058, -0.3713621535203994, -0.3039291453828979, -2.0803213956547, -0.7909663116803781, -0.2476281291031611, -0.13155793171074237, -1.2849777233691568, 0.055416717377759016, -0.6578300108606795, 0.6712583844442813, -1.145783216158298, 1.7802251485062683, 3.43218284252468, 0.23471393430293178, 1.4297590210916082, 1.052294278931642, -0.5259023656665591, -0.07171018081549169, -1.9075323715499284, 0.9152406964114302, 0.7969106466283712, 0.6019326081025195, 0.8988599639547766, -0.3024334979110984, 1.3282119688114857, -0.16935783170171284, 0.8156071054324995, -0.9532925920518073, -0.4639067908516955, 0.09609365460750156, -1.1325761794779696, -1.2020253461949066, -0.388485469903358, -1.0642640174283298, 1.1149449240450464, 0.6156102398536762, 1.9759353039926248, 0.3010611711369159, 0.14464736867239927, 1.000686821176114, 0.7208900996384925, 0.8780978505662892, -0.46880100334998986, 0.784363495322448, -0.03860376689260188, 1.0138984338582817, -0.40577260989335523, 2.3946575081531063, -0.7443819919345463, 1.5832123242683491, -0.15818350110339677, 0.8861469620806801, -0.1678152589594653, -0.7516483436847071, -1.1722814368344423, 0.3497762521172155, 0.2406357046454128, 0.9237227053555248, -1.973286750330466, -1.415032407252202, -0.143430779142387, 0.8990106265819242, -1.0921549683075806, 0.2297813201639343, 0.17543399200719995, 0.3522694057287454, 0.0024128173645946087, -0.1351098369284676, -0.428250568661891, 0.5268931486149696, 1.1850046832696004, -0.5878318861387358, 1.0142184351611614, 1.564055457195012, -0.45813850636762066, 0.020986426639800878, -0.017531406105729723, 1.120614783592205, -0.028877204637492337, 1.0456134198269842, -1.6988285395719018, -1.5830876302189008, -0.45448929659979853, -0.43701421344742536, 0.06938031177346647, 0.15979107167675602, -0.10229305412284048, 1.0422335044204358, -0.9918230814405139, -1.094076071975357, -0.3295754732802552, 1.324428438915272, -1.9043208657481825, 0.7858267113488703, -0.5804524575417355, -0.33104217311835366, 1.061440421726512, 0.5288100958583171, 2.3328831227383233, -1.5245728441822741, 0.716788519027513, -0.0729204885962188, -0.7309475315011045, 1.5268873238549676, 1.2453832021622475, 0.8217844106227894, -0.0029980145007765654, -1.3642453658556608, -0.00787567589329481, 1.4803202697169662, -1.244410893395041, -1.1025133619523797, -0.36455421430819934, -1.1803224437571018, 0.6109901685511335, 1.3000724222696494, -1.454820889033006, 0.4483482387198069, -1.196219442288267, 0.04870594234747028, -0.038827272618414024, 1.492667743873936, -0.4114321395530223, -0.4980627441127309, -0.4244327149773397, 0.3546396639629618, 0.7988971614921261, 0.2562243510257323, 0.581820939758304, 0.21543224443819475, 1.1891902781088566, -1.557997963501984, -0.48977278988675843, -0.6922807632675012, -0.08660109577157245, -1.0814425981647653, 2.0681580073751564, -0.1279072909869854, -0.759109636760235, 0.12769380131753913, -0.7558855556899006, -0.2939290133030096, 0.38742678856136115, -0.2783538594984251, -0.5165394215782333, 0.2596691862378534, 0.504702380165708, 0.5370774480126023, 0.8006649009560216, 0.3589011541474642, -1.306002213995792, -1.0617777898939054, 2.1301874412056567, 0.0909943601507165, 0.3749193819484291, -1.9135419630055577, -2.0480989099733793, 1.3536160585164043, -0.12578263704705436, 1.397150010557056, -1.7021443768626316, 1.0553104484938962, 1.0277226741863317, 0.6892000588196647, -0.17864375094295568, -0.8119895508755537, 1.4185800527029333, 1.1775907194070145, -2.1298528367257856, 0.2711042764001015, 0.9439073823061592, -1.0282406641543747, -0.17413681674230908, -0.7604088200214184, -0.8384249611692668, -0.6865120278146805, -1.747873383839015, 1.34372383342559, -2.0794580192962937, 1.3225055637687675, 1.2453365084022465, 0.12149714754416195, 0.27465309169298846, 1.777045513820036, -0.15154839697064534, -0.3679591874667306, 1.0915326308535822, 0.24995303648995001, -1.2638974628632142, 0.11302073731409493, 0.17422349804932116, 1.1992976338703052, -0.18816838187501603, 1.0609019958063004, -0.4100802893204409, 0.6407704202210655, 0.5853819682397623, 0.5147228299716168], [0.7930215250871082, -0.3787749061321705, -0.6090258421266669, 3.250461172695586, 0.6980915976679112, -0.675896159463252, -0.1704268443962396, 1.0417185018232453, -0.7305395786799789, 1.08231393485297, -0.15759255388928003, 1.9175579590891736, -0.9713658909402619, -0.09699876879173457, -0.16350791767605366, 0.511237362365838, -0.6032307455372818, -0.814842189725631, 0.45701511338737877, -0.7567494164378579, 1.648909007137839, 0.6552915940314825, -1.4967781517568548, 1.2046308767795806, 1.100417597738044, -0.7423866157269899, 1.0885194858605627, -0.5618431877327734, -0.5907436562821535, -0.4789425288448373, 0.7414792597260079, -0.2741500524086368, -0.6750264824059968, 0.8689786342844614, 0.609231138617798, 0.8873632730089961, -0.1880593287953464, 0.6427289261102334, -0.052111601400473724, 1.1894612539035492, -0.628301687772048, 0.6442775560010104, -1.1693442440106978, -0.37775904331342186, -0.35380200951455115, -0.48784680328602814, -0.4043162514307532, -0.5982194245107205, 0.40528557709131524, -0.8420047585672478, 0.5656056632686346, -1.0630209558759518, 0.2937398567935599, -0.2454142382830615, 0.6714543338847127, 0.10129801388376614, -0.6537125213718286, 0.5433475030870631, -0.47254603546162416, 0.09822719939804679, -0.14561979106765932, 0.17163244434912978, -0.09385740422638142, -1.1399915896803567, 0.16331439003805526, -0.3077359753430544, 0.9745278253632166, -1.3510626361705242, 0.4759157998902151, -0.5770623556933381, 0.11872415315318284, 0.9068439353980757, 1.7687453214256488, 0.5398047025191733, -2.137937092326043, -0.4461963195741855, 0.1792180457134962, 0.05361266244057115, 0.4335251393520403, -0.7336966719772425, -0.26271791583232834, 1.543923055715831, 1.815875290054477, 0.20979210097396697, -1.9365917608100536, 0.02132040778352679, 0.46820204370847246, 0.7812243110286554, 0.015067018797352706, 0.7630619899881819, 0.22539873613606645, -0.264274719523907, 0.3437164305618487, -0.1332499179801546, 0.09817242237258167, 0.2744651278677014, -1.2497564175149631, -2.0630850619977785, -1.112365813759392, -0.567496050644346, -1.6506921309548597, -0.7249986743147678, 1.1234860326815652, -1.274926533556698, 1.0554662592795137, 2.5000513441630665, -0.6361877146252535, -0.12499211817108455, 1.473038365328204, 0.6810034822196213, -1.0442532837613285, -0.8364968958864624, -1.504722019934018, -1.6318507503116135, -0.3082328274088864, 0.6975399763740712, 1.6674976582480368, -0.1876987512726059, 0.565492837137495, 0.21611433544069938, 1.5100064796166406, 1.2980599460384166, 1.5500621807833643, 0.26890800657236275, 0.18014181799413187, -1.1651695157656137, 0.13867164290904377, -0.548315280932809, -0.516337699649384, -0.34350271548629097, -0.5417024012645986, -0.014565142720087866, 0.1407551694527302, 0.7873671233970062, -0.7333484803888971, -0.16516776336846548, -1.6041474683693386, 0.9251843559126268, 0.15232910111020256, -0.21909167711985378, 0.8463797941609983, 0.43725977168028124, -0.1611816437081808, -0.826765581769434, -0.23738348613130075, -0.7736451418648121, 1.2324760325812478, 0.12619500069913472, 0.7203018908484595, -0.3414706799827735, 0.7986776170578763, -0.33916563230457214, -0.5568734065915139, 1.184081033094725, -0.475872943173782, -1.1920557421902442, -0.9519264607794969, -1.526163371097288, -0.8819282137971689, 0.5642527653672285, 0.23766858890143075, -0.24534687414869114, -0.7042527595559978, -0.9276935998700223, -1.212417380551404, -0.24038119900703128, 0.4203485080324483, 0.7289766047137246, -1.3172074661689823, 1.971302973142633, 0.7862836206677829, 0.1664409447737997, -0.5559439179517403, 1.755206949369723, -0.857188113849875, -0.28186401480182316, 1.6731062877018028, 1.4000677763939149, -0.14452757492506907, 0.8576556119872736, 1.2334791149097033, -0.8054879500472628, -0.7850666903638417, -1.3447990913301495, -0.20608143892675235, -0.9140909724721429, 1.4204751422641373, -0.18320264039764644, 0.8375902526708721, -0.0925462295001281, -0.6135194043543903, -1.2527924280599232, -0.33995940335199276, -0.0836972190766845, -0.8751931742593315, -0.4347516759276276, 0.6008997551727036, 1.1682481060646575, -1.0510552321421953, 0.7161202226947327, -1.0851196594798633, 1.4351458290716343, -0.1217861452714908, -0.41131170732867167, -1.7373982338719112, -0.45982841022964316, 0.8526108955148548, -0.3809597751741106, 0.24481748227415506, 1.035847466164295, -1.5945346682907453, -0.015503176072428517, -0.7501944098106951, 1.5350240236952881, 1.0879424397359398, 0.9889451420540165, 0.30713768108562706, -0.10612580341561893, 2.0919095935080736, 0.9403756840467709, 0.102875877682394, 0.9514956677584229, 0.7634015880864596, -0.8460318115117081, 0.4566549334857045, -0.12252559358728832, -0.1066760546680565, 0.7161533515306339, 1.9206589868932535, -0.795477551067303, 0.9999988878738515, -0.5841843514653342, 2.239021910560913, 1.4823351709040624, 0.4668153929561357, -1.549792045355656, 1.212212668138593, -1.8192395524861076, -0.6895464836140224, 1.3566200007637887, -0.6909281414697416, 2.3851394030219684, -0.4447415641114308, -0.6948753356975712, 0.09779207769441353, -3.0658846871497287, 0.7671598430257682, -0.1916921814064416, -1.0976028505653068, -1.57176391603455, -1.7271845273131259, 0.21526344013990506, -1.1526719833123202, 0.3492848073334048, -1.263116074586918, 0.19337973389838722, -0.5498382168501561, -0.757670582399639, 1.64322782087816, -0.39125104626223467, 2.0805468583374043, 1.572824034509481, -1.9124931684253839, 1.4401814447615786, -0.056797450150738484, -1.750502396632561, -0.3433552893721419, 0.5192693012056667, 0.30250583302088496, -0.5852420944014528, 0.5235284928019486, 1.9287318115171799, -0.9902053959378591, 0.3900806658621799, -1.3961413896923567, -0.014021031622034226, -0.06592364521809513, -1.3533984714040173, 0.7463925637190023, -1.5657045046216724, 2.164596666339425, 1.344415497820629, 0.1501811140734503, 0.691979937553656, 1.0885368259801251, -0.6670612318006631, -2.188833306702603, 0.6160907060424395, 1.0147796530526154, -1.1231118512716582, -0.6250578944692777, -0.9792311156648941, 0.3569156081855232, 1.1177501889088577, -0.8363965371593868, -0.8327719762913046, 3.2452843357020935, 1.693425655333151, 0.47689573750154757, -1.4186948084105937, 0.5509268367473121, 0.29323983976275925, 0.6556072826634921, -2.055440575528505, -0.8098225323326352, 1.30688827805651, -1.0976934711679491, -2.2693221654646067, 0.34214018196824775, -0.08556220349152317, -1.3677058121356314, -1.1278474608968836, -0.024007634200586943, 0.13223212260786582, 0.6022388605368473, -1.782050109158463, 0.09399985854147504, -0.08606743630361975, 2.24211640649554, -1.9182751198193095, -1.1255490570493405, -1.4088771497811343, -1.3230451607475584, -1.0637975214483235, 1.1340567029359645, -0.7504359385142539, 1.4943690327668355, 0.19420178651040418, 0.7135180764107861, -0.9405812096400825, -1.9126615018135678, -0.4388093158528676, 0.8450799974867201, -0.607161954520997, 0.3789498724524254, -1.0482581818108143, -0.7965631146872331, 2.0201181573624902, -0.8999138436424134, -0.24815570548939056, 0.30981805867730017, 0.025108044657150577, -1.429769617592232, -0.08251996846125305, -0.18048957193213458, 1.495691918277751, 1.7053446274117323, 0.32758265694886934, -1.6381212438428812, -0.4681433772654351, -0.005871355351138395, -1.667530273882103, -0.690688891260439, 1.2337047495323366, 1.665519150681485, -0.8517024392309371, -2.116685354284257, -1.6098169656894077, 0.11955602788729049, 0.2685416875113266, -0.5196959480069757, -0.00922659232732619, 0.5124763126147771, 0.3900040848660364, -1.7991175133689694, 0.6588480400816226, 0.4661248434738063, 0.8819904420664574, 0.3402649181761782, -1.2183617654009795, 0.7742592523509776, -0.024140688126752866, -0.17762158954861867, 0.39303786324543855, -0.7292383837726023, -0.3484064412281768, -1.0113331891887118, -1.9149726111786523, -2.1331620354247156, 0.2531633829302762, 0.7325640651729954, -0.023751062783793103, -0.4708455393323684, -0.01829787506647538, 0.6871826252202275, 1.390214779115767, 0.13938500060909476, 0.8534675677761849, -1.3986780423942229, -2.542786893300207, 0.49655291913608923, -0.8851128065343419, 0.3561415745568023, 0.1601710355927184, 0.07307899723097093, 0.27904574215321276, -0.18859322186628183, -0.16232248488529186, 0.44363206886540874, -0.688982670020086, -0.3327027363051131, 0.16137569157546458, 0.8311029310604392, -0.17896259795045932, -0.005411647871698508, -1.736769053665583, -1.0201208416394092, -0.7459974773371396, 0.6317191890800813, -0.07474883278791467, 0.3611856784223676, 0.822268752356934, -0.6011937365222956, 0.3368844967031092, -0.3480672979583901, 0.17823362263813577, -0.1528277552535483, 1.4705630731700456, 0.9044929684908692, -0.4627409845291273, 0.8772840391887291, 0.06226352339967625, 0.2256760074836714, -0.5366973154412872, -0.41885727323992455, -1.0288518163905307, -0.7478623876212649, 0.42854627405706713, -0.2641096892364429, 0.015562948619879427, -0.19531178274115518, -1.496702020789061, 0.19696459703140273, -0.48861674922974874, 0.46684714887050555, -1.3168579501372446, 1.1850529603790538, 0.27574307122647074, 0.5455944986034946, 0.3838470906655649, 0.7069583725840384, -0.6016334346514955, -0.29390629694178283, 0.7277930589306403, -1.202385396910462, -1.3976114979066083, -0.3348637296834381, 0.47264840971634814, 0.854382860314904, 0.8138186688792293, 0.22366415144884616, 0.5439018437619952, 0.1663800106716314, -0.3958115510686535, -0.6066172414032549, 0.07019768381301882, -1.6826467944715922, 1.2515238905342632, -1.9697616495139556, 0.5859857027043784, -1.176379345541488, -1.4044843536820923, 1.159943438174002, -1.1867001682938159, 0.12947573729620176, 0.08376243700170362, 0.26930953183022643, 1.5673786585672305, 0.7576071714636202, 0.6598756190516742, 0.5057650373956804, -0.016935477442898188, 0.27381551765976486, -1.862963194214229, -0.1149491317080852, -1.3785656777895174, 0.7920983688962356, 0.6192415076941595, 0.44061368744586854, 1.2315020667457395, -0.4437583672834297, 1.0909376914247488, -0.9679155436694024, -0.06171949133555801, -0.30624488088340424, -0.6663514149782382, 0.13774498359891532, 0.531563725591228, -1.2381373397486426, 1.621260880798312, 0.2545046491812022, -1.147245364033859, -0.17723034044345423, -0.1527403223349651, 2.0842352883351376, 1.5317949769560613, -0.5907456295997595, 0.6554815455640493, 0.20708578509411735, 0.4754443405073336, 0.023720770363297883, 0.5962144458621724, -2.3453307937308776, -1.2078040465633473, 0.216177708862555, 0.6118885160172662, -1.16324700930519, 0.712963345027988, -1.6364924821860787, -0.3013460216105124, -1.0475380392116675, -0.029543731433033484, -0.5652193042079926, -0.30616506230446056, -0.2354756256207808, -1.3703307831418405, 1.3385750403666432, 1.8372554233733276, -0.35438884776169455, 0.16468289462976288, 0.2720049917711852, -1.4823356496128768, 0.26878151687458135, -1.2744039102755462, -1.5368646333556537, -2.26190401864236, -0.7808607524726747, -2.4148409579284658, 1.312750210374929, -1.1699551096068987, -2.2506247195782803, -0.6179485810527453, 0.00543808599835644, 1.3599448849012556, -0.7363734744180098, 1.1802223204901423, 1.1889044555170705, -1.0003630223524633, -0.16810550073700553, -0.17976545546730133, -1.7810896199169335, 0.22329421950678932, 0.551795020404697, -0.32273188612921405, 0.008898139663813384, -0.9632213872694607, 0.4144073543472335, -1.3882069978451925, -0.9012406262895498, -0.3612617209035336, -0.7454218193240084, -0.013707370415164339, -0.13490066190168698, -0.6824162680984329, -1.240220344998035, -1.0168909189435986, 0.5310143758792211, 0.3100624120206818, 0.22619598898911683, 1.2130164096483893, -0.10588241198200996, 1.8035410868741661, 0.0839695160627027, 1.5000043119166424, -1.843137804631709, 1.1138322267575236, -2.5606852400877553, 0.3890780096503237, -0.5737759974973111, -1.271602781811323, 1.3093751513884346, -0.0721375713638317, 1.352572307559252, 1.4125292949341943, 1.998441569503647, -1.2733138999481102, -1.306812745896807, -1.0444983079324899, -0.6333362844316771, -2.483746938727844, 1.2322424257742106, -0.9640910736660445, 1.2840943060768404, -0.8537030901021455, -0.3476158623480104, 0.6950839401477956, -1.0808314173868467, -0.04892940655590391, 0.7396950763622091, -1.242256204948668, -1.1855163628004544, -0.6659643096183242, -0.5854793601028863, -0.24559505524942415, 0.2030719136397048, -0.3328887618329987, 0.6223485329661133, -0.708401465709816, 0.8415281541531917, -0.4664428662895531, 0.30022243374904595, -0.1340201175317047, 0.667094890430298, 0.5443622848591066, -0.9726506859965706, 0.004422305154069808, 0.3969385641543646, 0.47902935728810914, -1.3119628325083432, 1.1544344866648035, -0.7729663282467412, 0.4624896512884021, 0.513819823253487, 1.872152340126472, 0.9127030384993116, -0.27703086766876583, -0.19326342362615093, -1.9575552943973944, -0.1868861619494025, -0.9767126334862534, 1.6240679290507516, -2.11494683826075, -0.14121568251573924, -0.4155489097603108, 1.2697595206873507, -1.6578993187381335, -3.1005245915717667, -1.6547534584566401, -0.2884580566580619, -1.2407613315764348, 0.48779870018192595, -0.17366709838125452, -0.2545180417157556, -0.7577178217855552, 0.8659123814991079, -0.6804631537540587, -0.3145912393551285, -0.6604068439215259, 1.158104521273244, -1.0892476485287725, 1.252112730737604, -0.9816481648010925, -0.02440824702280928, -1.0207475321304669, -0.12415491799277617, -0.8726735850031356, -2.497304872805857, 2.0242836480848525, -0.7932199085121985, 1.2681598238199114, 0.5138715447483322, 1.4488945152580663, -0.8385098658022619, 1.5955852403874053, -0.3522257574276949, 0.8021510890448742, -0.29046118053315056, 0.8143175281126347, 0.6531823809301404, -0.3505106238468495, -0.9151701548838009, 0.11957561008060318, -0.877428805635791, -1.492835494476125, 0.7520449726523697, -0.2191808110972648, -1.3729055120479836, -0.43811457456261604, 0.10313715561150179, -0.644926065605109, -0.5199567495020055, -0.008329015871436404, 0.13707729853300663, 0.18408884820572421, -1.2010282760832618, 0.16588711915764603, -0.05579174358414409, -0.1581890099973412, 0.8109740625375045, -0.3240313032629396, -0.8376579446514278, 0.3491011340260401, 0.19436052593890613, -0.08415989222003281, -0.3744468611130132, 1.3435683096359758, -0.7126416772824454, 1.552369131958241, -1.2009432730452503, 0.8535663730617614, 0.9308267167398735, -0.5868171029439676, 0.6607198774547076, -0.8497560195124432, -0.8200603957671311, -1.3746401950916376, 0.7268214879557491, 0.5659447478596331, 1.2955102685647524, 0.0024591127834349717, -0.5464637952747926, -0.613292416156547, 0.8532276830388166, 0.6426185730887588, -0.13790305510852746, -1.7449745051442378, 2.0638223034196046, 1.348138219364659, -1.8692160324549492, 0.30563786012045907, -0.7149306516330056, -0.2440220409472119, 0.09883930338611305, -1.8788338071157662, 0.05176800741919905, -0.8407507078606767, -0.41792867686541474, -1.1791754524703617, 0.9426667753122713, -1.1062703883112226, -2.1031993568000282, 0.9131310605412643, -0.0033775698014971503, -0.32659698974661266, -0.9907421682332066, -0.06599092742983491, 1.313423748378526, -1.2426702360738346, 1.235170742016353, -0.8010384058378204, -0.9965635336088312, 1.1974585959692678, 0.9505913311732914, -0.23587996656318214, -0.5174467789175593, -1.7501931227874108, 0.5738894527917879, -0.2751539651116837, -1.8348420416181783, -0.6419443021626133, 0.010261747859186687, 1.5454559537377623, 0.05493232272048443, 0.0016372357745093775, -1.0389261049168086, -1.1286208797563668, -0.3168472435109018, 0.1053487606132501, -0.5355937973755492, -1.363293404216437, 0.920447192269524, -0.33501476069162917, -1.37093448750068, 2.046303533394463, -1.7804571045633406, -0.06437523326213238, -0.2515046275920872, -1.5150828013036886, -0.07753637725039153, 2.62744669825624, -1.5583002271680675, 0.5310076465443146, -1.2600986463839532, 0.16714923463444037, 0.35653671091137307, 0.1825812271386399, 0.22749181333328536, 1.3292983278300705, 0.22544994123756526, 0.7698244766945339, -0.2522705899006451, 0.5651202186890256, -0.40804943496504265, -2.342294067726377, -1.1702290147358194, -0.6241240848935773, -1.851680966102872, 0.275819285893869, -1.1101263913209434, -0.5889523125919905, 0.7767616920521394, -1.7823175484674592, -1.7869719365856156, -0.08919584354732162], [0.6165339038206962, 0.6244669206965932, -0.11933959361084556, -1.5177363084661786, 0.15406294468346354, 0.8337437937466778, 0.7722839267929801, 0.49760397779141885, 0.5954396603625752, -0.07878345951630668, 0.45217982273223234, -0.6963053458413747, 0.332131268797838, -0.22543773352337465, 2.146238971455237, -0.04477066135367172, -0.3057770158864058, 0.8417393712441746, 1.014491596672649, -2.7094461728198787, 0.6394303887742121, -0.5163327747713545, -1.2291755428165025, -0.2778976718042008, 1.8110845533477222, 0.5247240589761829, -0.6934272604849615, -1.3783277618688121, 0.33822978615588195, 1.4269020167628874, 1.8053095551151634, 0.2678620708327578, -1.0148640322073188, -0.806419223111039, -1.1365348021886281, 0.21711189881196324, -2.1296500485445633, -0.5352818436119181, -1.1573684235296307, 0.6263080697133104, -1.7731747633093649, -2.170799412230076, 1.200536535732737, 1.1598868713616248, 1.0132353533424958, 0.16217499151947065, -0.24883695428727695, 0.7421664454938875, 0.09368467487069963, 1.839257210517991, -1.3402769853782492, 0.03575228267084579, 0.6249229932443762, -1.6182291378518907, -0.44624307763663007, 1.0149665008200313, -0.5953679891602813, 0.15017660590498602, -0.3774312433542398, -0.014599636364315273, 1.3478078344174371, 0.7380224404582332, -1.0443277546876253, 0.5546562101793775, 0.021751190518655504, -1.4546049309044513, -1.761517581095982, -1.0310186286175431, 0.51714436403337, -1.5347367258126725, -0.09960909310093774, 1.2123044960147342, -0.01788708526473417, -0.27894417075952943, 0.4605852712555943, -1.4987057067189586, 1.145738940188892, 0.8599986422072755, 2.4497856730510126, -0.7244001231192911, 0.18362232171053525, -0.5928107342043237, 0.35958953691697654, 1.2275491703326087, -0.3039998583420602, 0.7601739624179111, 0.5894409546292246, 0.8493665896868061, 0.4338359993133604, 0.05737033449405029, -0.7539515585662451, 1.0396622979556864, 1.2075611196698035, 0.06074111974910672, -1.1626025112080396, -0.9813343905254479, -0.23351731720607125, -1.3443141341903686, 0.2540866067468359, -0.1655522354020167, -2.819133311946582, 0.396015391714075, 0.9044293891483359, -0.8961091960162839, -1.367125347551052, 0.7887467882464387, -0.23006235293858376, 0.12284804315349394, 1.1383123354138254, 2.0588910934670843, -1.2351480988786396, -0.23730256532641533, 0.68111226360083, -0.07145773316340616, -0.49435849068547977, -0.5556522723712886, 0.6241301874946176, 0.7127890290304989, -0.9478613702416495, -0.7981417516792788, -1.2849279468879757, 0.6334556270249145, 0.859553716294663, -1.074878164003436, -0.31329271357157334, -0.17093204648669688, 0.5088721293381784, -0.9106993384569135, -0.0448710631011968, -1.0263142897839004, 0.5140124330208098, -0.6593761611135471, -0.8503673012100199, -2.2861504542394937, -0.5094162636608779, -0.15566437252868853, -1.3285389702812187, -1.0332867289137784, -2.07150458576356, 0.5429873355242982, 0.24216934003714735, 1.5096838601804323, -0.7030506332870062, -2.3449935707168112, 0.2787763882823042, -1.1747390211989672, 0.30083519532600267, 0.6859285720473451, 1.4825065122691572, -0.19500101988377821, -0.9846816767982479, -0.6293259486839634, 0.2844713679361766, 0.8989591706135182, -2.1310605662413296, -0.1705787390317155, 0.947698243467347, -0.4611478371020004, -0.3354917071640888, 0.6080647039921936, -0.1612077461114914, -0.13168590432521043, 0.7335053905421592, 0.29233680313919186, -0.6936995401879779, 0.6914954350588997, 0.6568766669037557, 1.011544221459414, 0.7827534632025785, -0.2392558301392629, 0.46819586818948933, 0.7660273188020854, -0.6307332160927414, -1.749670437685148, 1.1983777319716833, -0.2608116110715179, 0.41439918388055336, 0.6610160192005718, 1.5954403728800814, -0.1887377480810837, -0.5020924855958397, -0.1937379411253281, -0.17409229103656013, -0.5077724265346341, 0.8521558012413972, -0.3423902813541288, -0.460517748769181, 0.18342177402562357, 2.70678268954121, -0.3031036716305786, -0.8334613786550497, -1.3345953187057684, 1.0569946065044062, -0.14275268735540472, -1.727036869032986, 0.4412877061853114, -0.5657608022440589, 0.06824759202478434, 0.28376479527337284, 0.49122236349862125, 3.35125532622767, 0.6825439369214535, 0.14198142748140816, 0.41187450737413567, 2.6301726456781145, -1.0585543499504921, 1.5871656236126048, 2.3357815763336283, 0.8481085795408319, -0.48288581253219026, 0.29200832641769836, 0.08690294179329039, -0.450344898354095, 1.352624206599691, 1.9535242060807174, 0.037570061310749296, 0.0018587377552714552, 0.327048547059883, -0.44410368451850235, 0.2358288328444014, -0.4644872754609647, -0.32617245632455094, -0.7555463972398698, -0.5281977005978552, -0.07166189654274764, 0.027888997153444364, -0.32836267240713696, 1.8623576916065847, -2.776956315205304, -0.40525248252556983, -0.2984601099987272, 0.7730546295650261, -0.4355150861707995, 0.04891785235921192, -0.6329168129963031, -0.07875125515169017, -1.381842365953362, 0.9473303219258776, -2.4469421722674265, -0.9618429520403526, 0.29276579166571465, 0.049061633946638185, -0.71780134318335, 1.2597104319903984, -0.23762995170271095, 0.08181835581334226, 2.0693870543110275, -0.9796699307057215, 1.147995410373028, 0.7249853657775398, -1.9756785084328676, -0.5706181187242004, -1.9804848288925874, -1.4653803810402748, -0.02174686113381818, -0.30795157350467156, 2.112515836889169, 1.226863694883332, -0.2142959498861194, -0.5439034000825527, 0.87025163010507, 1.8351481496203752, 0.6471749033016465, 0.16831258758178774, -0.6525261944595301, -0.2789369391544781, -1.2381292269481832, -0.2881099744564619, -0.1551293366354489, 0.23272975878453991, 1.5327230708238708, -0.9264126862517846, 0.7477309915756278, 1.415298918445848, 1.2134579579477642, -0.40329911035908295, 1.7047252185434445, 0.7366147507985081, -0.23569164005553264, -0.34226710840861746, -0.5077566386273862, -1.129389824335143, 0.1242660473564941, -0.8182306965757119, -0.022170846737289113, 1.3062834799036425, -0.4192266324563214, -0.014590310251359076, 1.2465501669565877, -0.7035608716000549, -0.3211899475719417, -1.0141791883589995, 0.9194513817452542, 0.11820298669893987, 0.6424135998032537, -1.6405094484103957, 0.8732835876343806, -0.05447990030065259, -1.2301964472581286, -0.6051095442004678, 0.385217728414565, 1.4896131206216092, 0.7503094370563843, -0.9204361747272456, -0.6274137312285151, 1.1120616840098925, -0.6055639104172936, -1.254509969733541, 0.4478038794902094, -0.5840678252213515, -0.32153886359528133, 0.10311510401063763, 0.9246456749067913, -2.2161468073122266, 2.561428249653808, 1.1207161696590768, -1.600659982596839, -0.8191625195074039, 1.4054397613660445, -0.02095603601431228, -0.37627028420672587, -0.3710206335582742, -1.2285270390420695, -0.7225992550803596, 1.170387968548726, -0.30662819158052435, 0.5867806335218348, 0.8337254804376248, -0.05704096001897615, -0.48756150685623073, 0.7880933386117501, 0.8529901260031086, 2.4214548275149617, 1.2504853264295297, 1.037517579965315, 0.45764570288994405, 1.8016155637912448, -1.968043404132646, 0.45325579235486535, -0.3352376364887308, 0.4559748387828322, 0.7798477699717634, 0.7789821145525598, 1.1877684884067021, -1.3913652675881107, -0.9348497971174969, -1.1313652274059989, -0.8346580203706144, 0.21932622909685576, -0.6166144504067302, 0.08204840772083391, -0.46387349746379386, 0.3080757576516869, -0.6339487262852085, -1.6200470675511958, 0.16731626188783263, 0.15145041451115332, 0.6300097461510228, -0.5333196951540821, -2.1502300053022005, -0.9189453608184767, -0.3336877186333066, 1.8459881931380508, 0.34403071552476056, 0.5732415489635314, 0.07530601429071786, 1.2033038653060397, 1.5622231679630638, -0.2951209885541804, 1.0791517012993785, -0.07273787348354092, -0.2770407018629219, -0.183003549026596, 1.1093130532329243, -0.8772960984288577, -0.04327251707901161, -0.7058520193308929, -0.1968574748084483, 0.1993060799481198, -2.0416033655888373, -0.14830838159193147, 0.4191721780388494, -0.6849250414625185, -0.4197157618499772, 1.3534757840144918, -1.086110310327112, 0.6227169587211909, -1.1580473331854184, -0.594849406135753, -1.3193581100689293, 0.464549590068541, 0.13427701432906888, 0.19521749524642626, -0.2753299410721435, 0.708463840670473, 0.33247209513037, 1.8390824206528937, 0.044248299596570555, 0.9506481247966446, 0.7133248204213929, 0.2943576369366168, -0.31738810618786417, -2.1278441756704005, -1.0777041550299071, -1.15283066248895, -0.542232538578558, 1.2972168521677534, -1.0964545306295532, -0.879700020884502, -0.5687670972025222, -0.12142493915675258, -0.9809686892495231, 0.02366714970902373, -0.24970167555449385, -1.5188006415826316, 0.1789173608858669, 0.7089035621592673, -0.012514058592354752, -1.0480032223369236, -1.7758192244073083, 0.1186413757246624, -1.7570725833633185, -1.0099285711034454, 0.5983756509869494, -1.0139984685992105, 0.7395016694868749, -1.3898678813874932, 0.7669542357211362, -0.1552406400326711, -1.044173432097927, -1.427423317584286, -0.819197878363702, 0.7652844657517509, -1.3544044644177777, -1.4880928869869159, 1.0285296705474085, -1.4036470074209795, -0.5240286676449698, 0.5282866637985851, 1.381329884904642, -1.3485960356625781, 0.8486160546357845, -0.94698982538534, 1.4673455431985678, 0.7346265947843477, -0.21806881954368088, -1.1413642394582995, 0.7913587407602254, -0.10729095786906036, 0.357535706306341, -0.062281891105999354, 0.7655935511906656, 1.4013416943527253, -0.8844462012726899, -0.6437166395040265, -2.3665366143071656, 0.009138104249111035, 0.8647623634592414, -0.6173741434758349, 0.8000068980244119, -1.3354740252379902, 0.805497077260518, -0.17660839109670376, -0.0050493184427130395, -0.35232765545693073, 0.49563027480901234, -0.9378113609600358, -1.0048080620770647, -0.6149564274756281, -1.9175626577677873, -1.5786965936800648, -2.5968002657232656, -1.2920525839595964, 2.181924996813973, 1.584935297977964, 0.37570341778545, -0.9665623831678456, -1.9545736807256124, 0.4257538836555688, 0.5241458861516655, 1.4049517248451935, -0.644847166097788, 0.5696375205240843, 1.153886276879964, 1.2293508499766712, -0.019846575955959442, -0.4775677983599577, -0.3343039621134454, 1.2065951616528163, -0.33379783436895505, -0.6373718106505705, -1.6932438116483983, -0.1876672945623773, -0.9211704903101136, 1.375324516209916, 0.4197572610211617, -0.7891447475804311, -0.8955153555919549, -0.4820348201508553, -1.9660724059369616, 2.1559453295777207, -0.3569272698710923, 0.3465299847447867, 0.08641916542091331, 2.8779884652246173, -0.044189606281124776, 1.4992729213414366, -1.5801316929686295, -0.36709240263316756, 0.593180455028863, 0.8392906900516475, 0.5145385479323052, 1.5169029452434086, 0.692682689275931, -0.1411155812268637, 1.990504837255623, 0.95266263417781, 0.07590813116605669, -0.2763468615393044, 0.23805611555427272, -0.0662739008369145, -0.030825670210198906, -1.1774552200401405, 1.5162945894583866, -0.902012996833446, -0.20242612370026603, 0.17699037392756778, 0.2507332194712074, -0.7300069293337418, 0.33522727012585707, 1.2865317683202326, -0.1567243632656577, -0.19013768861818586, 1.2802071769278933, -1.3990497355658937, 0.2508655982967162, 1.7508390372083686, 2.066163785954755, 1.5889046275578216, -0.09076612944880236, -0.35800881357353737, 1.445303892321223, -0.19690834243447095, 2.0502685055709344, -0.9725678114674505, 1.1753152157120437, -0.9830198238964211, -0.3942429637091657, 0.8256329685665637, -1.4805901876011756, 0.01337152827858888, 1.545121724980527, 0.5581682800085802, -0.3139149895799895, -0.31775108002353775, 0.6338089914131054, 0.8426259660184363, -1.2081422596324105, 0.24254969215716018, -1.6879745606932628, 1.7142028372721205, 1.4364455148960205, 0.15927113047247224, 1.149933079017228, -0.4016778857533164, 1.0322958273894451, 0.2494698534214919, 0.8258942642618723, 0.7799306430212473, 0.9730799441117504, 0.14907073855164277, 0.5191370507933077, 1.0871876785152665, 0.6948518465552102, 0.5136587887419314, -0.36984037316804164, -1.6110855842284677, 1.0709949084366432, -0.520179545685332, 0.48254268038527864, 0.44430826341385365, 0.21483649131246868, 0.2972353272851814, 1.0972749626336482, 1.5583630031944047, 1.2349704235301868, 0.7806186113400522, 0.09344119843685976, 0.17401312697768664, -1.0587566096909078, -0.134934421149519, 0.17009375503768553, -0.46176999509228994, 0.07147065248466143, 0.9451898208854441, 1.0453897276453583, 0.2738461175673296, 0.5199814737200003, 0.3839210546522946, -1.7661515102649146, 0.5581193138354471, -1.309140156304818, -1.1406746807659351, 0.0562937628346542, 1.0812989464564629, 0.9187892274887408, 0.08939609728979934, -0.03918959663557368, 1.4411338167413104, -0.38323471485630456, -0.32479879295191966, 1.0856850493534667, 0.20906543902977215, 0.2989580180224089, 1.06369940104619, -0.12113243437980291, -0.6939483681488693, 0.4973182735038107, 1.6454058577974235, -0.1293956720437792, 0.2132219376928341, 0.2688936464355644, 0.42639206743234204, -0.05110442107636084, 1.235813716770521, 2.2034347976909263, 0.6407425491361325, 0.030080751798708862, 1.2203907650642756, -0.1169876270058195, 0.8620921142455754, 0.0066352579067204135, 1.260566202170843, -0.38470429710090703, 0.5269447895028943, 1.5916379485335488, -8.406559079239366e-06, -0.8297174328257011, -0.11108995307845182, 0.07255650635834879, -0.7815764737612978, 0.22037730843343278, 0.6800711399393833, -0.8598121409307729, 1.4685611824764642, 0.11501572911047596, 0.36581298526931155, 0.325225670688443, -0.18640737194179094, 0.9088610273551901, -0.6239680449175807, 0.5036800446521802, 0.8691833822017737, -0.8144226967037168, -1.1063480608530456, 1.329721594899381, 1.4582298822896587, 1.5782449484250267, 2.18669827292446, 2.4446933024240223, 1.9779561328870618, -0.8514561271488083, 0.6388364915067755, 1.4384309232573824, -0.9257893643727881, -1.144981052345294, 0.4311227362011063, -0.17901944970887204, -1.8065908834455584, -0.13436408585122545, -0.4885087811519876, -0.4527072374405075, 0.7115953479529138, -0.7187857878012481, -0.27752302734824147, -2.5688295075699643, 0.061333560340756765, 0.47726309483918333, 0.9324169352207093, -0.523469024048424, -1.863316116111523, -0.6017310413204728, -0.5960394254265986, -1.0386142610243712, 0.14375554155606238, 1.559545561421595, -0.7496844045286722, 2.3589423203329836, -0.3119760306365277, 1.4945966503094166, 0.14652798953901344, 1.4261756733014503, 0.7233955105394574, -0.21046366609987746, 0.8200088790890993, -0.10319802406604621, 0.7632252261953169, -0.5481571066638222, 0.4168496261632147, -1.0685566982636088, -0.4461218423944071, -1.1879236865263838, 0.5936934013296994, -0.2554704654835051, 0.9892208768152141, 0.6269131291365566, 2.325144236851148, -0.016730332923361926, -1.273565738088878, -0.958060710197543, 0.721475485208618, 0.01637554088339519, 1.148896906578729, -0.27489348359210564, -1.2148479215271704, 0.8124222541211389, 0.9971730317963254, 0.24725464275024248, 0.8944796487282095, -0.8300544495184609, -0.4339651436048657, -0.12395168911386237, 0.24580617885525946, 0.35331267506598285, 0.49755560097451496, 0.4645595358302061, 3.5523223066529805, -0.0992298019184374, 0.4105896660646206, 0.5525811233613056, -0.3924346345846184, 1.922467470214544, 1.4435005354729349, -0.21425100545694786, 0.13474685394334388, -0.5184895826306759, -0.6148723106568698, 0.5555716682600411, -0.9591241773358615, 1.6439491518953364, 0.9135150038175767, -2.378145959140487, 1.1416751812184083, -0.3563570005017354, -0.6785050529537795, -1.0344136055897952, 0.6645099432158621, -2.1120227790039166, -0.5591721424844933, -0.6668856531146432, 0.053859391355454235, -0.09577707330923971, 0.9736298131290857, -0.962759789806019, 0.28357860159976095, -0.7224194609243035, -0.6374135128336103, -0.09174004727916377, 0.05943513316409735, 0.0007060200555381862, 0.6369111009318001, 0.5416111713071691, -0.7879310720689041, 0.6271893608540953, -0.03164322919581179, 1.2854745985794982, -0.9823942652023561, 1.8124442368286207, -1.2267292895018118, -2.3481709416465817, 0.6154389169092782, -1.0205782327733437, -0.9257611226873996, -1.0110415618458135, 0.257982408918141, 0.012627018018489382, 0.009198888383290377, 1.5838492171978344, 0.3821225789958038, 1.0038726711502586, -1.2791503119823993, -1.5140356729609739, 0.2649140005844137, -1.3227623096169745], [0.7123263902341795, -0.4884635588068867, 0.02786156520366597, 0.26242891727526924, -0.474172535814601, 0.6639573102474977, -0.2500222991670314, 0.34179652438167707, 0.5944170464357065, -0.7359121569174105, -0.22130766108747774, -0.8722651460871274, 0.9357394606762672, 0.7217418256780753, 0.3963802064709521, 1.3684732971571003, -3.044466484506384, 0.23208478469628674, 0.16106438483999658, 0.5758466573612666, -0.8807805993607974, 1.0245866897413665, -0.2329996726499743, 0.10515676612383776, 0.2912697835972094, 0.642050693156953, 0.9743443295649794, -0.2282881380764679, 2.13461489118082, -0.5767667277815403, -0.3688399392543142, 1.136175612851554, 0.1043717810471534, 0.30853679220781527, 1.4764096817922996, -1.074193517182111, 0.71581687879543, 0.13860071300688048, -1.47733879442367, 1.2169008950173565, 1.263187193873485, 1.5416656259903596, 0.08648969074459151, -0.130622876034569, -1.8157895020185333, 0.11365535851067254, -0.8847685592890948, 1.1761290369921535, -0.7850198021894536, -0.541583700588513, 0.22641594619295655, 1.9534381396314773, -0.40723526009226696, 0.07169289093868814, 1.5243844563085314, -1.5892601048682728, -0.5926892749723073, -0.3050759277809813, 0.012879850415988322, 0.589593686534921, 0.8650303100241927, 3.2653596978671855, 1.427201475437003, -0.8277953462040887, -0.09644783942055055, -0.09306701110433539, 0.6859118000039245, 0.32751021270811087, -0.624539585070016, 0.5213298331837815, -0.6728821179938083, 0.66186874791491, -1.1911368715282848, 0.16854023208794738, 0.4871727468936873, -1.842130038847662, -1.2651453638730394, -0.35386305001509455, -0.12900737091539416, -0.549399755102813, 0.8322429738654535, -0.33916628230618184, 0.7733479558351188, -2.1404143926121293, 0.5784009104697303, 0.08571934395971972, 0.9865278317477116, -0.146554991185958, -0.9495811520839141, 0.28651947409929857, -1.1618415161748694, -1.0645862721361863, 0.257657330172589, -0.41648549775130295, 1.1818296982886627, -1.3825922212189523, -0.805810795858817, -1.6247811600985178, 1.158995494508128, 1.1056167529305647, 0.8317826010627778, -0.7325438541136088, 1.1911511390761087, 0.21342852271208893, 0.006253837577910085, -0.3612407057939684, 0.28066431570136596, 1.0628156931101826, -0.3542268268233279, 0.0717204052947697, -0.7110421778870498, -1.534433623411247, 1.1758925611056872, 0.7229600745016956, 0.8195166336116513, -0.699370941703343, 1.184307116411685, 0.6358256218308191, -0.35774124842785504, 1.236220452740901, 1.3627193230873116, -0.567276872092981, 0.5606504375451477, 0.12372622696857764, -2.010023476141862, 0.5815396264094356, -0.45287406440967953, 1.0271881229754514, 0.7103144798244277, 0.4891465742336507, 0.31642753184013533, 0.46627361614508445, 0.22321648825084103, -0.2704119103351916, 0.40919876375053466, -1.441679188843825, 0.14055228096637334, 0.2238269293363791, 0.5628925524660288, 