{"biases": [[[-0.05689390494955585], [0.22954731525929764], [-1.4916711274232757], [0.47149685406672354], [-1.7699153075845513], [1.5284020863812269], [-0.6197978257386378], [-0.7713510713973181], [0.6912016403794655], [1.1539766078977534], [-0.3144951639273865], [0.09434778716286299], [0.38552273766530265], [1.7581111448749702], [1.6863060254994495], [-0.9676733174513317], [1.6789335687337177], [-0.9991950561727189], [-1.2920363502799272], [0.9515581249507701], [0.026718711549677247], [-0.5577973498261033], [-1.9138588847427922], [-0.9234655079320647], [-0.1875444667474327]], [[-1.6532958407811809], [-1.3614435845815707], [-2.3511374832065894], [-0.32769640418619517], [0.9581284304894948], [0.1886175606082206], [1.3370943765447014], [0.5947180178133702], [-1.4943965624029716], [-0.010400110707890037], [-1.2581226951619422], [0.4908424930229993], [-0.008305101046103856], [-0.19991275523144506]]], "nodesInLayer": [2025, 25, 14], "weights": [[[-0.8843259440788594, -0.29461785941494095, 0.3818324040994294, 0.7099632222906624, 1.1188378052209387, 2.2065277954804525, 1.5828053892424665, 0.15947021274373915, 0.11636885459736201, 1.418830271331579, -0.5566038419154743, -2.507677158923288, 0.016294720592076792, 0.31841905439205775, -0.31453246302364046, -0.25242015513489646, -0.9982063341741894, 1.3322059135279483, 0.9567918162685561, -1.6306141748641374, 1.310020249847599, -0.524159835009256, -2.02857621509619, 1.3306871083436846, 1.1456214152116257, -0.5260690982560204, 0.18834603659053184, -0.9438730694731491, 0.21454071523491997, -0.6183975141934713, 1.1528510540633874, 1.088975487038126, -1.0977732038440884, -0.7288597142653613, 0.690300164343613, -0.2859607516873354, -0.41856384310255207, -0.5423604460846795, -0.2620428653182666, 0.051913977546614226, -1.1229261631115295, 0.0019979903647658745, 0.20213199284658528, 0.37994782213285005, -1.346378248066413, -0.2662731280197497, 1.9144653703586374, 2.8056955506475636, -2.483856343365378, 0.11632541236787594, -0.2614052263360578, 2.148834643440126, 1.9937143851450627, 0.8296069178695601, 0.6306659192839192, -1.602089993087849, -1.145642822900489, -1.9617450366166378, 1.9866594707174028, -0.2686125759560917, 0.7495498438734028, 0.39474208401248334, 0.9942919034777897, 0.5272681762169136, 0.6087436701081378, 0.08779234238830182, 0.032070353241685945, -0.05725234241216566, -2.605941227133915, -0.37710794523373226, 1.3817924926940222, -0.17987975016430396, -0.8590105982725084, -1.634039515486704, -0.5766917429300312, 0.2961892488789445, 1.0216549161965005, -0.6177209300839313, 1.8576982839206326, 0.45371653406926826, 1.3093898183322967, 1.636559769674992, -0.1766131285058833, 0.7427987591145667, 1.087967089865341, 0.24900729882181952, -0.1888849807272363, -0.5135950972582373, -0.779983702429443, -1.9528223678617933, -0.580412215925857, -1.7444740374170786, 1.0585583421130393, 0.692341053267301, -0.5395603249413491, 0.16956197364377398, -0.9489819676748018, -0.6251462057594972, -0.6426935906992343, -0.5303959882475154, 0.7389973659727037, 0.42376112976295943, 0.37285383882326356, 0.26991113428564933, 0.5664204560019434, 0.4775887058252443, 0.2176430936647941, -1.6853269331343534, -0.5202499715091475, 2.329677282597463, 0.03836829240412302, 0.3595621738316084, -0.029270446653404135, 0.21892927108380658, -0.06642590169006439, -1.2646142604678505, 0.9324483137916463, -1.5302163531701305, 2.0964840409562298, -0.09163362300423525, -1.1459034279250861, 1.0558338817034438, 2.028194698399162, 0.17765670537265502, 1.3418413980438018, 0.2239310575090305, 0.19632725590104289, 0.6501190231570448, -2.13196830551039, 0.03990421935377591, 0.9846641393409973, 0.10309917544974648, 0.6947935782868543, -0.1716172374241781, 0.7829211295281538, -0.5010018276524137, 0.289603536946168, -0.15320658825797148, 0.9506977191328971, 0.011998705446396028, -0.683174500115608, -1.0381193181047663, 0.45469468236417654, -0.34731526935346646, -0.8535416187005498, -0.351267599470239, -0.1477764166511171, 0.6019961338071979, -0.12315054191309592, 0.972097618372352, 0.6308061320033649, -1.1392006652219069, 2.0110851610574647, 0.2633514891288139, -0.5340224617843131, -0.44423180408675517, -1.1825743307480352, 0.9303008670652739, 0.08573353438349793, -1.2986025665535892, -0.05355152895709816, -0.6805767613296024, 1.2023723527808583, -1.20561778422483, 0.15791861188355474, -0.2586897238322531, 0.4370892689731507, -2.8326593518895553, 0.3283977978654332, 0.36236214306464554, -0.2214716048309263, -2.022929790260135, -0.6293583609901203, -1.1107244435702226, 0.754641856459042, -0.6547901428564856, -1.6314923819546, 2.200554727823379, -0.18463027837898718, -0.3971321710276677, 0.3387094207851694, 0.04384040547999026, 1.0577111676535234, 0.5170633874538536, -1.2364545953367907, 1.1413317915591712, -0.13721914530927923, -0.8818007396543147, 1.163377577210465, 2.055475515058502, -1.4568105251104875, 0.0056284983374992464, 0.34661746912913854, 0.4708790522954457, -0.1631207639872025, -0.3340504767954309, 0.3414128028598515, 0.2423371825424987, 0.04159375280616735, 0.5579381521527382, 0.11956292097062143, -0.045489677411545006, 0.9685864107096285, 0.4966706910345237, 1.0970053324761624, 0.054609620641517524, -1.1872518536227872, 0.9496885408434051, -0.4976646050631025, 1.5791502393786887, 0.8203484417694954, 0.5058438684181059, -0.47639693191804316, 0.8236373825553437, -1.0099191823265834, -0.9656854017958025, 0.25483340298691554, -1.0766044651026911, 0.44821581450101383, 0.08733773278607278, 0.5382123798047305, 0.9699829449235009, 0.27746956665753364, -0.3285429405669613, -1.069171992055652, 2.1264548330501105, 0.3841852589984927, 0.2076635345797448, 0.5970850474037018, -0.45980300565363064, -1.31589466323207, -1.9614507071818055, -0.8006434118391766, 0.5082488834203883, 0.6105918339178826, -0.27241470839500176, -0.21388097430426892, -1.0364991883823897, -0.4253302151461654, -0.8851869782094354, 1.0351153568297111, 0.9540252010171171, 0.6520771638561726, 0.9534136989719358, 0.18071327530475156, 0.458198776757512, -1.3005730489628222, -0.4761300832557586, 0.9701930519928732, -0.07163010775291004, 0.8855045491112671, 0.7421345055426861, 1.0843780595180794, -1.6059060514350643, 1.2303017998249959, -0.03213672509611492, -1.1419690107630418, 1.4717660073037622, -0.1617861278326334, 0.7540201631941957, -0.4648564559296625, -0.03108273651822753, 0.46967136051548347, 0.7314005962838492, 0.5252136987014867, -0.6046662373120566, -0.027111488795729638, -1.9228387115741263, -0.18998086768677666, -0.8410682766556475, 1.0914778261104199, 0.20675614023872943, -1.1640173957560294, -0.8894420568294008, -0.5840989830402902, -0.8362478512492127, 0.3828563371892422, 1.5303360124253733, 0.8379679944640891, -1.2079448214633202, 1.1328526113357362, 1.1972447279887495, -0.653739624257484, -0.4244425638530838, -0.2198858907393266, -0.7610654478137773, 0.5995316691845696, 0.914296457413174, -0.4082166231079277, -0.4519869901928165, -0.06763201052731754, -1.261558293973841, 0.41831921493382324, 0.9732333232567986, -0.8151696147871995, -0.29693688669064017, 0.903311655219121, -0.6905925545125355, 1.422857258294659, -1.3174701420128239, 0.9027170592117488, -0.23884103914344013, 0.25421195395142376, -0.85413213257068, 0.5122014773175504, -0.22121227177503905, 1.4037219506711212, -0.941218775116435, 0.3224109870958284, -0.40360511634845603, -0.27978464923656376, 0.33957885826582446, 0.8767283000719391, 1.4059352608646207, -0.8563732905038819, -0.8848462476895456, 0.006425687517898929, 1.2252414384747339, 2.1020316827612247, 1.906841337366237, -1.341820027692907, 1.1529480754557222, 0.4586249131074319, -0.1779046339123142, -0.85591110738031, 1.1029805628440599, 1.0542846949474791, 0.2799506700423006, -0.36983570074531863, 0.37196405521132153, -0.6457155228725362, -0.221458245819152, 1.2012798812760563, 0.3745137005707852, -1.1437865314361089, 0.3877099908187589, 1.3019696952533788, -2.581996207568466, 0.29029423786932307, 0.5737417312533829, 0.0008875557379617353, 0.7755149911457472, 1.1818702895150504, -1.2685441068731311, 0.1858019740708784, -2.3393660679684696, 3.105232757991602, -1.4335705484901158, 0.1800822557351926, -0.4219461875154552, 0.24027950080646612, -0.2841529507297498, -1.5684292505481263, 1.5517602619747872, -3.328197763748216, -0.15150073745776252, -1.1116285693727121, 0.36177414164723, 1.8372587912312455, 0.5001513976135188, 0.5879966896013658, 0.31582524624102376, 0.6562536869234341, -0.41397613391143856, 1.8714411263674693, -1.1657620697137256, 0.9788939506990878, 0.7039878090689831, -0.6714849002000074, 1.661954242564389, -0.39510007025928545, -0.25020215384817374, -0.6452776748355182, -0.8068276027900643, 0.4236293225566946, 0.024593767440800073, -1.1855204039027023, 0.8742165048156026, 0.2587710769297837, -0.9799964480989006, -1.2372415773910357, -0.3998594625974909, 0.28551630085790514, -0.015129456115820486, 0.7706495762440684, -0.20492135251020177, 0.3285000167347792, -0.016037027903925808, 0.6029138572933576, -0.2866620505773791, 0.016721172187765542, 0.8469610492258793, -0.27609328356949636, -1.7658091503641673, 1.9312565993812312, -0.11792550860668297, 0.9337090577891065, -0.8335528984532115, 0.49254657863131834, -0.2344778807062316, 0.6768814371576075, -0.5172678329229594, 0.8862700655553312, -0.17045633531229187, 0.34798930141778806, 0.039956700660128214, 0.9455276658230947, -0.7727939258042409, -0.47876674540976155, -0.2767623221668089, 0.48075203756543583, -2.2358149067029522, 2.0424038593419387, -1.33251553096253, 0.22831512603607257, 1.895987091088386, 0.23815455561979684, 0.7888397769160315, -0.3542012156262018, 0.5827345999736472, -1.2300351821170477, 0.6160063033308489, 1.873244782924307, 1.2090350567670543, -0.027926217819998142, 0.9587055957841635, 2.0013529397668903, 0.5774474254335163, -1.1281533479454073, 1.3774088331914205, 1.425356021979095, 0.03673339653416949, 0.2208248527241187, -0.5827433387479873, 0.6376236442889802, 3.009982329852379, 0.44665045214452903, -0.7450287848830759, 0.7000205660747151, -1.7447190528409566, 0.5125282748003686, -1.0519768122990762, 0.08837300527724382, 0.07164729158357011, 1.4186264002825866, 0.9949431396815093, -1.1542471987801268, -0.9007736156505668, -0.8246792235100153, -0.5586297326999172, -0.3588268976390869, -0.0778664092016806, -0.23417333902694934, -2.1692208303380975, -0.7067866272598391, -0.3891599711246848, -0.09447099905222488, 0.1673737091214861, -0.8255040288984693, -1.5031165640550468, -0.4910141556742163, 1.4562925186573592, 1.2069346619399173, -0.19331522852654512, 0.770345664217089, 0.1101632259136789, 0.36611801202976596, -0.10399579116286094, -2.253172026693612, 1.5602070017980672, 2.8699546733976335, -0.017326532519660705, 2.2031705581791794, -0.3636815504898826, -1.972416231555379, -0.9765716934997947, -1.3060178925983756, 0.3886960516497646, -0.415970626637546, 1.1698842864915142, 2.459843634873042, 0.4465363650385904, -0.4181374045028449, 1.1591471859783125, 0.044328312249597206, 0.5499036625535138, -0.09477088684760798, -1.911212314834682, -0.6348894238808578, -2.1498507674879566, -1.0270647786630311, 1.0668431589034233, 0.07799691670424776, 0.35749537177805024, -0.11310929101900474, 1.7349685034268398, -0.7323240258381873, -0.7294959870569542, -0.7719541603470457, -0.8883970660380968, 0.3011799207863777, 1.663391057616194, 0.4939899311515988, 1.4241728730501186, 0.6163997072135601, -0.10007703067534271, -0.32310961884802064, -2.184643732176334, 0.44572915308127603, 0.08633056824747892, 1.4400505018167016, -0.757171155575726, 1.0759689417668483, 1.1418073818986718, 1.184724165897116, 0.36295891378318357, -1.0349927956602711, -0.9175728022130515, 0.1592811172045536, 0.062269262819963214, 0.6963523014855079, -0.8980971646324618, 0.5408891543465393, 0.3729458817365359, 0.10246241358824992, -0.38510197179031846, 0.016040773863432983, 1.458806293185733, -0.4907418508263897, 0.1319076147394558, 1.2668865402949052, 0.6138056844068753, -0.6078253279976484, -0.11112575990081419, 2.251076118086101, 0.20305020155980613, -1.4261559911257498, -0.0783337921620996, -0.3463661318941522, 1.1298958740372078, -1.0815069622968005, 1.2315869424972883, 1.188425094106716, -0.5276991042707166, 0.04653518076209568, -1.0778666424995986, 0.07477772779743046, 0.6055465230532531, -0.6062852828115627, -1.642622861533701, 0.44941596129964434, 0.3573354990800257, -0.1773625166813242, -1.7589312809868616, -0.45510120165138696, 0.4405036986896854, -0.406298085409311, -0.703580653400801, 1.0909439654218258, 0.4994332238130357, 1.686090850626654, -1.5067065951197522, 1.5653649068003548, 0.5603717353587065, -0.14307562254971498, 0.5314427574613241, -0.05216843896413548, 0.13318487540514354, -0.03308179080122169, -0.9638841550519932, -0.5182886991702281, -0.29290223544942773, 1.7457134584788778, -1.3732529437673546, 0.3645388281954923, -1.3886483897775015, -0.6418800383552287, -1.2514797860400848, 0.5306614549095839, 0.1939168505651907, -0.9064462053387875, 0.18760028053778616, -1.8712494658515306, 2.4660995656659335, 0.9697324301217931, 0.27531554234720695, -1.4206756590326302, 0.328914957968074, 1.414188599156981, 1.0896623876196816, -0.8236673282772268, -0.09881783182688456, 0.10233353830845447, -0.20778132526276294, -0.7147504961101401, 1.8945678897646436, -0.08678653531062892, -0.05935314293206723, -0.07537005043751921, -2.053747189499572, -0.34632314524788493, 0.9668182402383793, -0.4787383795146666, 2.1069084628614667, -0.4935597548152352, 0.21862450206329062, 0.4653846614423181, 0.2118724249830436, 0.5587058900576677, -0.757702802207987, 0.4181636606797153, -0.3125526701124962, -1.0025722528105578, 0.18083908669885912, -0.14034377261443232, 1.7602775645604924, 0.5742092299798663, 0.23875305650332926, 0.7448574292792588, -0.926861166025171, -0.10515286927532846, 0.8053603435481512, 0.7663209668991194, 0.9136771157151163, 0.004913429285844845, -0.4941660145345067, 0.4747253178885152, -0.01728023748565909, -1.8951563102838411, 0.5093585464539334, 0.43269722019302564, 1.521116048436626, 0.6954352664464923, -0.7309392553304577, 0.5178457013947024, 0.9436406932444251, -1.1957737182121422, -0.3686136911434603, -0.656362684416641, 1.7566144429206993, -0.7766727773467296, 1.139053847017292, -0.07777871730864161, 0.8713148609809569, -0.39506384275105, 1.8940310699554068, 1.464016663994541, 1.2433934987904698, -0.16000339342013803, -1.2683821005645233, -0.35673659598904095, 2.1370593208605606, -0.06611122492143402, -1.1569939553459303, 0.1062167406486041, 1.5652837920190774, -0.6050235769854022, -0.4895987287160634, 0.1527468562295535, -0.6661596872590487, -1.2468334832250128, 0.5191025240794367, 0.010856571086740612, 1.2835127365182797, 0.22175916082167219, 1.6884539811145276, -1.8825154674209927, 0.5080249685789151, 0.8867126377346218, 0.2678422801796509, -1.253632314281304, 0.5477729440076375, -0.9455157049684932, -0.6479894924166635, 0.17248998501490875, -0.2311511415162762, -0.608329752810989, 0.8475894758187046, 0.13780696928103087, -0.7775135724957253, -1.28920790064261, 0.31987724022772535, 0.15303180024613408, 0.5262034544138191, -0.3687115870769167, 1.1559128608878626, -1.1429177384360127, -0.8148459032689073, -0.6512419001557977, 1.1340885793666013, 0.05089488401332919, 0.4895479957109661, 0.05263440947678101, 1.1481976996494518, 0.7813379086649569, 0.6524721703903422, -0.6032555163134793, -0.3828202744610535, -0.053966188821480875, -0.7358567607277835, -0.3427801896158024, -1.256934100999624, 0.2353345416331291, -0.5398446881752387, -0.09491114456559681, -0.06837968263628773, -0.25917413960679764, 0.036139479360884776, 1.1177953403388834, 0.20438541130861815, -0.6781583565857482, -1.2013198374045888, 0.562362401513094, -1.7654089583318635, -1.1422549413377088, 1.296926801716582, -0.29978646835145106, -0.07656967119490259, -1.1602361727560873, -0.30841940668484974, 0.4874275491115401, -0.11708366486070722, -1.3862002868790146, -2.4757630518892686, -0.319865337880963, 1.4931749823655707, 0.3303519493976609, -0.12846829740543336, -0.16913610389536957, -0.3628432224143359, 0.31762986674830335, 1.0817928820044633, -1.1734270706911312, 2.0763411009396697, -0.6812426489853493, 1.1873998575198463, -0.14602827372717306, -0.7502063906181604, -0.8960233083186347, -0.15704110932165266, -0.08192620112888399, 0.9662851985538063, 1.9231871336508475, -0.2694571381008039, -1.256135458984318, -0.5365555070428938, -0.7226350265728076, 0.6997715495333063, -1.1379021788855999, -0.8978795533497211, 0.23519890561004048, -0.40512294011869027, -2.0270533822397168, 1.2404408498191946, 0.642013193931895, -0.12428133648545994, 0.5127973782193743, -0.6915802648852546, 0.8175396240779362, 0.27240263508739104, 0.5388282427709623, -0.9903246476265722, 0.3654667710328294, 0.22704236846949552, -1.9542113723062213, -0.4260863206387861, -1.2350549758178375, 1.8158670828288572, -0.8378499592742717, 1.5909472787091825, -0.5760097972940533, 1.5125606411063512, 1.1682663024408688, 0.7160984762152933, 1.0957347966286517, -0.8026463772236936, -0.08312469341735801, -0.3244217385450561, 0.4391942541911531, 0.24310014429855517, -0.6590050880196253, -0.9883015608003322, -0.010858941959958967, -0.2905298638543904, 1.290639224857343, 0.21772901334915407, -0.18319562330964068, 1.2317131862747714, 0.07648350520593672, -0.4248895166987397, -0.9089375653829216, 0.7742882128638607, 0.11901699645847184, 0.7295354072475817, -1.3608329538796182, 1.240482199300321, 1.0219362835692158, -0.24517082617574798, -1.0169557663244873, -2.0253466279443852, 0.5910774024120662, -0.11846079821292282, -0.1339345411491873, -0.7283623026521023, -0.017989335099302537, -0.661344345290017, 1.9853038978859754, -0.8860226739530553, -0.5510602286575309, -0.11876514168398764, 0.43911998458411994, 0.10000663362409641, 0.614355679440125, -1.470666450708186, 0.6449279802638536, -1.9918267296286938, 0.08041790749682222, 0.10944494883309408, -0.5190519993502146, -0.4143503368802293, 0.8661700797011681, -1.873890619726459, -0.24309712548224194, -0.12106204298925242, 1.535743954240046, 0.21568709890676385, -1.0118217315887064, -0.4265405037685506, -0.7741963357440854, 0.6751616106479877, -0.9186772477135975, -0.3076355089082418, -0.3870607361889658, -0.13108676142257022, 0.9012640099496773, -0.19758865356075353, 0.012560650516271971, -1.6343702571138976, -0.6321110662900596, -0.6358242828505185, 0.8440077506251651, 0.2641287310227552, -0.3117224384912652, 1.1194718684566338, -0.1682711583310291, 2.0960034146933366, -0.8508583728528908, -0.9518963087696978, 1.197515133352241, -0.3858438425630306, 0.4048410711922298, 0.0509732276864092, -1.6061821999522918, -0.6348651535458599, 0.10567887049151278, -1.0027944811882952, -1.267051881698233, -0.7303700481950479, -0.9699425988940558, -0.897245628336044, 0.5914035357721482, 0.3090885115132668, 0.15587684592575174, -0.23147247903725263, 0.5950116080525254, -0.44097466193858154, -1.0632554821622804, 1.031121683129792, -1.405935896268659, 2.9740959438619026, 0.13733876869942335, 0.47398646634333325, 2.902062393413931, -0.5214682999473322, 0.7920887972231503, 0.5324996468813643, 0.4549466655353118, -0.8916922161924319, -0.19399250774875826, 0.48602455618144547, 0.3822720178443592, -0.06040645922497339, -0.7465951484133648, 1.1548557631276983, -1.6697564995070138, 0.1484933814597534, 0.909389418033234, -0.8355077853944072, 0.6230777647842994, 1.0426158712528184, 2.066214430304467, 1.092986462779558, 1.2142485348749381, 2.096786863804381, 0.24018601705651435, -0.7437178792269165, 0.4089574859274302, 1.9645319795765328, -0.9621652897334794, 0.577961473788486, -1.1022973052237897, 0.25839555280620174, 0.5539621975084807, -0.37175552533615097, -1.1136677996384137, -1.516353079400588, 0.5012050490467739, -1.361311898985464, 0.4763219083861214, -1.0426397060979555, 0.05103911085239762, -0.4760974770826411, 0.5148936143695525, -0.8071435091328608, -0.0246048070261349, 0.5841519159478219, -0.1901797149132604, 1.8626825267930827, -0.8062418552702849, -0.4394987520890361, 0.3100859867734607, 0.7258757685646022, 0.6930059474177397, 0.4106707100435947, 0.7612533108616284, -0.454063427443349, 0.48705166290063256, -1.4349702630787786, -0.7291146794839303, 0.5671945361521417, -0.837117499110685, -0.38516637366189166, -0.4005242248013911, 2.6726357042976208, -0.2024754588435181, 0.702590937325544, 0.4550744763172137, -1.179493551116317, 0.4072742161159303, -1.2605653196619293, -0.119998459486678, -1.5529405643024774, 0.9683041468679618, -0.8412651995059186, 0.2681714980233983, -1.87062850789889, 0.5709688351693689, -1.6153593889459983, 0.0369695251500435, 0.9872077483012226, 0.5145970927758352, -0.6165172287400714, 0.12690724381373936, 1.2140737366882441, 0.15517503649929942, 0.734766098778829, -1.345648925728988, 0.11551842888093168, 1.5741095517388237, -0.7545863917892668, -0.3524692973711211, 1.1232482628051335, 0.13760178359726877, -0.6914543864570908, -0.20641470624306826, 1.4533710388332748, 0.47594128936684443, -0.1285165918563144, 0.42093805214772284, -0.30912590369833653, -1.3409033479143382, 0.24916338283235476, 0.14518215150919594, -1.5803995741900108, -2.0000710191181006, -0.3347341642300423, -0.48075228312006624, 0.3033608697158186, 0.07095169753308787, 0.37332746855380533, 0.6631451928705393, -0.5424194099449836, -0.12397767416146963, -1.859093098083836, -0.9940380153426049, -0.12761063538947157, 1.0168341660416629, 0.18364970089565458, 1.3057468784821038, -0.13895560767151136, -1.3155105068110169, -0.7675596413269009, -0.0763025152650204, 0.6087767887132807, -1.1497546724353884, -1.2207415827792125, -0.6542501300756595, -0.26368655796005774, 1.4108700034052863, 0.7632502417386711, -1.0263249607827118, 1.4100301883318722, -0.5425921746107681, -0.43209658752757046, 0.012000863613623293, 0.5919993968375444, -0.16747600463900986, 1.179329232515491, -1.1770471876104096, -0.5636742439168556, -0.9368434714456016, 1.3868167933113238, 1.2584895710037682, -0.31715586755445146, -0.27738467483302626, 0.17575257757781096, 1.297863400822323, -1.9262822926631977, 0.4689256625281864, 0.011323169643385932, 0.43708431831488803, -2.335181306780881, 1.8446104134648051, 1.1945144261663827, -0.6534980692067972, -0.48140052107776854, -0.30626755920571413, -0.9098551086416691, -0.9598071028720128, -0.684179258705125, 1.7547255536243835, -0.6766477238993264, -0.0662002107081169, 0.5322779513292383, -0.646152654847452, 0.31684500916045794, -0.14173844161070295, 0.15468130249842216, -0.3874887020284642, -0.7870491142958916, 1.5035721001819755, 0.036907456074598936, -0.48143586095488694, 0.4439485459652002, -1.0891728078968304, 1.5636283616111002, -0.10416403345486544, 1.1342752512766205, -0.8235756166500389, 1.334092911714043, 0.11317791819603058, 0.6775264650061157, 0.6428767996040632, 1.2889790812918789, -0.1894387737637084, -0.7469065094171828, -0.047631953558585516, 0.19700694283286624, -0.9155236548169271, -0.10394269772802851, -0.20284035699006073, -0.6933672665636085, 1.5642618498617966, -0.10616689759321005, -0.8314227124227425, -0.37113782926927763, 0.31190722275628946, -1.5244782493702251, -0.5184147353277858, 1.7201971978505874, 1.859516827628559, 0.20866427687588587, 0.9044525128714616, 1.0407757452239539, -0.5777787667730018, -0.28302466123525605, 0.978806094125736, -0.3317183276683898, -1.6289585150004287, -1.309664054216573, -0.5290317446411485, 1.628344481187181, 3.491767552326836, -0.8226439035411097, -0.5465773575864371, 1.08526983944531, 1.7132969922126093, -0.10964358794341414, -1.1817881653892073, 1.4934372437312946, -0.8030925593660581, 0.4246422872015118, 0.47858918896565417, -0.973665537728014, 2.0323835740159146, 0.7793005388961438, -1.0363801863298743, -0.5899687282502651, -0.7928971741950483, 0.7598067149026689, 0.8904433255204354, 0.5314770941102926, 1.9632239533921576, -1.1611320538625465, -0.4346871453472953, 0.01849973123502159, -0.461263527424472, -0.44749414193185716, 0.5737370309240708, 0.10705445619969468, 1.1771699272400018, -0.73728018516064, 0.49228417220480647, 1.5127106365506298, -1.9645932547852913, 1.3225168512811933, 1.1301083023087988, 1.919296737491511, -0.3984197492135678, 1.6726725985956354, -0.3143395952610506, 0.9466136575991244, -0.7329720562922946, 0.9513630789180663, -0.19218048770151513, -0.2214723238706342, -0.6206164016241414, 0.9861717534698395, -0.9049537127684996, 0.8281826167409431, -0.6961527967168288, 1.705871896670515, -1.8961000264772057, 0.730199326016893, 0.3676713829966311, 0.617943920035209, -1.2396228736417356, 0.923447472250167, -1.3849738494181638, -0.7801444662896628, -0.5179914379727111, -2.199631596452016, 0.7903380233503263, -1.4357831044301854, 0.2916872566440853, -0.7110506435017644, -0.5995565329145895, -0.1046390890272856, -0.8306387826169794, 0.7344717036137979, 0.2161756533990968, -0.022685108443791166, 0.327556117214529, 0.22147940294689128, -0.5926494762913466, 0.3773736296947465, 0.5996152381769615, 0.6599458416403601, 0.21068622144481783, -0.7863041788050675, -1.0153369948099327, 0.2162135699060037, 2.10747890286741, 1.3795391266347823, -0.4062941652317001, -0.9769388385734474, -1.4725941373948355, -0.688807993820654, -0.24544786787655093, 1.3389707401312236, -0.3429705642525274, -0.08835918852378144, -0.28183397028419716, 0.5487599625873631, 0.45284017254860565, -1.2384466512718464, 0.10291560624568163, 0.7983143754915176, 1.2899967117589612, 0.8439426354392231, -0.25384716078786934, -0.6253264627003906, -1.4095494759851095, 1.186056087589331, -1.3541285822428142, -0.8703876934775543, -0.9276078495304051, 0.9405220167923397, 0.1586769838395654, 1.4210884405426718, -0.5296176123641583, -0.5600651517713452, 0.21358193600715403, 0.2436894624492007, 1.3119537943001205, 0.8572916495133842, -0.541604606091271, -0.6512140090244467, -1.392323134537457, -0.5652131880776705, 1.2270659368024, 1.3789523402973811, 0.7249735301378337, 0.29394089478542695, 0.6893387495249744, 0.04518186633324477, -1.9841669525377612, -0.6357228375633421, -1.5756568431906672, 0.006199522013115169, -0.238093636461981, 0.04752253141747295, 0.3657315624627926, 1.3431252060362655, -0.7304444926831699, -0.015836749629618015, -0.042985760610252235, 0.5206088710842834, -0.19786432022304892, 0.00503156629074307, 0.2838951698633484, -0.5130936452010652, -0.523593741715021, -0.5943438583702353, 1.171753018540527, 0.611093005907527, -0.9087675668092706, -0.1476416688785174, 0.7999684695177101, -0.7090442178081124, 0.10442049879411266, -1.6421993062396103, -1.8547803458833128, -0.5008385522082869, -0.09454336872283166, 0.5618190791152854, -0.9179016066731643, -1.0789699981323224, 1.030226895027259, 0.7312127967779778, -1.0274867641393213, -0.9664990785665742, -1.111848331439515, 1.4499471281929617, 0.450883593919882, 0.11044348350323548, 0.15739514812550412, -0.6497395250729444, -0.32710378203335094, -1.3020261998196987, 0.9071696358293586, -0.3259863705453202, -1.2463174785739672, -0.4410646369114668, 0.9195284050011339, 0.8760907887112156, 0.4122136399595993, -0.7380956199267286, -1.5937253231271757, 0.06007866361625698, 0.931042159807366, -0.676937069228478, -1.3523860357000808, 0.7075385711860608, 0.8434200160023603, 0.4607293061346803, 1.438145218161657, 0.28513642574770637, 0.04213312655254341, -1.0081587144673783, 0.7957625989113186, -0.2458971085506943, 0.31005089174479794, 0.5688010822478939, -1.1603514156681767, -0.6715770079255171, 1.1464081392870855, 1.2833126328088307, 0.061486867331701736, -0.09385090202030537, -0.2835817318998698, -1.1294138266640943, 0.02527682879671363, -0.4838052703460921, -1.4230852854101592, -1.0114068894039876, -0.4752474416258483, 0.12104892472629256, -0.6125869121041841, 1.677046239397487, -1.2435281349160197, 0.40883655498189636, -0.9395194118762722, 1.292554311074946, 1.1541226309213972, 1.2896902064177813, 0.8062560356613319, -0.8663615651716701, -0.0380375396898758, 0.5338227828175686, 0.6491433161004045, 0.3555496201469193, 0.9086505286493742, 0.16348854603272675, -0.4310524809902962, -0.7387630705734124, -0.5106151351560336, 0.6719852544212706, -0.9627821578210786, 0.3732648692107974, -0.3973828838912014, 1.1819014289138212, 0.6769591779676356, 0.2191829052095552, 1.8035566521692636, 0.17779586663490635, -2.04830902345429, -0.11491458264944455, -0.11145044820286841, 0.2019534616744373, 0.09462951778356057, -1.9596796243891634, -0.002832725231907832, -0.13491814048984732, -1.1837683116410997, 0.2430478665149571, 0.6485345788955518, -1.1914490179138981, -2.5876012447132184, 1.061014781047148, -0.9724175398376814, -0.4468462838444134, 1.2647151324514176, -0.15260836098299768, 0.49559319586746003, 0.1686385672889862, 2.0369211566944965, 0.3472859483426333, 2.722048569725884, 0.02491124905395929, -0.10784613007319258, 0.24760898077977786, -0.5009773171781704, -0.7147598004428507, 0.4363177385202459, -0.3122840483293735, -0.3273163959409003, -1.1860094488671458, 0.439303139673562, 0.639560315309223, -1.4412917693932117, -1.3595228273930904, 1.7531904845023922, -1.387968420958107, -0.9214410845144596, -0.7830732581751692, 0.8868867985957442, 1.099201245855909, -0.04362547890215966, 2.057273241542182, -0.733237529978546, 1.1781728984364488, -2.287991933278948, 0.061097271224576005, 0.14024781913583417, -0.10762182019821884, 0.7479947058523372, 2.546186664056581, -1.1892546357266733, -0.7798149755582993, -1.260088992781276, 0.4484045803346045, -1.0010035681447933, -1.0680024624276188, -0.7864125606400226, -0.013767457724933308, -0.27610185036931056, -0.7515410283887114, -1.2330462352829572, 1.652092941476216, -0.6577534981555655, -0.06760704675012799, 0.8719091911634467, 1.174270484652957, -0.10815678835333707, 0.3687198665143586, -0.2364109326957929, -0.06974316768494655, -0.46972669671290623, -0.4615400290884965, -0.3816879997680692, -1.7201718410348639, 0.9360473204697741, 0.2269677937833078, 0.8068864697295849, 0.5324422315184325, -2.356339793786477, -1.749569701203896, 0.8133978535201152, 0.5308837650904863, -0.22102584933382732, 0.169275018739731, -1.7657043577332325, 0.14280929211037496, 0.5537548470639605, 1.0429515942964767, 1.1041255502494227, 1.178051284849163, -0.1920669845632027, -0.31877538499854746, 0.5041011946875132, -0.5725007858793623, 0.9280146077517751, -0.008980690427044179, 0.43663381290875886, -1.0007863778109243, -0.46749690280278233, -0.07953352938589293, 0.228310778862397, -0.01718873045533837, -0.8296446408258767, -1.4017236052646056, 1.2839473867890303, 0.2958093171535536, 0.48508550776162435, 0.7417677479475562, -0.025058903144722564, 0.42834031853821236, -0.36742204798959816, -0.3360160545809125, 0.20784976001959984, 1.427866704573643, 1.0703427598157877, -0.13027384649621807, 0.6177371620014502, -0.841779295185383, 0.09242242238872102, -0.32159689608220104, 1.018001897868736, -1.1066127876315048, -0.7901902998914979, -1.114470262984538, 0.6502327878665064, 1.5335527134150366, 0.4477523223601097, 2.712873197835814, 0.25408028959791024, 1.2726038985121495, 0.3438339119682829, -0.1502835787821235, 0.07757256854285573, -0.24065900718859357, -0.07173270175289381, -0.20643356715323707, -0.49008463511218564, -0.8199212815824194, -1.8322733580003616, 0.598582182355357, 0.2623902687443558, -0.509551762660859, 0.05486143233256472, 0.5373582942062519, 0.7574537706259435, 1.2651685885299488, 0.4677716395058959, 1.1105473405785722, 0.5685077303600241, 0.38741596164984543, 0.5157205920133052, -1.7503697407123455, -0.002879825661359292, -0.5726845470650748, -0.7425348075163042, 0.2996494550084289, 0.20452139724265572, 1.247737646550604, -0.35239184426535747, 0.23366530058481044, 0.6130304506251921, 1.5962075862187064, -0.7838857462246556, 1.0630084152503088, 1.556225508906334, -1.7254297881864522, -0.12260038421020945, 0.6643029601129555, 0.6063511580064516, -1.8553909127883286, 0.07439783368573824, -1.05066055950615, -0.06213275657308419, 0.815165740090379, -0.03976316946512347, 0.9267526192883058, 2.0028687315561826, 1.590824181267754, -0.002045213240817001, 1.1433773074278617, 1.1214212679470632, -0.42011103917601106, 0.17357688572262936, -0.20497939538755247, 0.450786008333431, 0.11803426228775295, -0.4007016907482594, -0.5082904871045153, -1.2665232301603557, -0.42863238909743656, -0.1660685173169604, -0.4676997048284853, 0.007134779500715639, 0.7076244413855717, -1.7660794069510686, -0.46400508896586057, 0.6959955913154268, 0.4328032904431737, -2.080057530472553, -0.7116946781850352, 0.6733083633389976, -0.7663152613996916, -0.04934103991272155, -0.32205500281473864, 1.0326762409137031, 0.20160248663096728, 0.6527864942834034, 1.0291404112971954, -0.041849489815052474, -1.277001763258469, 0.3033398849109959, -0.8838311589081058, -0.6145094719715976, 0.8771331225788348, 1.5245507146201724, 0.8222152241253534, 1.7066172006337719, 0.8479480090774515, -0.2714748621264286, -0.3673762402675684, 0.05169177672146123, 1.1064444237076758, 0.18039583775891857, -0.12725037069324072, -0.11378755433951664, 0.5504283243934807, 0.9555763519201129, -0.23616158886702227, -1.6543021160384483, -0.7302746940587509, 0.0360405914760071, 0.8201621219966484, -1.1542091446542773, -0.5560483345432504, 0.9313991923135263, -1.4201156186866115, 0.3333446055882843, 1.5582666187613228, -0.7448745139890921, -0.03597205558683484, 1.621315303998446, 0.6534358312674793, 1.1277268189801497, 0.48964868963487435, -0.1637153481986481, -0.911932956555066, -1.2245875670665343, -1.0602087924745847, 0.2476536649484275, -0.369441138423018, 1.8087993896667924, -0.450698711734397, 1.0486054148216744, -0.36317932383636964, -0.49472380842142905, 0.6954158561695118, 0.8591639972921818, -0.5566741668002028, 1.1207836864229808, 0.5001888610758086, 0.198401871360392, 0.2110365279697046, 0.8991892688237888, -1.3325092951996755, -0.6649063657424739, 0.6384678543948163, -0.9136213749556382, 0.38858422007516136, 2.152680355734852, -0.6967080822728234, -1.3099479711796391, 0.6426962137466735, 0.06839226236738748, -1.3504004410948895, 0.803761264196798, 1.2526633095416633, -1.998399710875761, 1.6548878506386173, -0.7434623897241969, -1.0161347723835175, 1.8839184999419114, -1.066336038445524, 0.11786550905094477, 0.5559607535036596, 2.2207097601859758, -2.403782794822403, -0.7316458000324682, -0.4457120026647538, 1.0940192832157831, -0.027807276395191337, 1.7721846993990116, 0.6041041522325339, -0.0897305650013793, -0.9382205502423578, 0.2806963880002129, 1.4602186600065932, -0.5584808289602737, -0.07532486802906785, -0.12437527703861584, 0.5467090280100088, -1.293654894504784, -0.015957730954584286, -1.4557719650746674, 0.27819967815480684, 1.7035615721354862, -1.0950209984245234, -0.5669333560809214, 1.30058279922366, 0.15882396236925686, -0.20463731696462614, 1.0992682316512696, 0.08176394839605981, 0.43314687459777906, -0.20132376032188154, 2.094528755004514, 1.4936495923265372, -0.005968274712122701, -1.1214993399851891, 1.1915566312315535, -0.25313250197411813, 0.19667218800869707, -3.2535627954050206, -0.691419846255999, 0.35674163021820665, 0.7628524725573954, -0.5622640304426247, -0.08830224661743064, -0.643144447363955, -0.4484638005919242, 0.622425158907502, 0.7753557344750578, 0.4988850132998858, 0.38068214800897354, 0.03222119129864507, 0.818489122345225, -2.7643069775208677, -1.0807742063507162, -0.07989646716039758, 2.2844950782975797, 0.42864959789707513, -1.8228596919322968, 0.7746347394833302, 0.9488883433494321, -2.6640119863565195, 1.1770739986029497, 1.0808041034374916, 1.8364271668073102, 0.9263866470108079, -0.7851300680349662, 1.2518330115670937, 1.0658231773495672, -1.4721636214208387, -0.5189486412376031, -0.35263077026851036, -0.8460784301768615, -1.2795809149337822, -1.2951750809694988, 2.5688400574872556, -1.6925936470282594, -0.02356800026066253, -0.22314908548655826, -1.4357691378132722, 0.590641583260294, 0.4824922930252835, 1.369600051628205, -1.5913112341873021, -0.2030529749610765, -0.8643205136050768, 1.2195922088612288, -0.7797155088390599, -1.5631598718926656, -0.02506087591252569, -0.8741261880673215, -0.8469463132417178, -0.05819058562723358, 2.3170031339705015, 0.23196607625446308, 0.6784456764171394, -0.17766356753832466, -2.4330105082075844, 0.4260174693042105, -0.12497681853003234, 0.843399641537225, 0.6293618833948597, -0.20107539619852546, -0.7754425595906811, 0.156752349317887, -0.7018744695671036, -3.0793889157815824, 0.5554292715792815, 1.7192209105225011, 0.07320260026520384, -1.345111669384204, 0.07838378525273432, -0.7690090671152273, -1.8225674452904421, 0.9125532335216366, 0.10353406813684478, 0.3838900825407418, 0.2051254957525636, 2.259985339586163, 0.5903338866256295, 0.0955223377751239, -2.1025936248893364, 0.1371382912046435, -1.3377868419623238, 1.1749325808870534, -2.3071144065310842, 0.296773699971603, 0.27037417396388563, -1.564048075614872, -0.03748550443359715, -0.6436415330877495, 0.47500998201825156, 0.09960198076412424, -0.4559960249180928, 0.3673569939157566, -0.05984993213609729, 0.642805174617936, 0.6959874572072717, -0.366209709041897, -0.479021701673288, 0.7253225420860724, -1.8410926163475463, -0.6079854740890454, 0.813279062210112, -1.0695483748185726, -1.1871161408960003, 0.060920238222069045, 3.205402847254133, -0.7017535248227256, -0.7966718878020912, 0.6523707293984873, 1.0188829140794529, -0.1274198646723342, -0.021072107006929422, -0.0034980120233944496, 0.6714856682743532, 0.9933541338243163, 1.5495432722293703, -1.9790762964725852, 0.013106529710347408, 0.1040250055207006, 0.22179649052055414, 1.8615086426648275, -1.5151597921245064, 0.5336042431547307, 0.7392083601588795, 0.8463090353528855, 1.694989633446167, -0.5854513163749033, 0.8762253750999489, 0.25761449418161586, 1.0864008925416475, -1.0413654601016935, 1.5643771580628134, 1.0464011561435247, -0.820717243929455, 0.19633765021871658, 0.6278108923683722, -2.111843769438662, 0.8252415986455263, 0.08983739963396575, 0.12158562833083918, 1.4406221331265454, -1.8298844270016341, 0.492265666036673, -0.8703870183321679, -0.1178024638719814, 1.1983145082385722, -0.49656507015428836, -0.5113125727552441, 0.7044118922309929, 0.00277160588786301, -0.11581866429280264, 0.8085891812784874, -0.029072035057355856, 1.6380801070077966, 0.7532587458896689, -0.37562500382843617, 0.6065006680192735, 1.062143713869465, 0.33824103627012836, 0.7654179546917858, -0.7223857264918673, 1.110159453013885, 2.1047957884335418, 0.2648999101053287, 0.004893860277304635, 0.7793512896289284, 0.5898292774208572, -0.030600133451658323, -0.6923495373655069, 1.975823775869315, -0.288012786531801, 1.1674427932382674, -1.0140085370222727, -0.21603774389409347, 0.08008459742290257, -1.0226155278864872, 1.1860200499646412, 1.7434206742291398, 1.9600467491407492, -0.33058450542203077, -1.4224965602162525, 1.0703467000903524, 1.0071640616472475, -0.6554095416079623, -0.264559532673419, 0.08162920414328621, -0.4123431701227269, 0.969244337119806, -2.2209456363859217, 0.16339930030655053, -1.0466698037365754, 0.1689213240942818, 0.8778809879969545, -0.5094046806255519, -1.4723266570476277, 1.4862949798482714, 0.6363869074055487, -0.6586896889344606, 0.16972146155624895, 0.9634811959112786, 1.408964821938591, -1.9043088029403954, -0.9195410061287307, -0.962562557762303, 0.5048560823688362, -0.1310165085294498, -0.3582571814578675, 0.8242485634587992, 0.9890318697964964, -0.6186877587473364, -1.7131336979472946, 0.38928467148949436, 1.4579291990303966, 0.22030252076444698, -0.036061157518661985, -0.22319077354770628, -0.6386600683183474, 0.12417360299981264, -1.4633042867291803, 0.8078018222727951, -0.2640407238126765, 0.3802506514107048, 1.625253625512635, 0.24510157891778347, -1.4869803227695366, 0.8161406894384574, 1.036011622806515, 1.703140109063712, -0.8985328022721268, 0.03478587462011895, -1.0124120022807899, -0.4931651644843233, 1.3764260824660368, 0.4775679121700353, -1.8749451714660819, 0.17849265655837354, 1.9108510202195794, 0.5417931255228609, 0.06655577437973116, -0.3420209939645319, 0.0934494801211171, -0.9075993313882569, -0.307897992169401, -0.5070553891217027, -1.1221612565684633, 0.8698344099582319, 0.9585961896217189, -0.6116866752838892, 1.3085414790080403, -0.10932312784434031, -1.0562133891177923, -0.8998970983267892, 0.3046644093737621, -1.9306147960117552, -0.21281327561570407, 0.5189999252866152, 0.1280976469519881, -0.026831879754794143, 0.31308845580592665, 1.160703537795905, -0.660757492209457, -0.3492694604407733, -0.14642146262349873, -0.2706727736904707, 1.1623925425478445, -2.1068921934457303, 0.11379716734107376, -2.299098555995752, -0.38244946287232207, 0.3133307031225808, -0.28590539337489645, -0.6431920580541857, -0.563971422640979, -1.4969970806526476, -0.8317527572460796, 1.2682550184537495, 1.1961959118128924, -0.18068702747638482, -0.5386709925745263, -2.107875604580119, -1.4145584628194219, -0.42286430832084543, -2.06038929752482, 0.8875671061606113, 0.2810821144861015, -0.8842758672282931, -0.8006917056304692, -0.7293908039140442, 1.5957527630507027, 1.2080910047320983, 0.3171895000337964, 0.7274427083902882, -1.4743134263616025, 0.1981880889023872, 0.20683047172620986, -1.285521904393812, 0.7659659394700702, 0.9403028809347129, 0.6496873592982898, 0.11194640247682101, -0.5755439801749864, 0.8294045387112593, 1.017299448387402, 1.123977619160304, 0.42132609003489363, 2.4685768400224704, -1.6339319081220811, -0.15759415900108495, -1.5333289291716141, 0.5216919844465684, 1.1619290987172555, 0.2528796017382515, -0.8583068236090589, -1.4868342490706628, 0.9006294950080448, 0.9549723531918273, -0.6318267043273619, 0.3851544618879169, 1.135033831756817, 1.1357748226996485, -0.6231127368544864, -1.6435998969546777, 0.5164105320771241, 1.0486189905489716, -0.32012352877759276, 0.3318212974434484, 0.06639959534391522, -0.25279893061504544, -0.8595618874559757, 1.0646965011235863, -2.2500062663232208, -1.1652265346121025, 0.16222405071410712, -0.7149544743154305, -1.7324039507125355, -1.8115648211142423, 1.1155433148278078, -0.4435573300115211, 0.22236752880542898, 1.2170802404551395, 0.7138470843524333, -0.30332343800107436, -0.16824238839073127, 0.1390130215758258, -1.034257534765696, -0.5501796411321829, 0.17868197381714498, 0.5743874762103538, -0.8612987733778372, -0.6005110950635536, 0.010978483050946394, -0.7597005852939296, -2.450702386559827, -0.96287652295384, -1.37880144457, -0.02103037260048917, 1.0053984297230525, 0.16159552317917333, 0.35370106551012687, -0.20968281711556516, -1.3604497197873033, -0.8469486908974345, 1.305715957723089, -0.7935771310990125, 0.012020374036901902, 0.3888909694528837, 0.08386533719425401, 1.125126170387312, 0.23556458936253205, 0.39936809770451387, -1.810144508440118, -0.7354000852792407, -2.070866590436913, -0.17012398153298483, -0.5756185905157287, -0.16382091380543942, -1.1047747393247813, -1.111343418115116, 0.03019953750191109, 1.7640227704857365, -0.517663021697638, 0.47426170842115245, 1.9056467387993716], [1.836222568211667, -1.6727563666915666, -1.9160554248622546, 0.6384347438185914, -0.10590499278458414, -0.17017991003950977, 1.3800711005057438, -0.11051767901217821, 0.7226355045488609, 0.3735175551469244, 1.441102688052972, 0.776184398720728, -1.0524902138001613, 1.8498612802457282, 0.026802210937381228, -0.18871189519633358, -0.1479322973858943, 1.312393785829999, -0.03269966784046174, 0.8635279921622234, -0.7906473228934149, -0.6877120495936623, 0.09923677204687577, -1.1781916248844633, 1.5370584903737647, -0.05979453033584266, 0.005174854766017678, -0.516664268041933, -1.2609545925744374, -0.30298466477261854, -1.1863289429789108, 1.2027673028104626, -0.364615568128762, 1.1936086672170165, -0.027351328949159037, 0.46260307414826507, -0.22146873129729866, 1.1418026117959166, 2.3747608969246494, -0.4470112349032583, -0.5898523297883836, -0.18216304211941675, 0.31739003504603897, -0.6827642115112025, -0.15576399907801572, 0.16348454425296144, 0.7876984612677423, -0.19452607616858017, -0.28840601476296274, -0.6920565765429875, -0.37506568978096083, -0.00317880415255448, -0.8496949550813093, 1.2551095067497, -0.9322986095339434, -0.1415250503493533, 1.3170405984712377, 0.40349173353476514, 0.9606721817405707, -1.5020333056053752, 0.02213866215635558, -0.2420403087920019, 0.16011680636667194, 0.0309110291114095, 0.8400924288912811, -0.06305117310128908, 0.5015280712191408, -0.21632072717200368, 0.5201572833236914, -0.50072880911638, 1.162047120364227, 0.2692762433838003, 0.8096832016130475, 1.4883263051942748, -0.5847823863618457, 0.6988240551360045, -0.3552832369794283, 0.4165394707250362, 2.695618185840922, 0.01520794855049387, -0.09999471421525337, 1.672067262651495, -0.6330020216171932, 1.5213735119043585, 0.9331650226393825, -0.6046349502730501, 0.7883200801914164, 1.8350678885748832, -1.494714685621578, -0.14031715503353073, 1.1889887653581963, 0.1702369437629867, 1.0274548110245005, 1.6490706031696687, -1.0579986237430923, 0.6613445528977937, 0.428196833337497, 1.4128743281764378, -1.3595320069624115, -0.2440330198441599, -0.09197570378912558, -0.11321502933409786, 0.10828538340607093, 2.895933022800111, 0.028801775998832702, 0.8596763359225863, 1.8562842303403755, -0.8417634711327512, 0.8987284203862539, -0.014923262726349714, 1.1287368305902348, 0.07746064202332363, -1.6912181031968145, -0.7767544888614982, -0.9482343432833772, -0.6823325290439867, -0.45286347391634557, 0.7699037045800335, 0.6446206461541716, 0.7862539971772271, 0.028129372410467104, 1.5409809792812605, 0.9755295054852406, 0.1231989813580463, 0.554733876596479, 0.8941730066783039, 0.3148470586002208, 0.13109214092335233, 0.15822501926243634, 0.042652000138227966, -0.11752518122280307, -0.5733335410234327, -0.3214707463230118, 0.21983307369539964, -1.4955630732846936, -0.8550468740336327, -1.1654449680441048, 2.0535650762327404, 1.4024101085319995, -0.9588652920684845, -0.275905084796264, 0.5917609186246461, -1.7836118864543973, 0.3642561427632274, -0.8332152704432539, -0.029097565673073512, -0.04920296227974017, 1.365182174118519, 0.49399618005840645, -0.47677764206007633, -0.42856710155414546, 1.156009984651744, -0.7487428557886645, -1.1329068559200433, -0.17978017866026902, 1.2974440502651723, 0.1872380424387134, 1.2911738458981266, -0.5361202993636311, -0.062484188831527045, -0.3493232270200321, -1.2397122137574283, 0.3023544888561348, -1.3361835048800605, -0.19847577594797625, 1.3809150871302684, 1.6286233767104414, -1.369768993175839, -1.409085061930662, 1.2365823875225204, 0.05422953208099458, 0.8579185237827301, -1.398721180851369, -0.7598629032712182, 1.2109845842966978, -1.2153529371239633, -0.5416029022927132, -0.14284561023226935, -0.9000973975273865, -0.6556807149573523, 3.506962369119119, 0.5297334538352598, -0.40336560940544913, 0.6960536854293521, -0.33647617337260755, 1.180951869245041, -0.9643001778730037, 0.22110391693358025, -0.6270444173865982, -0.09649031109603493, -1.1673208207857104, 1.163576396360452, -0.034466008641382856, 0.4963364745542544, -0.6944323379299957, -2.247101089515742, 1.3416150213632672, 0.08568564254274215, 0.9186727983894702, 1.9652864253860407, 0.11969317429520478, 1.3046844758935, -0.57450312329615, 0.581656216892584, -0.38363286419764836, 1.4560696080038982, -0.8318495901590506, 0.4141059370993429, 1.354464766651563, 0.25919255988685713, -0.3765340529531874, 1.1761536475945722, 1.0915790819489293, 1.097143557670167, -0.7172912384807186, 1.2788707024468762, -0.38066853756112934, -0.9816124292237349, 2.0102054062740167, -2.0958601279720064, 0.148308623238797, -0.0875247251247304, -0.6517953477208868, -1.1287828999177536, 0.34982091048186187, 0.23760578141212446, 0.5473289295277552, -0.43126277306429933, 1.8454322940662382, -1.754502750988156, 1.0871575057014604, 0.21822034247076594, 0.36816503445452536, 0.0033461071273136367, -1.0469354811080813, -0.7880355881574093, -0.7252056313409015, 0.02077894943986626, -0.21443949826476902, 0.6384602604494969, 0.4898544610758532, -0.09267802299144473, 3.4276771184031483, 0.5735272427254315, 1.5929978870965589, -0.5923475779188081, -0.23764456432073713, -1.964709004908121, -0.06387102630420188, -0.41099426764581426, 0.47038119137304546, -0.025576911302710687, 0.43596771265860684, 0.21654513083698337, -0.6327654651827728, 0.06973084276364915, -0.33319635292504196, -0.3930205772913435, -1.416218546699682, -0.283338209287083, -0.3673287919740993, -0.19780971237429018, -0.8523227783050115, -0.5884372210093194, 1.7465091256342977, -0.1129312657596206, -0.6211334039668367, -0.942133305797441, 0.5810711561898655, -0.5838519906558542, -0.4707281942332588, 1.608674287029013, -0.4144360120429779, -0.44675506221899386, 0.2800001035131917, -0.39962035460564005, -0.007687696004946419, -1.3260512634856876, -1.6453381572263417, -1.8419376766165814, -0.7204907186831221, 0.36841361709370113, -0.15917175149145157, 0.13702918767424627, 0.021529564182553952, 1.4279011863466546, 0.2501216032425445, 0.6457948141398372, -0.37970442279969646, 0.8977829960779158, 0.30013543651347685, -1.21297000373292, -0.8304466159039098, 0.35320885299456006, 0.7170667344109762, 0.8853508026388045, -0.11451543330396599, 0.4570311096839702, -0.7795961011301943, 0.41075532208680465, 1.6958314510470098, 0.569153347573327, 0.6311155140701903, -0.3220016014589478, -1.4735384145341623, -1.4342776951456884, 0.032332822257766985, -0.9752911538291461, 0.6014637050458779, -1.3164902326115049, 1.4274654057965823, -1.4756607488067317, 0.9597757988600923, -0.4156297134680604, 0.40880827392079094, 1.0419647140935153, -1.0937197038637452, 0.6112388863919093, -2.0069566104775887, 0.9210935959791288, 1.058557030922608, -0.6629081072085354, -1.0139691662941992, -0.3059290947084681, 0.10391201167415726, 0.8567614894542188, -1.7243363464988624, -0.19288964762717448, -1.1001721345086242, 0.42871062785211045, -0.3944804041402814, 0.8954514091090492, 1.1215934812119472, -1.1384965994144964, -0.3198686362971398, 1.0849717335787568, 0.01602185360905457, 0.08946050053303155, 0.777090665820032, 1.273317392244475, 0.724683982586002, 0.08819732418402737, -1.7585338436786846, 1.5715374322318947, -0.05456522131406667, -0.7355286992626945, 0.033210800786574554, -0.12200743299108385, 0.3172357984484174, 1.0078984553386903, 1.462439292602206, 0.23803340283300958, 0.21132159281065735, 0.45669477440629286, -0.4552334672045078, -0.7397400089472336, 0.8963558968086487, -0.3773679699115265, -0.6513182181765357, 1.0495583864814582, 1.316404054378213, -1.5810714736163531, -1.2232278814294404, 0.4355962187727553, 0.8729970115994591, -0.0395849576224684, -1.7526885552104692, 0.0243837941127637, 0.05445080988137009, 0.14067896059531895, 0.33153954941325736, -1.6219524178114133, 0.2333693856194001, -0.6298684827590817, 0.36931114986526553, 1.4953394191955205, 0.11560914935051429, 0.35579623088241125, 1.4493141592339078, 2.007472310214424, -0.05846582695451299, -0.35519689390185605, -1.4483585980128968, 0.01647099868822979, 0.9495796495841, -0.21255657517456827, -0.586147637792672, 1.2881162846194834, -0.8362498057472306, -2.3622718975369077, 0.6190142763609914, 1.538892304172016, 0.6790784044611954, 1.0755660491718713, 0.3286820013844268, -1.1282498784249049, 1.119367369601356, -1.1788949006358165, 0.45309222247731196, 2.052559253910403, 1.4520460737545566, -0.3070041403306781, 1.7149184936116577, 0.036238725716773744, 0.47803859890451, 0.12189890974854534, -0.594113848687932, -0.6452857503246715, -1.1040506409473718, 1.7308792445783814, 0.9408413312093276, 0.46365187726448626, -0.9596740017403013, -0.26977832494494225, -0.7846516991884335, 0.1943831824312493, 0.38343088525108077, 0.9301112038684041, -0.8462927969608782, -0.8249780162725748, 0.3715807195521985, -0.2690867007237408, -0.44180031843177237, -0.7081393106087345, 0.8020666658518381, -1.1067937383742583, 0.9239599872978799, -0.05851251316236831, 0.4151592922432305, 0.04585510669119681, -1.137468429216879, 0.4622124374957988, -1.140851586428868, -0.40048705461367246, 1.4437753592441118, -1.407100634081058, 1.037463371245159, -0.7839168597257582, -0.13706626376684333, -0.7093360421977939, -2.089599885644166, 0.8047763675917774, -2.5816521579635596, -0.8725108633693105, -2.7203167460179527, 0.5480101080496866, 0.36566535230466046, -0.2100768646557092, 1.8219878254103303, 0.6422866732881111, 2.520491818113962, 0.16112663263777208, -0.6265115083078037, 0.46939907184312585, -0.27878787929194077, 0.7099248987023024, 1.0856649213312133, -1.2710959588422748, 2.1146085716697405, -0.055641204294197, -0.36479370239790526, 0.7687265242775015, 0.5914500580751846, 1.3877519353706664, -0.9336666136480855, -0.7522870863109279, 0.9882651546660841, -0.1753567846185331, 0.09909289824617158, 0.013491398755750294, -1.4229803611958118, -0.27657772894265126, -0.5392444988249856, 1.1100277083304002, -0.44834712916491365, -1.7462494609981503, -1.964666987939167, 0.5634556981331198, -1.3863498271489512, 0.278586032123822, -0.14222710857641732, -0.0010142990215708221, 0.77210728187707, 0.39801742265141477, 0.40245594975605403, 1.8102331603560244, -1.834554405748692, -1.8746780584492302, 1.3292401007652785, 0.3765002880507692, -1.6536543850257353, 1.36615073140049, -0.9493691577841527, -0.6463314508769006, -1.776191239411032, -0.6005278278550039, 1.1345998529507013, 0.2878394322121448, 0.5238115639255139, -0.22747123747988396, -0.8330555791961907, 2.457468318584617, -0.986837237790055, -0.3520673034366949, -0.5773835072383797, -0.6527112989092921, 0.7790128551270151, 0.3384498233787928, 1.1516241943806513, -0.5373153598098748, 0.7570538335738405, 0.638027305147764, 1.1276309111187024, 0.5841286789100509, 0.2912319560137076, 1.1556119638464697, -0.47241454394151866, -0.2100530652146716, 0.0067060450772460905, 0.44381157175919267, 1.6352300512914821, 1.4490374154162913, -0.5068282432420891, 0.058267314792950255, -1.8374056701325971, -1.3809514004008976, -1.8344773950145241, -1.235082030957386, -0.668948492689543, 0.5201355246543693, 0.8653020971469493, -1.2390806044137475, 0.6455214114025121, 0.8614966693782478, 0.3300189066155325, -0.7287230603975318, -0.584484830484503, -0.987397253386181, -0.8554313050771634, -0.7937431195672346, 1.3957243773564691, -0.708126038020441, 0.24844657580876867, -2.0421690903651473, -0.03962643954795238, -0.14821673961118298, -1.1697627620798237, -1.659195375951847, 1.747266946955213, 0.6914707241585631, -1.6281592314795184, 1.3978286869873946, -0.06508877447776515, -0.5381112903797471, 0.7639225219850299, 1.7436186916984269, 0.6609670957277277, -1.2402327203770114, 1.9224753969632906, -0.9107319108423466, -0.9497689625269432, 0.49901430678906644, -0.8956053556737316, -0.5938598398344868, 0.8953990630391171, 0.18433724273726546, 0.08149323829314746, -1.4608190137832915, 0.8951166913649575, 0.01603021028895187, 1.9688398932087092, -1.1960492880205689, 0.8857412742453097, 1.2171755590931013, -0.26298067705871403, -0.2992188403802069, -0.007417461728783702, 0.49949601899901325, -0.285354506189814, -0.1704062698727148, -0.3457100373238306, -0.684580801694319, 1.4810883248997435, 0.03250670442860125, -0.512114367397856, 0.32144788146449527, 0.37652680638733915, 1.4030052856544717, -0.9206729163415982, 1.1557939491942657, -0.29917490632539434, 1.3034527027246907, -0.3017632169842437, 1.1880750602331507, -0.9680660559366525, 0.3596641186026051, -0.43336413576993216, 0.5404932508144205, -1.7108914423904402, 0.148752626656593, -1.2363322417269615, -0.49953436834666687, -0.05941064282269718, -1.126649014831784, -1.1993455554380574, -1.396793527705832, 2.357651638537367, -0.5555001987105963, 0.25313878829217257, -0.5511089574433329, 2.288386906473532, 0.21659058131569636, -1.1460189141949149, 0.0035569039183793033, 0.8882784287336584, 0.21534743534854053, 0.20730771202669807, -0.028234246808661292, -1.294301959769955, -0.27125840394099987, 1.1716659152408102, 0.7713352703773799, -0.94482177960583, -0.40177542810152517, 0.7676361918952564, -1.029334114414855, 1.4102486204553901, 0.7300937960591519, 1.136185624692873, 0.6980891541037284, -1.212023797088268, 0.83174068751592, 0.3563853294512525, -1.6559755981314532, -0.17181507705379967, 1.5486303817634135, -0.4047194690924446, 0.9411039103497011, -0.6983961636634298, -1.2938941718274473, 0.35132018056128095, 0.3277635976952774, -1.0755704678296847, 0.3220370203195704, 0.15776638711651475, -1.040486421694804, 0.2578823942590272, 0.598653976910478, 0.4753931998154062, -0.31036471023995793, 2.3041290442745743, 0.6164616958375783, -0.27398920301130536, 0.833527868176513, -0.1453355021367222, -1.7033857582706118, 1.2511530532814634, 0.5727777266823822, 0.43527833990150167, 2.335241310226946, -1.748758708272652, 2.228917477260133, -0.2509189281912121, 0.9475554802634166, 0.418770167469909, -1.099672315962191, -0.580123859728381, 0.3971747891935389, 0.9686608079399813, -0.5831189369747518, 0.8597349806220674, 0.3283080907870632, -0.7991731473480954, -0.8889867987674893, -1.2384033059988633, 0.22236385357405777, -0.9906487632050618, 0.133668801950352, 0.23727500651468897, -0.42586424096899783, 1.884014668140974, -0.24018957610216257, 1.4294311157839104, 0.0509313739210437, 0.19167137970393314, 1.7597944122532478, -1.902731981211968, -0.05901409920689109, 0.3807031297622831, 0.169088003822087, -0.582404625936766, -0.5499219868581756, 0.5781718128998136, 1.3785776027691221, -2.3452986637483333, -0.5040606419292679, 0.10517952628511144, -0.9195509611165231, -1.0504964573468556, -0.11713978220471741, 0.16413729090491347, -1.0428449562712132, -1.0100754676243038, -0.8210144434320532, 0.6397401078385487, 0.7281228917810473, 0.6539404135649654, 0.5155514849940249, 0.9591028668247327, 0.4965384181069407, 0.6218347987479267, -0.9142573185143886, -0.28740942646683143, 0.49292050637121276, -1.314475824664345, -0.08373124578135674, 1.6896502597519227, 1.0304240764929418, 1.7748384774940948, -0.9723994622855913, -1.671873588127048, -0.16060950007655847, -0.1898669177292312, -0.46040236371380716, 0.8446861414959655, 0.8842632976959773, 1.5865595275090087, 1.4135856561291935, 0.6440883086563466, -0.8818144117040345, -1.9067522753123998, 0.025834882049356557, -1.1088668624819253, -1.4063691016274364, 0.7445756354242324, -0.11672493003421157, 0.7266603066501054, 1.3848280941275115, -1.0114896263243625, -2.3952205114926683, -1.3248094885202317, 0.6570894149526489, -0.04736553158550341, 0.03464742000875995, -0.27466690794598947, 0.4804112645503479, -0.5648269105116105, -0.27848894401313923, -1.1891492718692998, 0.9289185374467213, 0.45165828043319256, 1.429213386011164, -0.1534484079806092, -0.4264926021038955, 0.35424346881346025, -0.31407724248045144, 0.430193225602301, -0.6028652646812329, -1.7032567259729616, 1.1252559815873415, 0.9967355274310015, -0.38409887479276034, -0.6231972066518284, 0.3720323116515662, 0.34235961220492955, 2.1709917960741656, 0.30342191411817054, 0.9058937097705353, -1.5459940545843291, 0.5938815067203997, -0.37967918296900927, 0.4222691999017825, -0.9211032101708757, 0.9740801896731436, -0.8416551516794905, 1.3960750663761565, -2.379950189752814, -1.562013655509056, -0.10310991955383528, 0.3140361946813362, 0.0978325138531834, -0.3126519256996261, 0.25880625734051854, 0.09329465036704576, -0.39341784746264113, -0.5744242180994682, -0.2243779965461099, -2.014773708725933, 1.6921815362122876, 1.208030493607742, 2.1978973818952956, 1.8203391896287473, -1.7220017690600438, -1.2207626724717846, -0.2341107224319816, -0.40528944148373536, 0.20626536267274173, 0.6259448317519141, -0.948701025338962, -0.5404889072173362, -0.7251508649542511, 1.0605870053561788, 0.7481913968783772, -0.30118747834380266, 1.2803934808778243, -0.34115427151659056, -1.1589921246757076, -1.4804445547266614, -0.6527848475874555, 0.7610979923921667, -0.14876719253801032, 0.4689101468288332, -0.21974970159243087, 0.28655087503179205, 0.566940290844242, -0.059916578503239615, 1.1814499592559617, -0.9496568869653226, -0.2564566442623233, -0.967947786019856, -1.019852937924251, 1.5962144769171016, 1.1863034509446733, 0.4022273368839863, 0.43336697910697936, -0.3422837333155874, -0.7606914300777143, -0.47501805672982345, -0.1684355808517984, -0.9685237798951469, 1.130809851442321, 0.3143393597058438, 0.8410331682209472, 0.1278002482931889, -0.14209194121574098, 0.05850640311839667, -0.13157370290514514, -1.7303113095952476, -0.5944278224943945, -1.129312147553732, -1.5530104465071586, 0.6575949001143688, -0.9171927275081984, 1.1332936141748458, 2.205443646877674, 1.580698355444907, -1.3496633417734925, -0.8425693067984458, 0.607347094283608, 0.31576337510156177, 0.36458908239395227, 0.38756001911989835, -0.5034562762002496, -0.5779374189543286, 0.7353231261263077, -0.1702497822995247, -0.9571061055368556, -1.060545891279743, -0.2906993324995649, -0.41292701251188363, 1.1004006634699042, 1.2015885235940584, 1.1766601725053674, 0.4451153144628395, -0.8025237477525368, 0.39501926760421974, 0.17541276388821925, 0.040066507727388276, -1.3314649994849128, -0.6053803918724685, 1.5660134589679695, -0.4975568564071111, 0.8308860973721519, -0.9503841623337276, 2.8818027973565385, 1.3979735368890918, 0.9917546180852986, 0.1539434828165792, 0.6797612009651092, -1.875894363765484, 0.15595561277588632, -0.963780431055832, -0.18199764928401838, 0.891010705583835, -0.09631631060378194, -1.2953740495342707, -1.9040160606729397, 0.35789963833904764, -1.5305892314590717, 1.221142353606083, 1.2943587982513114, -0.4716725619728609, -0.006925028213384376, -0.5134655624218994, -0.2522526749913192, -0.8584135825860192, -0.7181738937680294, 0.8740011073704469, 3.1020083841755195, 0.11451422227328249, -0.44736746319440807, 0.3288716084162753, -0.8401388736116916, -1.4417161089700403, -0.06622948906043562, 0.8322182759884252, -0.06402973797484626, 0.08923875958865718, 0.7291706506837858, 1.628921045076894, 1.0291113050541494, 0.22667028652467125, -0.4270119329984216, 0.20595632344726256, -0.19388652816459334, 0.46714533412633, -0.1728097342262724, -0.9365739967159321, -0.35949409698638896, 1.0090924050466854, -0.5908559401035313, -0.5712704795712186, -1.262617531194833, -1.3742065177663747, -0.6309553935414832, 0.8028600853478831, 0.21058845541664695, 0.0813326201736697, -0.6963753981757483, 0.06099490762514329, 0.45514098953515386, -0.9528218178115092, 0.354561208613541, -0.9017606314166038, -0.02164106901929916, -1.3204542866481486, 0.5330805919566698, 0.07260638246481997, 0.4748076902131561, -1.8569625307960969, 0.6922222098729403, 0.5638704920232327, 0.3595014358457577, 0.055319068560528456, 1.424748057864234, 0.2532782324034654, -0.0006766071456476426, -0.0037394211943790356, -0.860318083881077, -1.3176022240865568, -0.3274075322308668, -2.203593825414269, 1.3590407697743707, -0.08578697162990682, 0.008587711171163468, -0.44952062943209814, 1.235807668819832, 0.30136581833433457, 0.5688680056078024, 0.5534659520407728, 0.748564202530958, -1.0301321430188954, 1.0146859746699397, 1.0154555647188408, -1.8605091839135801, 0.21751671003398582, -0.308876551603403, 1.554457134847803, -1.1882008940455697, 0.760893826566975, 0.9660143797614354, -0.6007349112393987, -0.1379955339401781, 0.2828651851792363, -0.931222447749634, -0.32318113249925284, 0.9286403094039302, -0.9492230311643238, 0.9537063691324525, 0.2806599064491696, 0.5258392862715177, -1.3783777205205152, -1.076389758209683, -1.3554439622180776, -1.1427592019664081, -1.1561180167395784, 0.377816196200439, 0.24133551738453754, -1.495361168559841, 0.6302898139168911, -0.2964416732860061, 0.5231695844307117, -0.8023021436729633, -1.7667297996876834, 0.7444902569161346, -0.6842508722336728, -1.9654539105046651, 0.23567969294116764, 0.2124367389384264, 1.8489113369697978, 0.9999117567762059, -1.0720052026381943, 0.9592234776239863, -0.6601973448945966, -0.4835796837634211, -0.4556144189812866, -1.7344427137093192, -0.6329702649941944, 0.15663914784797475, 0.8619283920861, 0.3685970782393712, -1.260768446812224, 1.6662584165884722, -0.5424117803570659, -0.004483714796375342, -0.6881414458788225, 0.8205161242168435, 1.4171857750973726, -1.4197649498280638, -0.2921349026192615, -0.2808058023983271, -1.1656478375208161, 1.1741286436775082, -0.9747461272801209, 1.2367404025986501, -0.7518206767638485, 0.5885283191875228, -0.11102974651142687, -0.15914581980491904, -1.2868645757025194, -0.40195345499798457, 0.841197728124052, 0.34372558170913886, 1.5784283923882123, -0.6735772476137608, 0.16825521098558152, 0.911850741080957, 0.039682777435927394, 0.7601935176850704, -0.2423098124847433, -1.2082629749896858, -0.080129002077305, 0.2920739514960879, 1.3198957266831084, 0.6252321076826122, -1.5523720499681448, -0.5493832411261267, -1.1027084423443276, -0.0234741491244019, 0.877800709062366, -0.2084381382472055, 0.3725747263531722, -1.5380446462574366, 0.9683043764630582, -2.2771999236546243, 1.9500967419813346, -0.9586422350480276, 0.14632292962639148, 0.8131619772318659, 1.6235948268326597, -0.4237532875090855, -1.4483211988876914, 0.6661533491376803, -0.4200321961666688, -0.022790239541070585, -0.03204093536271435, 0.41460869224052066, -1.1015240010596903, 0.19243299826233656, -1.7824214241275043, -0.5363329385209631, -0.8952583740424902, -0.08618223572452403, -1.025840244389135, 0.41805072720439174, -1.6577583564443046, -0.448125820337643, -1.5324550550423128, -0.3027940850406646, -0.7574093988993357, -0.23977214751385553, 0.6148426550998325, 2.4491131257059293, -0.6013685273430621, -1.6537812264223872, -0.07397987961698724, 1.508999194377657, 1.6146276087018518, 0.6627608130941467, 0.10295486427912333, -0.09623798111089973, 0.8807250103735127, 1.9929469563398263, 0.8450013612553955, -0.8031412138411306, 1.1807203583147932, -0.6511819784713557, 0.6048836482623886, 0.10006431757419756, -0.0261280851112251, 0.5426567212071034, -0.17148355198910614, -0.19698508169556242, -1.8961122173073344, 1.2411731387766394, -0.5065314761791072, -1.7179487978278916, 0.04193601417753283, 0.162755534152781, -0.37205275234799723, 0.9051853639317959, -1.0174738599918218, 0.4904643624236207, 0.4451891506520202, 1.744631932563013, 2.284481559651439, 0.902658811247724, -0.5700330682527195, 0.19458005635701073, 1.7128522715472925, -0.6721429208391209, -0.6110704737097143, -0.39009803092439854, -1.4311016426337233, 1.8440496894741807, 0.37045446803075277, -0.4443001949894579, 0.6862303255884828, -0.36626462801344073, -1.233399208771376, -0.42100831363889885, 2.1022704254202926, -1.6106704948209651, -0.326986775161051, -0.2555079128514518, 1.0519166009872616, -0.1889898539263038, 1.9635931689463968, 0.22654305612035297, -0.757380710333554, 0.5556087252221549, -0.1371647230893461, -1.0115045856186848, 0.009278436536625047, 2.3867905897739994, 1.553150521928622, 0.8885104173655662, -0.35444844662296565, 1.6911049576933819, 0.42011998937768535, -1.0453708610901904, 1.3476700816015343, -0.1850718297545885, 1.1911974439624362, 0.05937795671430224, -2.372790128328427, 0.3335345603096347, -0.7805883665997831, 0.41766801279002436, 0.9025181573006525, 1.19413159826282, -0.1499862496297668, -0.5658403208275714, 0.9847056912320659, 0.16744493532680113, 0.4799379542436951, -0.8843069757913583, -1.1331385340376485, 1.0371352911754195, 2.187496141948041, -0.9001088595824281, 1.7094814029136096, 1.0125967527666568, 1.4423926694653346, 0.11661016458583451, -0.2387641218838722, 1.7055235069084032, 0.06623513392259, -1.2095816961879355, 0.2522897213697035, 0.8851838996622671, -1.2648434112113076, 3.0520338781294525, 0.913011199173273, -0.7586431706407368, -1.6636882111842948, -0.0341075716003364, 0.05568821888189276, -0.22942192255251823, 0.23853580902886015, 1.9796812185195118, 0.021849800311135613, 1.382518638352158, -0.651217716869689, -0.31908780522540203, -0.17720184940533543, -0.4033900001135343, 0.3918960655116001, -0.8703369377326577, -0.8316779275951682, -0.234193654652063, -1.9138842783935732, -0.7690154403744505, -0.07515137822169594, -1.1389769899942748, -2.1153101307785116, 2.2923691313073347, -1.040981141146237, 0.6185527640641874, 0.2850618691610446, 0.14903536465165498, -1.0366346156011519, 1.0134766171801137, -1.1748925234631393, 0.44740374899408103, 0.14067632104342856, -0.3064361642418489, -1.1034381042475965, -0.9221596826384001, -0.3250970467546372, -1.0009999769195803, 0.3250344270725, -0.8261262769045021, 0.006335840172735041, 0.2865643318435617, 0.19303621253749934, -0.25165960042667523, -1.2440456316386643, 0.009480017269611, -0.06044141955513135, -0.11175211070443342, 0.005133212037851784, -0.6081395677689748, 1.9957501354879967, -0.1680560360179012, 0.0352622647936776, -0.7050403047319111, 1.7088145280877152, -0.9594579675438076, -0.8949522302181955, -0.11492550385066916, 1.3008679375566559, -0.0826646558843854, -0.5985177304509751, -1.2255637141493212, -0.006834837999998951, 0.7696939872325563, -1.279060786492757, 0.05282213963353112, -1.123592645929022, -1.5918612959577758, 0.4151534323138398, -0.9785273878067644, 1.8005465770142524, 1.7929035511582105, -0.3151383869759256, -0.16223104985144676, 0.8436610588790237, -0.7595507710045236, 1.1207404441337987, -0.4159110676952483, -0.09996806197937798, -1.2049515407239144, 0.04700571172777237, 0.08455108829121352, 1.0311543012245046, 1.2751192316965347, 0.8964853342903893, -2.271038263248427, -0.6913645878716447, -0.18963193543797818, -0.7390392123327313, 0.19385390964589183, -1.5270068405613837, -0.32473093749480303, -1.3869949189794653, -1.5568783309398015, -1.0742857525869847, -0.38210148852846865, -0.011882548908156494, 0.3547129635417645, 0.6877014792705793, 0.480401902221337, -0.014074229101866603, 0.5675736883694479, -0.06400655399515788, 1.0564612629345702, 0.45593515239955923, 0.24948408191550248, -0.08583482007885875, -0.33925199969951586, -0.0049886707940548025, 0.5513182128139426, -0.2750809620721342, -0.9220250948139351, 0.8073432255792191, -0.7177094300908597, -0.2667786710004477, -0.029877736641474136, -2.7093676341659094, 1.4353092042707265, 0.1795389214463243, -0.34150075599646906, 0.5122161606856521, 0.1423370782934442, 0.33072211959251435, 0.5657719637032592, -0.23484040072185047, -0.4305844769070828, 0.10710538929425395, 0.20345864476446143, -0.6165307452644648, 2.3148335205983352, -0.48663372152092166, 1.6124055130105257, 0.6145136523208181, 1.4174935249427156, 0.1548865476804266, 0.7617924722093959, 1.0927506608597426, 0.6691279456417049, 1.022795617754109, 0.5244432251767841, 2.4004192635421755, 0.6478399943919597, 0.42695682332366214, 0.028035598667479077, 0.6692880665224137, -0.7840297321545988, 0.24100367411739032, 1.4517111051126381, 0.3652177461568117, 0.13826285707046473, -0.594118394220013, 0.816179635738761, 0.39471701429502853, -0.7665907446823601, -0.21854781868643414, -1.1958610160443235, 0.6622661494116211, -0.1722673281667991, -0.9604841696249917, -0.90742893879107, 0.8672934746378494, 0.530461846232065, -1.0171963948639215, 0.7225972768824892, -1.2374128001162887, -1.3730859716236021, -0.9168755681248267, -0.5608084310484223, -0.33166224866099253, 2.1757031773843187, -0.9644603505383544, 1.8035807375498871, -0.9309153425118664, 1.1591280932119754, -1.6822712305385523, 0.8471106663254013, 1.5443353639795565, -1.1677014176108056, -0.06463140682664589, 0.4872872590305107, -1.534981986893835, -0.18260818032648862, -0.41632919670907714, 1.4821477365157099, 0.11462819078235732, -0.4749737253914604, 0.5604325529399109, 2.1708872108450237, 1.1443718685344184, 0.3672708089046737, -0.6221980775908306, -0.4244369109199456, 1.1552709982535023, 1.3121737754118947, 0.5932743305114564, -1.774662512993636, 0.9186726411498173, 0.152409618536488, 0.7153888246101057, 0.24631007424415033, 1.1348322765433756, -3.394722685628673, -0.767584906788059, -0.7991023522334548, -2.72976104316431, 1.5080639737685728, -0.08137759625359256, 0.05528220187897344, -0.38176850220082126, 0.21897166832161497, 0.9930933922445296, 0.26454162520038654, -0.434706692832872, 1.0676124181034021, 0.4460167981920946, -0.7462195137300972, -0.5900932719527036, -0.042561131930591765, -1.511476778945908, -1.138677040265642, 0.12036434742697512, -2.783588860093493, -0.9845083371487604, -1.0617391213180023, -0.7022983183612835, 0.906641008794347, 1.0718147792950565, 0.3717186870158481, 0.6437779674367382, 1.0990247371411612, -0.40471671415683375, 1.854848225222608, 0.16727870789597216, 0.32984197664882514, 0.49843762068469194, -2.0656653585081144, 0.6200612550853882, -1.1401500076303752, -0.8701511306951952, 1.7184273894394686, 1.3654659970420964, -0.31415162430833327, 0.4581470754091438, -0.3055913095096743, -0.2245586582625943, -0.04416679606921254, 0.2520543599505382, -0.6162978466058078, -1.270635732485342, -1.702062065127875, -0.31979633303736316, 0.7345895479604018, 0.8703344065809563, -0.10354992978022695, -0.12673493694709023, 0.10038229491314027, -1.0812756954718394, -0.23318685618340262, -0.38203477106953715, 0.33231229342613683, -1.286610568826509, -0.9713844184592417, -0.4928245254877192, 0.662971916181068, 0.28093904309615864, 0.18883846264396895, -0.29519790814521313, 0.08087461149057991, 0.9390681154281221, 0.3099242082105451, 1.0753434337428953, 0.5427756300325697, 1.6600210006164144, -2.68912782783965, -0.6369469712113334, 0.34094803595876527, 1.027138164580315, -0.21115222779135528, -0.38092104143503436, -0.3498191633837649, -0.3077258302264255, 0.5474779333625436, 0.7471983741067298, -0.5698975801078625, -1.2619864067278332, 1.1516458048304639, 0.09196335321784471, -0.9571987577995139, -1.0865219951610574, 0.38082366908092513, -2.006085767262508, -0.35576631279672094, -1.6246593955304935, -0.686414157889231, -0.17849649364836975, 1.019201568740645, 0.11329213931868622, 0.9314445159567731, 0.586660762660891, 1.2247917768589565, 0.15924041953215023, 1.4433216508233155, 0.1719455056031738, -1.1313180412377157, -0.5124792142718549, 1.2051731488258683, 0.8617652410421947, 0.27180940349391597, -0.5113802016593986, -1.6196497017608824, 0.4484208636579709, -0.23067392243470183, -0.8034267873414535, -1.0865355392134293, -0.10801173051567937, 0.15734363939068785, -0.47076171590348254, 0.5569322506323102, -0.3899603022392944, -0.6087931116014211, 0.08135273455939977, 0.1766797418078354, 0.10977198883787984, -1.056122666044713, 0.7595650344363251, 1.4815759696325614, -1.422328429860495, 0.17927572858858504, -1.9809756264782645, -0.9457669094491454, -0.28986556418870424, 0.6330218549757449, 1.1191513895669674, -0.5481326907523847, -1.065455594192572, 0.1529423361823932, -0.20904967413942238, -1.1220124994374343, 0.23326469886551537, -0.8493409074210906, -0.8979431654017694, -0.5002506532999225, -0.47591639751707154, 1.3008341036652777, 0.8974943979875462, 0.04935549600532187, -0.02988101031644477, 0.36568159390792326, 0.557387610052888, -0.526216036360496, -2.269796919821662, -0.4777387523143411, -0.5994178060450683, 0.073607420058818, -0.34593062296786503, 0.6451028232215014, -0.0847019402311177, -1.2110675487556202, 1.107884438277017, -0.667828397721929, -0.9642424418363602, 0.8342316536375748, -0.418403279166527, 0.735520143564976, 0.061169655454221324, 0.8690493458801163, 2.042994199528089, 0.6570365905777491, -1.1844318237860398, -0.3141132772289931, 0.638501209162286, -0.7639206914710579, 1.192181728739414, 0.9937510625216769, 0.6740472787348253, 0.08780712903971674, -0.4045012799683175, 0.14043125166930975, -0.041381033363641496, 0.7745543861876689, -0.84434368159836, 0.3718443293385891, -1.3694245487227696, 0.8092714230012478, -2.0057896230259136, 0.6892287553548321, 0.501012004351305, -1.1032226594533117, 0.6290561343870006, 0.7613706736589373, 0.4724149822963308, -1.3524239506730857, 0.10126044404395851, 0.09210119102012354, -1.7232217225486062, 0.20605748922567313, 0.911992189171586, -0.14385714455545057, 0.28989278624895876, 0.10164682563240524, -0.23126676777847777, 0.06886720120122533, 0.9428347630370693, 1.2316680619346352, -0.5966555012648168, 1.0426669499543837, 0.8963484999541915, -0.7059796017231198, 0.20264125655701393, 0.1291681476988405, 0.7382048968604951, -2.20598342942614, -0.01749080102176643, 0.6821478088507331, 1.015752366712953, 0.06798898403549122, 0.0772451247085755, -0.24891009516117568, 1.5251431467758452, -0.04886333924067003, -0.5406500576401719, -0.6242911558425834, -1.702243031850233, 1.3288210489164813, -0.8915931009257948, 1.1820472775522275, 0.6045564673913306, -0.7340464009624839, -0.23655204128261859, -1.0303720897577473, 0.3813880289217695, 0.30430415247591397, 0.3904933630990307, 1.266933430692127, -0.644272049355563, 0.3973392027235569, -1.5920270340275087, -1.2041837823377595, 0.34562116791101466, -0.03438344408370171, -0.5101143660181314, 0.3502723515250527, -0.3451705729072461, 0.23482865675425024, 0.16562925016821378, 3.187716504130889, -0.8278126923115465, -1.1202668112781393, -0.4500928398675883, 0.2546805279138777, -0.17619218757141666, 1.5165783062909126, 2.1359263605264167, -1.1509112796062877, -0.36545996976540085, 0.39020957413144775, -0.49451433508996673, 0.15791731147132068, 0.0020430739077750694, 1.6514297854840132, 0.4221457402176684, 0.5788225489952793, -0.8252010553327238, 0.8481080812575095, -1.1925870823171407, 0.32842249635805476, 0.0948963465529124, -1.3189172467769046, 1.3834265475644298, -1.1006270377495753, 1.1721310352247047, -0.18952157018551324, -0.8479701364674044, 0.428903297167635, 0.012628434107874158, 0.6793999426343934, 0.5760393444463201, 0.5301359984436179, 0.5673478674039351, 0.5478443027852158, -0.029086948064212408, -0.7091108109335647, -1.5430142425758677, 0.592402445197444, 0.28283130855819955, 0.5485932958578388, -0.2627835733230241, 0.5011488143473004, 1.2317081733973485, -0.3368239751653993, 1.6738824480315802, -1.9999719502332165, 0.9966649016109277, 0.6373887518016391, -0.40353017346778147, 1.586556034435497, 1.6540318801591458, 0.33503397100777754, 0.9917741970764168, 0.5142822375103514, 1.0148950136034132, -0.4278854505745232, -0.5520037590726634, 0.6310165632797641, 2.304714595301103, -0.5785391822861331, -0.7920612027399239, 0.005045253309502663, -1.1799836172984222, -1.1192219942656054, 0.0918394874739189, -1.045539047935568, -0.43432629798625894, 1.3980955808384823, 1.5765831575969722, -0.17073350561997633, 0.16302696497796518, 0.05811384452605207, 2.334457813686447, 0.5465049713873162, -0.10435840682741201, -1.2160560680427555, -1.695134957954889, 1.7996806496976805, -0.07532359595887114, -0.7174602724471352, 0.03718171832468226, 1.2547886672063828, 1.1439448452024747, -0.597169210306587, -0.1258596318196199, 0.09397350827534173, -0.8665094536248125, 0.9420754423021982, -0.3035182241339566, 0.8701877642847201, 0.21336426068599892, -0.6086550265679902, 0.09938327170139993, -0.5901366841644697, -0.3863515641829637, 0.9684195914012512, 0.481725792127692, 0.08123586746868888, -1.59701215464671, 1.1132661129349986, -0.5660253617133102, 2.1376865788374, 0.09698169399259952, 0.11538776166550219, -1.928448455824618, 1.2116636557406963, -0.23847568731074523, 0.8732171868747559, -0.9255614747091202, -0.6092183738772387, 0.9149984288777062, 0.9648628931803105, -2.221224208847001, 0.5126506275909231, -0.18887642351532588, -0.22311960129651792, 2.0514823791784482, -0.6384984986967915, 0.42741670600872067, -0.4346494594697537, 0.018481158124579705, -0.05208570340473464, -0.35363691741288666, 0.4109319979206066, -0.2527650964604598, 1.341993518828759, -0.99670910772101, 0.9773234227186952, -0.0462656404246008, 0.19462564711381872, 1.5320100086833366, 1.4007692563254375, -0.5112095835762984, 0.8511848687559168, -0.9473682244409495, -0.9739334308211265, -2.5490371718674156, -0.7668534437101109, 0.24768731417648251, -0.06942891236869822, 0.9023048246067914, 0.3325001386150918, 1.3506022658797041, 0.46286655933755183, 0.46275917789081694, 0.5657084751109454, 0.9750217291918989, 1.0303193927956293, 2.064394504214367, -1.3883951254171356, 1.3052942912937533, -0.32457625193894235, -0.5349981367900049, -0.3625120509508373, 0.14245354996340306, -1.2084965197188777, -0.43422586513665806, 0.8796564899143616, 0.9340359527655061, 0.7798466859039218, 0.3952165627559409, 1.7816465179990846, 0.0781617424831922, -1.1909666714507834, -0.3848227447182247, 1.2439176673520576, -0.9280170020697549, -1.1009814247046856, -0.8996657654990037, -0.8208820937052628, 0.010620438200884456, -0.8548103781924128, 0.857061987350909, 0.5799468627650312, -0.3257947891053798, -0.8245131648841608, -0.13834803983540434, -2.1024348932532946, 1.0479778960559814, -0.09018237021856233, 0.2944333380528348, 0.6788811665775668, -0.47841928525656613, -0.0458586789876093, -2.660535425938723, -0.5159295373068451, -1.2440938270106037, -0.43742687200228075, -0.5658823856997155, -0.5991867627844004, 0.4431783043809938, 1.6362407588267125, 2.0980785143553997, 1.1402483458251493, 0.08974964374973116, -0.07959970025101426, -1.34483270675457, 0.5770045487381965, 0.5065086946290915, -1.568347631299929, 0.27361417628479834, -0.5277422666395615, 1.2338875729267562, -0.5644837833517988, 1.131415152188883, -0.36863619825618843, -1.57189092495808, 0.1469211209730202, -0.26677184999025344, 0.8362867268283202, 0.19894407643192064, 0.3953955185774933, 1.0415238504824005, 0.8422093914082854, -0.888055994337956, 0.08718585013042936, -0.9252068700903376, -1.6234306098423825, -1.8693824143375952, -0.4392458031249544, 0.15147591842997124, -0.8416187381140122, -0.24951544939510714, 0.0717698006189566, -0.38322832680272095, 0.49891022966050047, 0.23186276787687887, 0.7791452919118658, 1.3389011972362879, 0.8126448323495836, -1.2557259095320292, -1.0211905473162481, -1.0125785295693313, -0.8825465480684179, 1.2672773932713728, 1.137795144079513, -1.1106809324247873, 1.5602731551528215, 0.9851749562545505, 0.10716573627268297, 0.6775171079204374, 0.9053845844276766, -0.7003197932674662, -0.8768411702676604, -0.3762534234902672, -0.846184165341121, -0.23118788145285443, -1.24416829653349, -1.1190182351585927, 2.588206505411166, 1.0324193269298143, 0.9143163386873792, 0.36474286130215555, -0.24953094563742004, 1.0232105588484628, -0.15490845632968478, -0.07174164469114248, -1.6353550353893127, -0.7079246475479007, -0.6484718634565563, 1.8514048107882761, -0.847754070263753, 0.5489544229781006, 0.3504735166326679, 0.2687010733993243, -0.6024996075396801, -1.8915160127691146, -0.5720933653479452, -0.8282560006625044, 1.4134130521272654, -0.6120135814893195, -1.296963501095685, 0.4082232116499769, 0.19307474818190137, -0.06956104315985015, 1.3142167005430954, 0.915137983449108, 0.66227518419673, -1.599859380170676, -1.0104716831749674, -1.134109992584288, -1.1582747601125496, 0.08728498099952808, -1.5201725778306951, 0.8505646709816109, 0.07552668816591228, -0.48769109316814147, -1.047158504290874, -0.37425133818537604, -1.0000747918513953, 0.38739446617673, 1.0435161680577683, -0.0070345801207523356, 0.7452420023588617, 0.6013441965242349, 0.0740280068638138, 0.7011632394872781, -0.8285563026338802, -0.23192790859481446, 0.641321420756459, -0.3757754756540224, 2.17825083234549, -1.7195037541546143, 1.8474755563870342, 0.424511812344018, -0.46898405301217916, 0.02875891558123437, 1.058815961406445, 1.346891003371465, 1.7522539450997647, 0.793688138388738, -0.8551000101720005, 0.24005352791380208, 1.881708085531572, -1.1046287319203147, -0.6089945128712826, -0.9421538956036072, 0.022486674867546352, -1.2608576942338299, -0.3880745929975382, -1.0660950549898833, -1.0555790810935106, 1.1132733778825399, 0.5055868673922919, -1.6586071498818353, -0.3027294138324568, -0.05422642745696514, -1.4641031808347151, -0.3899032798964937, -0.8848662558946517, 1.6023385101986503, 0.8438161211774055, 0.30148882571023217, -0.393188659371211, 0.03706208807065678, 0.676020372719533, -0.985523064305264, -0.9371832115416018, 0.9541230478405043, 0.8933176483455331, -0.2697919032757183, -1.2353060693583369, 0.0856093919171761, -1.3501134602979312, 0.757245673531873, 0.27485820795337584, 0.8340120288237737, 0.8114714744086474, -1.1328787720719407, 0.8096482823588192, 1.2417813058826814, -0.07322577610240012, -0.5554328681029128, -0.6985978371001101, 0.0505464020899547, 1.472514874031544, 1.1721830655937744, -0.17240492415346606, 0.26310785255228336, -0.8305336062614647, 0.09607474487964417, 1.4974641060357121, 0.0684880418949207, 1.2308786514526466, 0.4716904262029846, 0.09122935621930703, -0.18822283881073065, 0.006284453393636385, -0.5575171196902804, -0.3842128315189786, -0.7976834384117828, -0.2033429148172524, -0.5257397029862482, -0.20300260829796732, 0.5228866997115368, 0.5387046848092981, -0.041613946751770714, -0.41974884853183103, 0.809395410230761, 0.3522664435026427, 1.0560402731046497, 0.35471687186641926, 0.30390019493885, -0.5092188208609395, -0.7117217852315697, 0.839787585087338, -1.0544830733384463, -1.769953737632813, -1.2557263873399973, 2.339003552479589, 0.1221566040848428, 1.531855493892629, -0.012640044892087376, -0.6015525398544508, 0.23739245976745446, -0.4421928674748306], [0.6105897246489107, 1.1750421848612511, 0.22509175171344128, 0.686505618686041, -0.24366791163005233, -1.7597514416478757, -0.715821590107176, -0.5379724926458751, 2.2330506154261673, 0.21695237879620421, -0.6116641255695696, 0.11553742367406454, -0.29807149719329357, -1.002922093426096, -1.1381294659661931, 0.02389142951789316, 0.8094523206100873, 0.9742178130803136, 0.06933350385485922, -0.014873717197139296, 0.7962623783545033, -1.2197980173911878, 1.364699776016175, -1.6993449233262892, -0.37282053530641174, 0.653001321461481, 1.322921179375395, -0.6038011674780682, -2.4744635898457723, -1.1055087892262419, -1.8860739547788845, 0.4300408092074871, 0.08899090388289152, 0.824165300217179, -1.009583016550647, -3.0534324845091096, -1.4206739363535639, -0.6965888876988049, 0.8157854874030331, 0.4246806879767049, -0.06363726370868654, -1.4907364220533414, -1.4191971353707489, 0.05172397246218982, 1.1337508650355657, -0.3102009640300045, -1.070242260063689, -0.14940758012559613, -0.8497376525043631, 1.7264094022537262, -1.9235657965036177, 1.3932553627881235, -2.283009031219494, 0.2195536553804159, 0.29811765000238294, -1.780815778660534, -0.2889679517978769, -1.7191982961927896, 0.20821942954272307, 0.08803676537108336, -0.11504400865969387, -0.04792314497650954, 0.01604758290765139, -0.15722901772216055, -0.7976729093436683, -2.0345694293841063, 0.10326407467656847, -1.017541308542221, 0.9889235145106549, -0.6511452297180863, 0.5437964638932032, 0.6199899248514067, 1.6228430470169042, 1.0510159052425503, -0.0034994350440938388, 2.2337753198891073, -0.07238646550003984, 0.14464271185558839, 0.6800721090520209, 1.938342264202218, -0.13392096750372348, -0.2937229551771444, 0.8807580815058201, 1.1725750749060053, 1.5669328815706949, 1.6163261426718012, -0.30121814157018156, 2.3932557551172864, 1.4934856597716286, 0.7701303877904165, -0.4100009232203955, -0.014125209124640737, 0.1763951526293906, 0.2785801168502289, -0.750097588190961, -1.9519370678255925, -0.4121536272166125, -0.20288232549504642, -0.29488053702217126, 0.5921246964491899, 0.766300846221921, 0.1998285421361333, 0.7020731908013614, -0.06987485764319606, -1.1432273877450436, 0.18409574387840635, -1.0330722121003506, 1.0366206019154407, -0.4665542722739763, -1.0571728449810613, 1.0059751879109822, 0.2599433377797817, 0.9835820113579005, 0.5805478644537971, -0.12350843823094505, 0.09535477204209113, -0.9703741508068214, 0.1163940649142357, 0.2186300513153466, -0.045830079761775736, -1.0269176413740841, 0.06121911265164907, 1.0714386055378764, -0.12484714554041894, -0.6320572390426383, 0.14361408943728482, -2.052635035393621, -0.3072107800618888, 0.7062505827003219, 2.338612949892142, 1.2678841803089844, 0.20074714870323387, -1.4209853303955196, 1.1607788666476737, -1.0231450517235987, -0.2797358381453543, -0.36923636108890223, 0.8400293723307111, -0.2937333863681242, -0.04968718923938079, -1.0346076776670774, 0.9077367117824644, -0.5280405043575223, -1.174678220592728, 0.7597388665516267, -0.5377332898354387, 0.8000089959721955, -0.5392687629512478, 0.10280606335007979, 0.6887158959635722, 0.6240606231842412, -1.4209184205494019, 2.000840173276974, 0.4907008917375509, 0.1268982261560426, 0.2302054213782663, -0.07424367347015427, -0.6414971127922187, -0.45579880491561153, 1.3821219393189759, -0.3287541186094069, 0.9901889058876279, 0.7686231239934268, 1.051152158262639, -0.3205319777137213, -0.03716623866526721, -0.22402551568676254, -0.1371001543784049, -1.1654090635777345, 0.08436979862579026, -1.4720924360270369, -0.4103429691815767, 0.2924580800150523, 0.035869114079542214, -0.468696822276376, 0.4555659560280244, 0.24948391036160372, 0.16458816076675642, 0.3509252056911437, 0.27436908308374414, -0.8848871275868299, -1.10811139481097, -1.4020452679939206, -0.3705873327375958, -0.7305948507580099, -1.102864271566271, 0.4623844977057653, 1.2986327904910795, -0.7211247462144651, 0.3831387102684444, 0.7435851607788309, -0.2566749666878151, 0.7988911967298193, -0.8862248623450151, 2.112536023755083, -0.10716639305507522, -0.12115657767601452, 0.37865731855295687, 0.33206168575110767, 2.146188770909878, -0.5716598240578689, -1.8609643261885742, -2.3029642873449827, 1.4346811295774748, 0.99345687737664, 1.8792871363696109, 1.0500022795708202, 0.17696092631669827, -2.440458194303623, -2.026007183720548, 0.2046300666059694, -0.4919693764498595, 1.7813029141439087, -0.4630807243850787, 0.5989248489093494, -0.8583969878282732, 0.3258111909549773, -0.9066741505547176, 0.08644261062654368, 0.11693227257628262, -2.1352935017385857, 0.8648265475993476, -1.319976022011561, -1.115390922081034, -1.4052029077668904, -0.273476320766958, -0.5404546602632911, 0.18639861459644633, -1.03716281887457, 0.38710194936379405, -0.2210297141235044, -0.21840700744514385, -0.4128558381215067, 0.29131359051947847, 1.4533051530419463, 0.158389690358679, 0.24334847939277007, -0.15761014675699464, -0.6026162654990704, 1.6486494049312026, 0.25434354250669694, -0.1366729977359712, -2.450011460329717, -0.030134531145854935, 1.1638843562367087, -0.025525624150707006, 0.5143454062514189, 1.12915760328139, -0.6414939244492338, 1.9242000715461693, 0.7471482849119905, 1.4228679869880714, -0.15114307105990163, -0.30447843002509634, 0.580440885861471, 2.0709122487798055, 1.8338856412284616, 0.509355413350063, 0.6299536348447502, -1.2002891652801828, 2.1113175734536695, -0.5257358128027304, 0.8025737019377492, -0.7813640043347008, 0.7784935373239669, 0.5077302694221585, -0.48218357352232266, 0.17688911429629012, 2.1488654245765946, -1.0259972720682584, 0.4296001166570609, 0.7178876003680384, -2.9829215870833203, 1.3926289666317528, 0.028531119604462713, 1.1249304103411937, 0.9358271563099609, -1.7305528865325532, 0.6377777462760037, -0.6714892212232912, 0.3111830313384733, -0.21832728682761898, 1.1951730026641745, 0.24387144348961245, -0.6733756586757667, -0.33606680337509537, -1.1174474321978818, 0.34686116070237705, 2.3961188212349387, -0.9345521650794215, 0.38772738911478827, 0.10827920051583176, -1.0799852127027427, 1.6506782586734663, 0.6269655597649302, 1.3138430340131337, 0.6704028470944451, 0.8882464665496675, 0.31395631310763106, -0.9997192174871751, 0.06571505425389872, 0.6082049579126295, -0.5226457192464127, -1.13509624351651, 0.18660364351280465, 0.25724390296611443, 1.6479188123435895, 0.3056072278893362, 0.09209573078214404, -0.30292528812898906, -0.7205555374627012, 0.9759512223376012, -0.8028972715501205, 0.46399154982419116, -1.3948271856248802, 4.040876439616069, 0.4452650558512881, 1.0703210821829532, -1.3726607385953224, -2.2675955159664825, 1.5732168753461298, 1.4694409134470137, -2.3496198287181267, 0.2939068747484653, -0.10012089812187835, 1.1912600675251195, 0.6251477161865286, -0.7178703137195943, -1.9142094127366096, 0.9304293796286793, -0.39956073585076857, -3.3524284468969188, 0.34961662213078465, -0.08687677059523345, -0.18973943173766422, -0.8722463940233498, -3.0602447438267593, 0.7713292498829885, -2.2330598843092377, 0.9108752754703393, -0.36320305509590683, 1.0823241983601408, 0.5476873549078657, 0.44438477355345885, -0.1784030183794953, -0.14090586425720267, -0.2568737919268361, -0.026602508189365593, -1.1533667805344037, 0.2984097254091141, 0.7173011065247403, -0.02042322664256661, -0.9995076387271373, -1.989519241823669, -1.0936921414012486, -0.024476690709548065, 0.3314396289899743, 0.6842685431481447, -0.7562714735596449, -2.1803524844437927, -0.6388178395413666, 0.27087777535164076, 0.7766545138914538, -0.6319656390337852, 0.7888102835848912, -0.16279833993283038, 1.524026159473241, 1.1005238669394175, -0.2518914356278719, 0.30615013673422453, 1.1583192946034435, 0.10291859856835775, 1.3936540822100338, 0.03814627086627162, 0.4489006168911579, -0.64147925362436, -0.2657222255121199, -0.143161671139201, -0.38568520588397753, 0.4112608187138279, -0.7224933501435781, -0.5437372562253246, 0.4686532643893658, 0.14465867520071984, -2.14190468875212, 0.4668530454646325, -1.9258362610609305, 0.7997453133836889, 1.8478775029602637, -1.237833022572709, 1.2608700162280808, 2.089920541723025, 0.5886618088357316, -1.6728746786764142, 0.21759210447215588, 0.18202057236273275, 0.886077848279615, -0.6625021764493393, 0.021680286208557647, -0.35758932842950136, 1.5569710277441506, -0.1254831052636187, -0.829112211006126, 0.6163789182912913, -0.21218548651301192, -0.6034857811156928, 0.8665237523066244, 0.9223195823238128, 0.6214987381101216, -1.623982065520615, -0.5714673053397719, 1.407583594295995, 0.004993521499164638, 0.2661223041938885, -0.544188163578201, 0.8902835845072564, -0.8086763113690187, -0.9456154924908166, 1.9425864898436052, -0.23697158338909896, -0.7507148629796594, 1.2764338463828122, 0.7913698374954744, -0.7743142859715629, -0.563709018891082, 1.8738849222608824, -1.136718820208878, -0.042574507875629296, -0.5773498887490344, 1.209636872042518, -0.9469543898623533, -0.6153100636786825, 1.2844638207950088, 0.6436546196298476, -0.651489119551579, 0.0961825518981116, 0.09449199643335554, 0.5401751470451008, 0.120251043073302, 0.1936771967522263, -1.6500194617335049, 1.438775389875186, -0.29902243994324534, -0.23134116480884062, 0.8449631435389776, -0.9780637246050621, 2.744034772853001, 0.7082467946337871, -0.11616733468069956, -0.5669165057718235, 1.1416719741254582, -0.6173082694621209, -1.9584064491078093, 0.48928527524966464, -0.26410137093385894, -1.8652848559279924, -0.2002306282178706, -1.3742761992093055, -1.258237653436752, 0.8839926708751366, -1.4788631465197852, -0.13273824488934907, -0.3204225542062558, -1.2660583155101501, -0.2966146588281658, -0.37000525945928014, 0.5485751230450387, 0.6753244900988664, 0.2923951176370488, -0.40634499549038744, 0.22152420010109103, -0.1829061692225098, 0.19326562308995643, 1.5441383711291634, -0.4466526510768942, 0.5632426295071036, -1.28527101362569, 1.0495814578829927, 0.31112371939057554, 0.1961852891029984, 0.6874924537996608, 0.43044691007800295, -1.1457270342871264, -0.41823102939572776, -0.9795278199424543, -0.956208976704163, 0.3998575181836417, 0.3319803361111322, -1.6016546214370253, -1.0688187423029496, 1.0686256006407235, 0.8136486350667296, 1.08657937399912, -1.2229095195638549, -0.531046003464684, 1.3268985572939616, -1.2823043755685017, 0.7784031280439572, -0.4148142389043795, 0.1577163604691351, -0.4362010589587897, 1.0861019271961336, -1.0669829149362404, 1.2834741681464799, 1.78342846232806, -0.3646208008929863, -0.9589715607904479, 0.5318741968525711, 0.15652968590030708, -0.545738039620297, 1.3248391702614428, -0.8116455103128776, -1.6452270061787961, -0.5859217964531511, -1.0714799586450268, -1.9079266097959668, -1.1920967106828315, 0.17193219038663812, -1.1861961701359558, 0.8339397001117016, -0.6770883420339662, -1.254495614203716, 1.0115388524593227, -0.18101957504562433, 0.735447012036118, -2.0624139728793733, -0.42680402416208807, 0.5168672736196326, -0.12334025681061732, -0.39586581508573565, 0.3929541125404829, 2.9458660001998425, -1.9739415702321925, 0.4322599417655361, 0.7718639957662078, 1.0189000854570165, -1.128064696420177, -0.5832315194013434, 0.20036485926340716, -1.2763660109656803, -1.769118298549914, -0.21387728752770874, 0.21365154770759262, 0.748708733668422, 1.1440233773980795, -1.2830653877370013, -0.7585212225570547, -0.8209472175487754, -0.17681039956611738, 0.5198190057964712, -0.7870692828243808, -0.13827389280986502, 1.502367304389939, -1.4797098285738215, -0.5410756520412341, 0.13562703711327304, -0.03073529837817208, 0.44228575641963147, 0.9345638634460434, -1.4538498110099058, -0.15775358442417536, -0.8219882054009313, -0.9888086089142025, -1.1159401056437805, 0.5111257552422787, 0.4375253341107115, -1.6561828329397108, 1.8930369398141011, -0.20766888439041997, 0.5136225374237743, 0.4427977197474508, -0.9814605906733508, 0.4720912638033651, -0.03278766945417258, 0.8204826034628688, 0.16712140712877918, 2.3059562878740842, -0.11676260994683951, 0.8035548788072177, 1.06132199272692, 1.8512654333109646, 0.9012457448329618, 0.3799606096297486, -1.2466270949208298, -1.1447386903135772, 0.8117832163382098, 0.1011218297650488, 1.2473427159325874, -0.3028496637456751, -1.12469526147507, -1.1379614662792137, 0.8461346866315222, 2.8218871639804926, 1.911589681364074, 3.081836885719808, 0.004406010487798772, -0.16746783514552793, -0.4982321160511495, -1.7817141232274605, 0.01434140680105705, 0.5125970946743145, -0.9882730587086985, 1.9911966847690064, 0.6623156071151125, 0.5263151824938493, -0.027095730182855344, 0.09794201027612762, 1.0599756838266416, 0.8477113987393922, -0.49946226697274576, -1.6416569749381287, 0.511163992590342, -0.4675778276158871, -0.46230606084424886, -1.0594443279316776, 0.6862828656819034, 0.16028481396798724, 0.19314906029481282, 0.6647557440560532, -1.3725045744115532, -0.027383404754394422, 0.29562804493015393, 0.9808385484197772, 0.08100664934807386, 0.9320710175966899, 1.1530958906016797, -0.6217279953277244, -0.3418139955856699, -0.3981924233988608, 0.9491670518227165, 0.40576696170314164, 0.6384184648489367, 0.2152564544962074, 0.12395990709859613, 2.1120309971946747, -0.7546933742097631, 1.0798337960410718, 0.8774194211850138, -1.7341613618578182, 0.5010041441390597, -0.5916151230253641, 0.46910565643114926, 1.365842753031323, -0.5494327864942983, 1.3011985695292099, -0.8729685700516271, 1.9749339463096993, -1.7048607402080376, 0.7838856257032939, -1.077856765048513, -1.4728959107912958, -0.4668814254878932, 1.326461112616205, -0.8637383612483471, -1.1087302147095217, 0.40082290561903167, -0.5475692431092581, -0.6023357462540829, -0.49752470367986296, -0.35991563747593597, 0.6428882462845457, -0.2716140794080244, 1.7470821093555937, -0.33281307381585257, 0.12023983379614246, 1.3084499676632584, 0.639161101498398, 0.05655771023831439, -0.31891405822488916, -0.19537422613754826, -0.9948556763491939, 0.6050657751270225, -0.3857426996944918, 0.8261526288935082, -0.21655425431656788, 0.8530278974500158, 0.029289803198940333, 0.8684053683194555, 0.19317607779317306, 0.6191104264389499, 2.590301725285124, -0.0839590768604742, 1.0144083672604978, 0.8831452154696238, 0.7331837972893575, 0.636141669489285, -0.21590907269928553, 0.280590026132559, -0.41669639548723897, 0.3359856394507531, -1.446291826714187, -1.016829026884188, -0.49534733087344635, -0.8423416634454258, 1.1888281421056728, -1.3234944136553217, -0.9908732428379841, 1.323571354828705, -1.923811875332741, -0.23494793127662358, 0.16057097742604604, -0.8685620673674099, 0.1548000104113639, 0.7657454891041593, -0.519953203269039, 1.1719249900663078, -1.0792335763160161, -1.5586049033628087, -0.3125944018868697, -0.5279872467273206, -1.0376858961260484, -1.2456398226961543, -1.8859302327282659, 0.2067455276289265, -1.0643795027364689, -0.421965202660126, 0.23145291510324933, 1.001481396018757, -0.2860773571227847, -0.9283865135712668, 3.4519744205300475, -0.0024228469117382272, 1.4180644875241244, -0.057585807260914314, 3.098228529328952, 0.35328338259298897, -0.0774213622479438, 1.2107608216357368, 0.09681877053157195, -0.7216932601645951, 0.7752766676241601, 0.5068667484344163, -0.571572662198919, -0.3488044693918792, 0.4373402422557423, -0.19727762857045528, -2.380974931801689, -1.0589308079162696, 0.15666755111192546, -1.2555348723132238, -0.771288025651161, -0.8907485714203246, 0.3202256972015089, -0.019870832430251416, 0.8658174370116238, 0.5096121873367104, 0.5200961158036586, 0.5264101712809796, 0.10120560305908737, 0.5505168844922524, -0.2884677317771381, -1.2062334246480766, 